{"learner":{"attributes":{"best_iteration":"99","best_ntree_limit":"100","scikit_learn":"{\"use_label_encoder\": null, \"n_estimators\": 100, \"objective\": \"binary:logistic\", \"max_depth\": null, \"max_leaves\": null, \"max_bin\": null, \"grow_policy\": null, \"learning_rate\": null, \"verbosity\": null, \"booster\": null, \"tree_method\": null, \"gamma\": null, \"min_child_weight\": null, \"max_delta_step\": null, \"subsample\": null, \"sampling_method\": null, \"colsample_bytree\": null, \"colsample_bylevel\": null, \"colsample_bynode\": null, \"reg_alpha\": null, \"reg_lambda\": null, \"scale_pos_weight\": 1.797940797940798, \"base_score\": null, \"missing\": NaN, \"num_parallel_tree\": null, \"random_state\": null, \"n_jobs\": 16, \"monotone_constraints\": null, \"interaction_constraints\": null, \"importance_type\": null, \"gpu_id\": null, \"validate_parameters\": null, \"predictor\": null, \"enable_categorical\": false, \"feature_types\": null, \"max_cat_to_onehot\": null, \"max_cat_threshold\": null, \"eval_metric\": \"logloss\", \"early_stopping_rounds\": null, \"callbacks\": null, \"classes_\": [0.0, 1.0], \"n_classes_\": 2, \"_estimator_type\": \"classifier\"}"},"feature_names":[],"feature_types":[],"gradient_booster":{"model":{"gbtree_model_param":{"num_parallel_tree":"1","num_trees":"100","size_leaf_vector":"0"},"tree_info":[0,0,0,0,0,0,0,0,0,0,0,0,0,0,0,0,0,0,0,0,0,0,0,0,0,0,0,0,0,0,0,0,0,0,0,0,0,0,0,0,0,0,0,0,0,0,0,0,0,0,0,0,0,0,0,0,0,0,0,0,0,0,0,0,0,0,0,0,0,0,0,0,0,0,0,0,0,0,0,0,0,0,0,0,0,0,0,0,0,0,0,0,0,0,0,0,0,0,0,0],"trees":[{"base_weights":[-9.010224E-5,-8.851039E-1,2.298818E-1,-1.3097918E0,-3.5497028E-1,-1.1678186E-2,7.041585E-1,-9.387078E-1,-1.7731849E0,-1.1269622E0,1.5473379E-1,-1.56113E-1,1.1209341E0,8.3704345E-2,1.172482E0,-1.3574401E0,-1.8395218E-1,-4.664492E-1,-1.8731885E0,-1.4363511E0,-1.6469562E-2,-1.6503075E-1,1.2215543E0,-9.2121905E-1,-2.6503844E-2,1.5360821E0,1.2394363E-1,-2.3563895E-1,7.820203E-1,1.3906192E0,-3.0318192E-1,-1.7823465E0,-6.169433E-1,4.5310602E-1,-1.0269309E0,6.039826E-1,-1.2E0,-8.9228386E-1,-1.6886803E0,-7.2791106E-1,1.015729E0,-1.1873541E0,2.578475E-1,1.6246377E0,-1E0,-1.1534292E0,9.2778283E-1,2.213823E-1,-3.7021512E-1,1.6669406E0,-1E0,8.6920136E-1,-1.2326595E0,8.472976E-1,-4.5719454E-1,1.0962883E0,-1.4285715E0,1.4789528E0,-1.3846154E0,2.1492696E-1,-1.5294118E0,-8.725532E-1,3.8629282E-1,-1.3846154E0,1.1350878E0,3.32618E-1,-1.3873781E0,1.3864347E-1,-1.6E0,-1.804878E0,-7.1233773E-1,-2.2294883E-1,-1.1111112E0,-1.6923077E0,5.4721E-2,-2.2939203E-2,1.2150524E0,-1.4208003E0,3.0887818E-1,1.3176229E0,-2.7325922E-1,-1.2209011E0,3.368065E-1,-1.1714286E0,-4.06848E-2,1.7896931E0,5.873797E-1,1.1885117E0,-4.494943E-1,-1.4285715E0,-4.494943E-1,-4.494943E-1,1.1350878E0,-7.54548E-1,-1.0844134E-3,1.281642E0,-1.1111112E0,7.2545564E-1,1.6977962E0,-1.2E0,5.782751E-1],"categories":[],"categories_nodes":[],"categories_segments":[],"categories_sizes":[],"default_left":[1,1,1,1,1,1,1,1,1,1,1,1,1,1,1,1,1,1,0,1,1,1,1,1,1,1,1,1,1,1,1,0,1,1,1,0,0,1,1,1,0,1,1,0,0,1,1,1,1,1,0,1,1,1,1,1,0,1,0,1,0,0,0,0,0,0,0,0,0,0,0,0,0,0,0,0,0,0,0,0,0,0,0,0,0,0,0,0,0,0,0,0,0,0,0,0,0,0,0,0,0],"id":0,"left_children":[1,3,5,7,9,11,13,15,17,19,21,23,25,27,29,31,33,35,-1,37,39,41,43,45,47,49,51,53,55,57,59,-1,61,63,65,-1,-1,67,69,71,-1,73,75,-1,-1,77,79,81,83,85,-1,87,89,91,93,95,-1,97,-1,99,-1,-1,-1,-1,-1,-1,-1,-1,-1,-1,-1,-1,-1,-1,-1,-1,-1,-1,-1,-1,-1,-1,-1,-1,-1,-1,-1,-1,-1,-1,-1,-1,-1,-1,-1,-1,-1,-1,-1,-1,-1],"loss_changes":[1.3544193E2,3.0437248E1,6.052366E1,1.1376007E1,2.4736324E1,5.758656E1,5.1700188E1,1.3731018E1,3.3861618E0,8.546574E0,1.332725E1,3.092845E1,1.6288979E1,1.7523653E1,3.3096878E1,7.803299E0,9.563484E0,3.5900095E0,0E0,1.1699028E0,5.473642E0,1.3485188E1,9.676967E0,2.0471317E1,2.2911568E1,1.0966606E1,1.4005184E1,1.33732E1,1.8677698E1,2.3771332E1,9.155743E0,0E0,3.374785E0,1.4534849E1,4.1850567E0,0E0,0E0,6.27604E0,9.833145E-2,6.0348654E-1,0E0,5.7990675E0,6.044594E0,0E0,0E0,1.6308968E1,2.980125E0,2.643135E1,2.9694126E1,2.5297165E0,0E0,4.2579093E0,1.1727238E-1,4.071624E0,6.1810713E0,1.0478916E1,0E0,1.3009659E1,0E0,6.1660366E0,0E0,0E0,0E0,0E0,0E0,0E0,0E0,0E0,0E0,0E0,0E0,0E0,0E0,0E0,0E0,0E0,0E0,0E0,0E0,0E0,0E0,0E0,0E0,0E0,0E0,0E0,0E0,0E0,0E0,0E0,0E0,0E0,0E0,0E0,0E0,0E0,0E0,0E0,0E0,0E0,0E0],"parents":[2147483647,0,0,1,1,2,2,3,3,4,4,5,5,6,6,7,7,8,8,9,9,10,10,11,11,12,12,13,13,14,14,15,15,16,16,17,17,19,19,20,20,21,21,22,22,23,23,24,24,25,25,26,26,27,27,28,28,29,29,30,30,32,32,33,33,34,34,37,37,38,38,39,39,41,41,42,42,45,45,46,46,47,47,48,48,49,49,51,51,52,52,53,53,54,54,55,55,57,57,59,59],"right_children":[2,4,6,8,10,12,14,16,18,20,22,24,26,28,30,32,34,36,-1,38,40,42,44,46,48,50,52,54,56,58,60,-1,62,64,66,-1,-1,68,70,72,-1,74,76,-1,-1,78,80,82,84,86,-1,88,90,92,94,96,-1,98,-1,100,-1,-1,-1,-1,-1,-1,-1,-1,-1,-1,-1,-1,-1,-1,-1,-1,-1,-1,-1,-1,-1,-1,-1,-1,-1,-1,-1,-1,-1,-1,-1,-1,-1,-1,-1,-1,-1,-1,-1,-1,-1],"split_conditions":[5E-1,5E-1,5E-1,5E-1,5E-1,5E-1,5E-1,5E-1,5E-1,5E-1,5E-1,5E-1,5E-1,5E-1,5E-1,5E-1,5E-1,5E-1,-5.619566E-1,5E-1,5E-1,5E-1,5E-1,5E-1,5E-1,5E-1,5E-1,5E-1,5E-1,5E-1,5E-1,-5.3470397E-1,5E-1,5E-1,5E-1,1.811948E-1,-3.6E-1,5E-1,5E-1,5E-1,3.047187E-1,5E-1,5E-1,4.8739132E-1,-3E-1,5E-1,5E-1,5E-1,5E-1,5E-1,-3E-1,5E-1,5E-1,5E-1,5E-1,5E-1,-4.2857146E-1,5E-1,-4.1538465E-1,5E-1,-4.5882356E-1,-2.61766E-1,1.1588785E-1,-4.1538465E-1,3.4052637E-1,9.97854E-2,-4.1621345E-1,4.1593045E-2,-4.8000002E-1,-5.4146343E-1,-2.1370132E-1,-6.688465E-2,-3.3333337E-1,-5.0769234E-1,1.6416302E-2,-6.8817614E-3,3.6451572E-1,-4.2624012E-1,9.266346E-2,3.952869E-1,-8.197777E-2,-3.6627036E-1,1.0104196E-1,-3.5142857E-1,-1.2205441E-2,5.36908E-1,1.7621392E-1,3.5655352E-1,-1.348483E-1,-4.2857146E-1,-1.348483E-1,-1.348483E-1,3.4052637E-1,-2.2636442E-1,-3.25324E-4,3.844926E-1,-3.3333337E-1,2.176367E-1,5.093389E-1,-3.6E-1,1.7348254E-1],"split_indices":[86,131,108,154,101,59,90,108,160,74,123,142,83,72,94,62,120,62,0,127,114,90,75,50,97,72,91,164,131,84,69,0,112,118,98,0,0,106,93,97,0,84,50,0,0,42,137,128,151,97,0,66,149,101,109,136,0,112,0,116,0,0,0,0,0,0,0,0,0,0,0,0,0,0,0,0,0,0,0,0,0,0,0,0,0,0,0,0,0,0,0,0,0,0,0,0,0,0,0,0,0],"split_type":[0,0,0,0,0,0,0,0,0,0,0,0,0,0,0,0,0,0,0,0,0,0,0,0,0,0,0,0,0,0,0,0,0,0,0,0,0,0,0,0,0,0,0,0,0,0,0,0,0,0,0,0,0,0,0,0,0,0,0,0,0,0,0,0,0,0,0,0,0,0,0,0,0,0,0,0,0,0,0,0,0,0,0,0,0,0,0,0,0,0,0,0,0,0,0,0,0,0,0,0,0],"sum_hessian":[6.634701E2,1.3625676E2,5.272133E2,7.483559E1,6.142117E1,3.4995078E2,1.7726254E2,4.323713E1,3.1598455E1,2.3944338E1,3.7476833E1,3.1113577E2,3.881499E1,7.675418E1,1.0050836E2,2.7295366E1,1.5941763E1,2.6489704E0,2.8949486E1,1.8497425E1,5.446911E0,2.9484556E1,7.9922776E0,4.4186615E1,2.6694916E2,2.70222E1,1.1792792E1,5.312323E1,2.363095E1,8.761454E1,1.2893822E1,1.6449486E1,1.0845881E1,9.3433075E0,6.5984554E0,1.1489704E0,1.5E0,7.2979407E0,1.1199485E1,3.3989704E0,2.0479407E0,8.098455E0,2.13861E1,6.9922776E0,1E0,3.9590733E1,4.5958815E0,1.5530115E2,1.11648E2,2.60222E1,1E0,7.8433075E0,3.9494853E0,8.542792E0,4.4580437E1,2.113095E1,2.5E0,8.536454E1,2.25E0,9.643822E0,3.25E0,8.747426E0,2.0984554E0,2.25E0,7.0933075E0,1.3989704E0,5.1994853E0,3.2979407E0,4E0,9.25E0,1.9494852E0,2.1489704E0,1.25E0,5.5E0,2.5984554E0,1.7290218E1,4.0958815E0,3.349485E1,6.0958815E0,3.3963962E0,1.1994852E0,1.0797941E1,1.4450322E2,3.1792793E1,7.985521E1,2.2774775E1,3.247426E0,6.393822E0,1.4494852E0,2.5E0,1.4494852E0,1.4494852E0,7.0933075E0,2.6590733E1,1.7989704E1,1.988095E1,1.25E0,2.018404E1,6.51805E1,1.5E0,8.143822E0],"tree_param":{"num_deleted":"0","num_feature":"167","num_nodes":"101","size_leaf_vector":"0"}},{"base_weights":[-6.941403E-3,-6.765908E-1,1.6325459E-1,-1.0026101E0,-2.7876595E-1,-1.01076355E-2,5.1035094E-1,-4.9188894E-1,-1.2080383E0,-8.812264E-1,1.1289496E-1,-1.0799922E0,7.2812304E-2,7.616273E-1,-1.91382E-1,-1.1441755E0,6.571161E-2,-1.4419873E0,-5.573028E-1,-1.1261834E0,-2.6542945E-2,-1.3632862E-1,9.3643177E-1,-1.3593308E0,-2.591911E-1,-3.0884303E-2,8.5628E-1,2.9355863E-1,1.0986153E0,-1.0410272E0,2.4462786E-2,-2.8570268E-1,-1.4130008E0,7.632385E-1,-6.434817E-1,-1.4808581E0,-2.600968E-1,8.189161E-2,-1.4163302E0,-7.8383136E-1,-1.4531329E0,-6.064277E-1,8.2522976E-1,-4.4773507E-1,6.3863236E-1,-6.3841514E-2,1.2542005E0,-1.6028451E0,2.2188632E-1,-9.513894E-1,5.132787E-1,-1.705724E-1,3.9550593E-1,1.2018404E0,6.21805E-2,-4.3674515E-4,7.1691465E-1,1.2631801E0,-2.2674826E-1,-1.3426316E0,6.0893786E-1,1.5554172E-1,-1.2462443E0,-9.794588E-1,7.238256E-1,-3.595048E-1,1.1613065E0,-1.1546868E0,5.4674715E-1,4.1946077E-1,-9.705457E-1,-9.964968E-1,5.818821E-1,-1.7745668E-1,-9.418921E-1,-8.464628E-1,2.4970156E-1,-4.4542512E-1,9.0813994E-1,-2.2646154E-1,5.741552E-1,-3.5877126E-1,-1.1160746E0,-5.3348595E-1,1.2400242E0,2.3753501E-1,-5.3049797E-1,-2.4590768E-1,8.5599357E-1,1.2970003E0,2.685631E-1,6.513136E-1,-1.0039315E0,2.7723238E-1,-1.0760113E0,1.0801439E0,-8.2340825E-1,-6.139655E-1,1.3143468E0,-5.896591E-1,1.0535426E0,-1.6794521E0,4.6262702E-1,-7.261736E-1,3.7932724E-1],"categories":[],"categories_nodes":[],"categories_segments":[],"categories_sizes":[],"default_left":[1,1,1,1,1,1,1,1,1,1,1,1,1,1,1,1,1,1,1,1,1,1,1,1,1,1,1,1,1,1,1,1,0,1,1,0,0,1,0,1,0,1,0,1,1,0,0,0,1,1,1,1,1,1,1,1,1,1,1,1,0,1,0,0,0,0,0,0,0,0,0,0,0,0,0,0,0,0,0,0,0,0,0,0,0,0,0,0,0,0,0,0,0,0,0,0,0,0,0,0,0,0,0,0,0],"id":1,"left_children":[1,3,5,7,9,11,13,15,17,19,21,23,25,27,29,31,33,35,37,39,41,43,45,47,49,51,53,55,57,59,61,63,-1,65,67,-1,-1,69,-1,71,-1,73,-1,75,77,-1,-1,-1,79,81,83,85,87,89,91,93,95,97,99,101,-1,103,-1,-1,-1,-1,-1,-1,-1,-1,-1,-1,-1,-1,-1,-1,-1,-1,-1,-1,-1,-1,-1,-1,-1,-1,-1,-1,-1,-1,-1,-1,-1,-1,-1,-1,-1,-1,-1,-1,-1,-1,-1,-1,-1],"loss_changes":[7.3880714E1,1.6758274E1,3.110904E1,6.9401245E0,1.438726E1,3.0747908E1,3.0509186E1,8.181101E0,6.8884506E0,4.9883785E0,7.841196E0,5.363529E0,2.6168564E1,1.9708984E1,8.498501E0,1.9792032E0,6.902682E0,1.2932968E0,8.347488E0,9.435806E-1,3.643619E0,7.4591575E0,2.8956833E0,7.426674E0,4.5336084E0,1.7050344E1,1.0255642E1,6.78659E0,1.6311302E1,5.4866266E0,6.493161E0,3.3113358E0,0E0,3.5422678E0,4.871804E0,0E0,0E0,3.7966766E0,0E0,3.850193E0,0E0,4.6063554E-1,0E0,6.2712936E0,3.01424E0,0E0,0E0,0E0,6.558205E-1,2.319765E-2,3.8756163E0,3.1775969E1,2.1081322E1,1.976429E0,8.485616E0,1.0206862E1,1.3391943E1,7.098938E0,4.785683E0,5.7899923E0,0E0,7.215434E0,0E0,0E0,0E0,0E0,0E0,0E0,0E0,0E0,0E0,0E0,0E0,0E0,0E0,0E0,0E0,0E0,0E0,0E0,0E0,0E0,0E0,0E0,0E0,0E0,0E0,0E0,0E0,0E0,0E0,0E0,0E0,0E0,0E0,0E0,0E0,0E0,0E0,0E0,0E0,0E0,0E0,0E0,0E0],"parents":[2147483647,0,0,1,1,2,2,3,3,4,4,5,5,6,6,7,7,8,8,9,9,10,10,11,11,12,12,13,13,14,14,15,15,16,16,17,17,18,18,19,19,20,20,21,21,22,22,23,23,24,24,25,25,26,26,27,27,28,28,29,29,30,30,31,31,33,33,34,34,37,37,39,39,41,41,43,43,44,44,48,48,49,49,50,50,51,51,52,52,53,53,54,54,55,55,56,56,57,57,58,58,59,59,61,61],"right_children":[2,4,6,8,10,12,14,16,18,20,22,24,26,28,30,32,34,36,38,40,42,44,46,48,50,52,54,56,58,60,62,64,-1,66,68,-1,-1,70,-1,72,-1,74,-1,76,78,-1,-1,-1,80,82,84,86,88,90,92,94,96,98,100,102,-1,104,-1,-1,-1,-1,-1,-1,-1,-1,-1,-1,-1,-1,-1,-1,-1,-1,-1,-1,-1,-1,-1,-1,-1,-1,-1,-1,-1,-1,-1,-1,-1,-1,-1,-1,-1,-1,-1,-1,-1,-1,-1,-1,-1],"split_conditions":[5E-1,5E-1,5E-1,5E-1,5E-1,5E-1,5E-1,5E-1,5E-1,5E-1,5E-1,5E-1,5E-1,5E-1,5E-1,5E-1,5E-1,5E-1,5E-1,5E-1,5E-1,5E-1,5E-1,5E-1,5E-1,5E-1,5E-1,5E-1,5E-1,5E-1,5E-1,5E-1,-4.2390028E-1,5E-1,5E-1,-4.4425744E-1,-7.802904E-2,5E-1,-4.2489907E-1,5E-1,-4.3593988E-1,5E-1,2.4756894E-1,5E-1,5E-1,-1.9152455E-2,3.7626016E-1,-4.8085353E-1,5E-1,5E-1,5E-1,5E-1,5E-1,5E-1,5E-1,5E-1,5E-1,5E-1,5E-1,5E-1,1.8268137E-1,5E-1,-3.738733E-1,-2.9383767E-1,2.1714768E-1,-1.0785144E-1,3.4839195E-1,-3.4640604E-1,1.6402414E-1,1.2583824E-1,-2.911637E-1,-2.9894906E-1,1.7456464E-1,-5.3237006E-2,-2.8256765E-1,-2.5393885E-1,7.491047E-2,-1.3362755E-1,2.7244198E-1,-6.793847E-2,1.7224658E-1,-1.07631385E-1,-3.348224E-1,-1.6004579E-1,3.7200728E-1,7.1260504E-2,-1.591494E-1,-7.3772304E-2,2.567981E-1,3.891001E-1,8.056893E-2,1.9539408E-1,-3.0117947E-1,8.316971E-2,-3.228034E-1,3.2404318E-1,-2.4702248E-1,-1.8418966E-1,3.9430407E-1,-1.7689773E-1,3.160628E-1,-5.038356E-1,1.3878812E-1,-2.1785209E-1,1.1379818E-1],"split_indices":[86,131,108,120,101,125,133,116,57,74,36,87,59,90,125,111,112,34,155,77,114,109,126,80,110,82,83,57,94,77,69,101,0,125,80,0,0,123,0,103,0,97,0,84,142,0,0,0,91,152,95,83,83,140,91,139,97,111,103,131,0,116,0,0,0,0,0,0,0,0,0,0,0,0,0,0,0,0,0,0,0,0,0,0,0,0,0,0,0,0,0,0,0,0,0,0,0,0,0,0,0,0,0,0,0],"split_type":[0,0,0,0,0,0,0,0,0,0,0,0,0,0,0,0,0,0,0,0,0,0,0,0,0,0,0,0,0,0,0,0,0,0,0,0,0,0,0,0,0,0,0,0,0,0,0,0,0,0,0,0,0,0,0,0,0,0,0,0,0,0,0,0,0,0,0,0,0,0,0,0,0,0,0,0,0,0,0,0,0,0,0,0,0,0,0,0,0,0,0,0,0,0,0,0,0,0,0,0,0,0,0,0,0],"sum_hessian":[6.4626855E2,1.3036438E2,5.159042E2,7.081277E1,5.9551617E1,3.447065E2,1.711977E2,2.1286428E1,4.9526337E1,2.2969503E1,3.6582115E1,2.3929447E1,3.2077707E2,1.259958E2,4.5201893E1,9.325457E0,1.1960973E1,3.5535038E1,1.3991297E1,1.7605898E1,5.363607E0,2.8723959E1,7.8581553E0,1.7363964E1,6.5654826E0,2.841312E2,3.664587E1,5.3523705E1,7.247209E1,8.382444E0,3.6819447E1,2.7157388E0,6.609718E0,5.9916654E0,5.9693074E0,3.415865E1,1.3763914E0,8.54082E0,5.450476E0,1.025998E1,7.345917E0,3.3624797E0,2.0011272E0,2.0791468E1,7.9324913E0,2.0871892E0,5.770966E0,1.5034853E1,2.3291109E0,3.3404958E0,3.224987E0,2.1446959E2,6.966161E1,2.5176573E1,1.1469299E1,3.21774E1,2.1346306E1,6.450917E1,7.9629145E0,7.244464E0,1.1379803E0,3.4172047E1,2.6474E0,1.6272589E0,1.08848E0,1.5936584E0,4.398007E0,4.196686E0,1.7726216E0,6.9220214E0,1.618799E0,9.111506E0,1.1484736E0,2.1465688E0,1.2159108E0,1.3092658E1,7.6988096E0,1.4494679E0,6.4830236E0,1.1819395E0,1.1471713E0,1.4176443E0,1.9228516E0,1.4304988E0,1.7944881E0,1.0066687E2,1.1380271E2,2.930652E1,4.035509E1,2.2493353E1,2.6832192E0,7.637755E0,3.8315446E0,2.6164936E1,6.012464E0,1.7514824E1,3.8314815E0,1.419855E0,6.308932E1,6.624554E0,1.3383604E0,6.1640754E0,1.0803883E0,6.462973E0,2.7709076E1],"tree_param":{"num_deleted":"0","num_feature":"167","num_nodes":"105","size_leaf_vector":"0"}},{"base_weights":[-9.123963E-3,-5.4179037E-1,1.1997721E-1,-8.224426E-1,-2.1518014E-1,2.7380523E-1,-1.4259088E-1,-5.561649E-1,-1.1814955E0,-7.0933044E-1,9.3534864E-2,-2.89169E-1,4.3438768E-1,-4.16994E-1,3.3849582E-1,-8.637214E-1,-2.0378347E-2,-1.3374525E0,-4.4312447E-1,-9.136715E-1,-3.318801E-2,2.2221588E-1,-1.2145231E0,-9.4693327E-1,1.3354202E-1,2.9827476E-1,8.13334E-1,3.5588634E-1,-7.199439E-1,5.380705E-1,-4.7859037E-1,-1.192332E0,-3.707641E-1,-1.0406146E0,2.6621157E-1,-1.0629953E0,5.177229E-1,-4.9401456E-1,-1.1296085E0,-4.4143212E-1,8.7554944E-1,1.3525357E-2,9.217994E-1,-1.2650548E0,8.8320726E-1,-7.5471395E-1,5.6215495E-1,5.7955974E-1,-4.234976E-2,9.090789E-1,-7.6878214E-1,9.4049715E-2,1.2633675E0,-3.6552295E-1,-1.1114486E0,1.791732E-1,9.525193E-1,4.2264163E-1,-1.3626413E0,-8.4018834E-2,-1.1668457E0,7.708875E-1,-3.9988437E-1,2.1956521E-1,-1.083384E0,-1.2507765E0,-3.4699032E-1,-8.691009E-1,5.3917855E-1,2.9738566E-1,-9.284233E-1,1.0465456E0,2.722429E-1,-1.3601074E0,3.834271E-2,1.428335E-1,1.1244323E0,1.3594506E0,-1.2377359E0,2.568079E-1,1.3340344E0,2.0610285E-1,9.379384E-1,-1.1024044E0,6.269127E-2,9.5762277E-1,-5.412876E-1,-1.3283952E0,4.5526168E-1,-2.222628E-1,6.8239063E-1,1.6011722E0,2.4896748E-1,-7.6548207E-1,1.229666E-1,-5.9207714E-1,-1.4164104E0,3.8836673E-1,-1.0518289E0,3.6366457E-1,1.3030916E0,-4.8691714E-1,9.995466E-1,-1.5686654E0,-3.8249663E-1],"categories":[],"categories_nodes":[],"categories_segments":[],"categories_sizes":[],"default_left":[1,1,1,1,1,1,1,1,1,1,1,1,1,1,1,1,1,0,1,1,1,1,0,1,1,1,1,1,1,1,1,0,1,0,1,0,0,1,1,1,0,1,1,1,1,1,1,1,1,1,1,1,1,1,1,1,1,1,1,0,0,0,0,0,0,0,0,0,0,0,0,0,0,0,0,0,0,0,0,0,0,0,0,0,0,0,0,0,0,0,0,0,0,0,0,0,0,0,0,0,0,0,0,0,0],"id":2,"left_children":[1,3,5,7,9,11,13,15,17,19,21,23,25,27,29,31,33,-1,35,37,39,41,-1,43,45,47,49,51,53,55,57,-1,59,-1,61,-1,-1,63,65,67,-1,69,71,73,75,77,79,81,83,85,87,89,91,93,95,97,99,101,103,-1,-1,-1,-1,-1,-1,-1,-1,-1,-1,-1,-1,-1,-1,-1,-1,-1,-1,-1,-1,-1,-1,-1,-1,-1,-1,-1,-1,-1,-1,-1,-1,-1,-1,-1,-1,-1,-1,-1,-1,-1,-1,-1,-1,-1,-1],"loss_changes":[4.2681934E1,1.092168E1,2.0219734E1,5.53516E0,8.809479E0,2.8639242E1,2.4594833E1,6.4217787E0,2.4807777E0,3.0305748E0,6.3561587E0,1.9756176E1,1.2435833E1,2.7980236E1,1.1319012E1,3.5756779E0,4.7433457E0,0E0,4.2131457E0,9.8021984E-1,2.6788926E0,4.917143E0,0E0,1.7270018E1,1.7120783E1,1.750316E1,1.0450928E1,7.9627976E0,1.1442795E1,8.00847E0,1.1606812E1,0E0,2.4978137E0,0E0,4.5848064E0,0E0,0E0,3.4107337E0,5.5511E-1,2.5355191E0,0E0,7.5013065E0,3.4251595E-1,3.0313225E0,6.78313E-1,1.6694996E1,6.7645483E0,1.3188408E1,9.360247E0,4.824623E0,3.4923382E0,5.264991E0,2.1835747E0,9.141928E0,5.5102615E0,8.314427E0,4.746317E0,4.4847164E0,8.591471E-1,0E0,0E0,0E0,0E0,0E0,0E0,0E0,0E0,0E0,0E0,0E0,0E0,0E0,0E0,0E0,0E0,0E0,0E0,0E0,0E0,0E0,0E0,0E0,0E0,0E0,0E0,0E0,0E0,0E0,0E0,0E0,0E0,0E0,0E0,0E0,0E0,0E0,0E0,0E0,0E0,0E0,0E0,0E0,0E0,0E0,0E0],"parents":[2147483647,0,0,1,1,2,2,3,3,4,4,5,5,6,6,7,7,8,8,9,9,10,10,11,11,12,12,13,13,14,14,15,15,16,16,18,18,19,19,20,20,21,21,23,23,24,24,25,25,26,26,27,27,28,28,29,29,30,30,32,32,34,34,37,37,38,38,39,39,41,41,42,42,43,43,44,44,45,45,46,46,47,47,48,48,49,49,50,50,51,51,52,52,53,53,54,54,55,55,56,56,57,57,58,58],"right_children":[2,4,6,8,10,12,14,16,18,20,22,24,26,28,30,32,34,-1,36,38,40,42,-1,44,46,48,50,52,54,56,58,-1,60,-1,62,-1,-1,64,66,68,-1,70,72,74,76,78,80,82,84,86,88,90,92,94,96,98,100,102,104,-1,-1,-1,-1,-1,-1,-1,-1,-1,-1,-1,-1,-1,-1,-1,-1,-1,-1,-1,-1,-1,-1,-1,-1,-1,-1,-1,-1,-1,-1,-1,-1,-1,-1,-1,-1,-1,-1,-1,-1,-1,-1,-1,-1,-1,-1],"split_conditions":[5E-1,5E-1,5E-1,5E-1,5E-1,5E-1,5E-1,5E-1,5E-1,5E-1,5E-1,5E-1,5E-1,5E-1,5E-1,5E-1,5E-1,-4.012358E-1,5E-1,5E-1,5E-1,5E-1,-3.6435694E-1,5E-1,5E-1,5E-1,5E-1,5E-1,5E-1,5E-1,5E-1,-3.5769963E-1,5E-1,-3.121844E-1,5E-1,-3.1889862E-1,1.5531687E-1,5E-1,5E-1,5E-1,2.6266485E-1,5E-1,5E-1,5E-1,5E-1,5E-1,5E-1,5E-1,5E-1,5E-1,5E-1,5E-1,5E-1,5E-1,5E-1,5E-1,5E-1,5E-1,5E-1,-2.5205651E-2,-3.5005373E-1,2.3126626E-1,-1.19965315E-1,6.586957E-2,-3.2501522E-1,-3.7523296E-1,-1.040971E-1,-2.607303E-1,1.6175357E-1,8.92157E-2,-2.78527E-1,3.139637E-1,8.167288E-2,-4.0803224E-1,1.1502814E-2,4.285005E-2,3.3732972E-1,4.078352E-1,-3.7132078E-1,7.704237E-2,4.0021035E-1,6.1830856E-2,2.8138152E-1,-3.3072132E-1,1.8807381E-2,2.8728685E-1,-1.6238628E-1,-3.985186E-1,1.3657852E-1,-6.6678844E-2,2.047172E-1,4.803517E-1,7.4690245E-2,-2.2964463E-1,3.688998E-2,-1.7762315E-1,-4.2492315E-1,1.16510026E-1,-3.1554866E-1,1.0909937E-1,3.9092752E-1,-1.4607514E-1,2.99864E-1,-4.7059962E-1,-1.1474899E-1],"split_indices":[86,131,110,154,101,142,82,108,19,74,43,132,141,83,54,62,118,0,87,127,81,36,0,50,125,155,103,25,66,141,148,0,36,0,120,0,0,106,93,120,0,53,41,104,74,152,107,83,125,84,72,132,104,146,132,139,91,98,115,0,0,0,0,0,0,0,0,0,0,0,0,0,0,0,0,0,0,0,0,0,0,0,0,0,0,0,0,0,0,0,0,0,0,0,0,0,0,0,0,0,0,0,0,0,0],"split_type":[0,0,0,0,0,0,0,0,0,0,0,0,0,0,0,0,0,0,0,0,0,0,0,0,0,0,0,0,0,0,0,0,0,0,0,0,0,0,0,0,0,0,0,0,0,0,0,0,0,0,0,0,0,0,0,0,0,0,0,0,0,0,0,0,0,0,0,0,0,0,0,0,0,0,0,0,0,0,0,0,0,0,0,0,0,0,0,0,0,0,0,0,0,0,0,0,0,0,0,0,0,0,0,0,0],"sum_hessian":[6.187217E2,1.2007994E2,4.9864175E2,6.3767326E1,5.631261E1,3.1440298E2,1.8423877E2,3.8077557E1,2.5689768E1,2.115415E1,3.5158463E1,6.959927E1,2.4480371E2,1.1740584E2,6.683293E1,2.3802307E1,1.4275251E1,2.054E1,5.149767E0,1.5974961E1,5.179189E0,3.2765274E1,2.3931866E0,2.6743935E1,4.2855343E1,1.8142511E2,6.3378597E1,3.3011852E1,8.439399E1,5.3987797E1,1.2845135E1,1.34305935E1,1.0371714E1,2.5536056E0,1.1721646E1,3.0656903E0,2.0840766E0,6.544332E0,9.43063E0,3.9285505E0,1.2506387E0,2.6022053E1,6.7432218E0,2.304665E1,3.6972842E0,1.3700872E1,2.9154469E1,9.8983696E1,8.2441414E1,6.016311E1,3.2154872E0,2.6476261E1,6.5355897E0,4.530971E1,3.9084274E1,2.9700542E1,2.4287254E1,6.61921E0,6.2259245E0,8.437942E0,1.9337713E0,6.579377E0,5.1422687E0,3.2440512E0,3.3002808E0,7.648296E0,1.7823334E0,2.814703E0,1.1138476E0,2.0521957E1,5.5000944E0,5.144131E0,1.5990908E0,2.143962E1,1.6070316E0,1.299855E0,2.3974292E0,2.2106206E0,1.1490252E1,2.184538E1,7.3090887E0,4.9243473E1,4.9740227E1,6.5766E0,7.5864815E1,5.8543396E1,1.6197128E0,2.1481407E0,1.0673467E0,1.7623486E1,8.852777E0,4.468946E0,2.0666437E0,2.4600554E1,2.070916E1,1.554741E1,2.3536863E1,2.5971518E1,3.7290258E0,9.82373E0,1.4463525E1,2.6294909E0,3.989719E0,4.6483994E0,1.5775255E0],"tree_param":{"num_deleted":"0","num_feature":"167","num_nodes":"105","size_leaf_vector":"0"}},{"base_weights":[-1.258776E-2,-4.5051804E-1,8.8013105E-2,-6.9816446E-1,-1.7898445E-1,-2.858712E-2,3.3829063E-1,-4.626637E-1,-1.0415462E0,1.2119187E-1,-5.297926E-1,-1.150087E0,8.517737E-3,-2.788434E-1,4.9269098E-1,-2.937491E-1,-1.20058E0,-3.8427618E-1,-1.2048982E0,2.624109E-1,-1.0627605E0,-6.046922E-1,6.112439E-1,-1.3803174E0,2.5258893E-1,-5.8290944E-2,5.9359163E-1,-6.8164235E-1,5.2702796E-2,1.7345007E-1,7.225188E-1,-5.610671E-1,2.7319905E-1,-9.7682685E-1,6.0591364E-1,-2.1691795E-1,5.099973E-1,-9.8314655E-1,-2.3244299E-1,-1.8690366E-1,3.234902E-1,8.5088503E-1,-7.688443E-1,-1.2541534E0,-1.6907574E-1,3.4754062E-1,-9.886237E-1,5.993487E-1,-2.6303765E-1,7.9187393E-1,-1.0810493E0,-1.0794277E0,-1.0569019E-2,5.315049E-1,-8.175643E-1,5.7350382E-2,-1.079744E0,7.5575596E-1,-5.5712193E-1,-1.1736805E0,2.419774E-1,-7.9044414E-1,2.6761428E-1,-4.59559E-1,4.4866882E-2,-9.911423E-2,6.91772E-1,1.2232504E0,2.973297E-1,3.6610076E-1,-1.1044519E0,5.2378076E-1,-6.6015035E-1,2.8373456E-2,1.0623001E0,-1.2521407E-1,-1.2496397E0,6.96711E-1,-5.7525456E-1,3.2673606E-1,-7.023362E-1,8.8955516E-1,-3.658131E-1],"categories":[],"categories_nodes":[],"categories_segments":[],"categories_sizes":[],"default_left":[1,1,1,1,1,1,1,1,1,1,1,1,1,1,1,1,0,1,0,1,0,1,0,0,0,1,1,1,1,1,1,1,1,0,0,1,1,1,1,1,1,1,1,0,1,1,1,1,1,1,0,0,0,0,0,0,0,0,0,0,0,0,0,0,0,0,0,0,0,0,0,0,0,0,0,0,0,0,0,0,0,0,0],"id":3,"left_children":[1,3,5,7,9,11,13,15,17,19,21,23,25,27,29,31,-1,33,-1,35,-1,37,-1,-1,-1,39,41,43,45,47,49,51,53,-1,-1,55,57,59,61,63,65,67,69,-1,71,73,75,77,79,81,-1,-1,-1,-1,-1,-1,-1,-1,-1,-1,-1,-1,-1,-1,-1,-1,-1,-1,-1,-1,-1,-1,-1,-1,-1,-1,-1,-1,-1,-1,-1,-1,-1],"loss_changes":[2.6006432E1,7.2898827E0,1.4021156E1,4.153837E0,5.7444983E0,1.3678089E1,1.4684954E1,4.1100664E0,1.9550838E0,5.2751164E0,2.5112615E0,3.7480602E0,1.2501132E1,4.2014675E0,8.861195E0,4.7694244E0,0E0,4.0838184E0,0E0,3.3741887E0,0E0,3.1551685E0,0E0,0E0,0E0,1.4160525E1,1.2143583E1,3.9415555E0,5.881454E0,9.932968E0,9.724396E0,5.988592E0,3.3737922E0,0E0,0E0,2.4444807E0,5.25488E0,2.9918337E0,3.9556167E0,1.3634551E1,1.1387556E1,5.416851E0,2.587536E0,0E0,3.280034E0,3.3454924E0,7.9911995E-1,3.4793882E0,7.1377892E0,8.111202E0,0E0,0E0,0E0,0E0,0E0,0E0,0E0,0E0,0E0,0E0,0E0,0E0,0E0,0E0,0E0,0E0,0E0,0E0,0E0,0E0,0E0,0E0,0E0,0E0,0E0,0E0,0E0,0E0,0E0,0E0,0E0,0E0,0E0],"parents":[2147483647,0,0,1,1,2,2,3,3,4,4,5,5,6,6,7,7,8,8,9,9,10,10,11,11,12,12,13,13,14,14,15,15,17,17,19,19,21,21,25,25,26,26,27,27,28,28,29,29,30,30,31,31,32,32,35,35,36,36,37,37,38,38,39,39,40,40,41,41,42,42,44,44,45,45,46,46,47,47,48,48,49,49],"right_children":[2,4,6,8,10,12,14,16,18,20,22,24,26,28,30,32,-1,34,-1,36,-1,38,-1,-1,-1,40,42,44,46,48,50,52,54,-1,-1,56,58,60,62,64,66,68,70,-1,72,74,76,78,80,82,-1,-1,-1,-1,-1,-1,-1,-1,-1,-1,-1,-1,-1,-1,-1,-1,-1,-1,-1,-1,-1,-1,-1,-1,-1,-1,-1,-1,-1,-1,-1,-1,-1],"split_conditions":[5E-1,5E-1,5E-1,5E-1,5E-1,5E-1,5E-1,5E-1,5E-1,5E-1,5E-1,5E-1,5E-1,5E-1,5E-1,5E-1,-3.60174E-1,5E-1,-3.6146948E-1,5E-1,-3.1882817E-1,5E-1,1.8337318E-1,-4.1409525E-1,7.577668E-2,5E-1,5E-1,5E-1,5E-1,5E-1,5E-1,5E-1,5E-1,-2.9304805E-1,1.817741E-1,5E-1,5E-1,5E-1,5E-1,5E-1,5E-1,5E-1,5E-1,-3.7624604E-1,5E-1,5E-1,5E-1,5E-1,5E-1,5E-1,-3.243148E-1,-3.2382834E-1,-3.1707059E-3,1.5945148E-1,-2.452693E-1,1.7205115E-2,-3.239232E-1,2.267268E-1,-1.6713658E-1,-3.521042E-1,7.259322E-2,-2.3713325E-1,8.028428E-2,-1.378677E-1,1.3460065E-2,-2.973427E-2,2.075316E-1,3.6697513E-1,8.919891E-2,1.0983023E-1,-3.3133557E-1,1.5713423E-1,-1.9804512E-1,8.512037E-3,3.1869003E-1,-3.756422E-2,-3.7489194E-1,2.0901331E-1,-1.7257637E-1,9.802082E-2,-2.1070087E-1,2.6686656E-1,-1.0974394E-1],"split_indices":[86,131,108,154,127,145,101,88,125,78,50,92,25,125,90,133,0,87,0,164,0,126,0,0,0,82,53,114,38,83,84,108,155,0,0,115,75,11,111,95,83,105,159,0,142,103,93,123,154,71,0,0,0,0,0,0,0,0,0,0,0,0,0,0,0,0,0,0,0,0,0,0,0,0,0,0,0,0,0,0,0,0,0],"split_type":[0,0,0,0,0,0,0,0,0,0,0,0,0,0,0,0,0,0,0,0,0,0,0,0,0,0,0,0,0,0,0,0,0,0,0,0,0,0,0,0,0,0,0,0,0,0,0,0,0,0,0,0,0,0,0,0,0,0,0,0,0,0,0,0,0,0,0,0,0,0,0,0,0,0,0,0,0,0,0,0,0,0,0],"sum_hessian":[5.8840173E2,1.0926723E2,4.791345E2,5.6325535E1,5.2941692E1,3.2746136E2,1.5167314E2,3.480362E1,2.1521915E1,2.88824E1,2.4059294E1,9.52648E0,3.1793488E2,3.0191713E1,1.2148143E2,2.9458439E1,5.34518E0,4.951461E0,1.6570456E1,2.6499914E1,2.3824868E0,2.3018377E1,1.0409161E0,8.196993E0,1.3294866E0,2.8615918E2,3.1775703E1,1.3154376E1,1.7037338E1,5.158387E1,6.989756E1,2.002633E1,9.432109E0,3.1061623E0,1.8452983E0,9.068027E0,1.7431887E1,1.0600289E1,1.2418087E1,2.1443254E2,7.172663E1,2.7043968E1,4.7317343E0,5.5303946E0,7.6239815E0,1.3797118E1,3.2402198E0,2.5919779E1,2.566409E1,6.7849396E1,2.0481682E0,9.819377E0,1.0206954E1,8.040697E0,1.3914117E0,7.5891724E0,1.4788542E0,1.440596E1,3.0259275E0,9.209931E0,1.3903582E0,5.594557E0,6.82353E0,9.8074585E1,1.1635796E2,3.3740353E1,3.798628E1,1.5444777E1,1.1599193E1,1.0591342E0,3.6726003E0,3.1346734E0,4.4893084E0,1.0256776E1,3.5403426E0,1.0956525E0,2.1445675E0,2.4311468E1,1.6083118E0,1.1065072E1,1.4599017E1,6.2783566E1,5.0658283E0],"tree_param":{"num_deleted":"0","num_feature":"167","num_nodes":"83","size_leaf_vector":"0"}},{"base_weights":[-1.4670607E-2,-3.787242E-1,6.455392E-2,-4.2347988E-1,8.1324756E-1,1.740327E-1,-1.179855E-1,-3.0609065E-1,-8.3509004E-1,1.060106E0,2.007062E-1,-2.0078026E-1,2.7859402E-1,-4.0826115E-1,6.5427236E-2,-6.5668344E-1,-1.6800106E-1,-9.6809983E-1,9.944729E-2,-7.1076727E-1,1.2140732E-1,4.4024444E-1,3.927391E-2,-4.8959592E-1,9.648356E-1,2.5281093E-1,-5.196862E-1,-9.731255E-1,1.9190663E-1,-4.4408652E-1,1.9048749E-1,-5.316772E-1,-1.2663412E0,8.7933034E-1,-7.050085E-1,-1.005719E0,8.2506526E-1,-5.487173E-1,4.0868172E-1,1.1265008E-1,7.229839E-1,1.6345306E-1,-6.994532E-1,-9.8706275E-2,-8.4711665E-1,4.0586644E-1,-2.768487E-1,4.372502E-1,-6.7300725E-1,-1.2024237E0,-8.877251E-2,-3.1267944E-1,1.0607548E0,-3.4950484E-2,-7.338363E-1,-3.863068E-2,8.411702E-1,-3.6190286E-2,-1.0827239E0,-1.5450723E-1,-1.1676158E0,1.067454E0,2.1130998E-1,1.0784204E0,-9.726396E-1,-6.030855E-1,6.3838154E-1,-2.219889E-1,8.3237845E-1,9.8275554E-1,1.4666636E-1,3.7069283E-2,7.5203174E-1,6.482228E-1,-1.2642576E0,-4.8705477E-1,5.7847977E-1,1.1062971E-2,-1.0262496E0,5.5368817E-1,-7.2132766E-1,4.3407378E-1,-7.388076E-1,-2.4441457E-1,7.7572703E-1,-2.1315946E-1,-9.9196887E-1],"categories":[],"categories_nodes":[],"categories_segments":[],"categories_sizes":[],"default_left":[1,1,1,1,1,1,1,1,1,0,0,1,1,1,1,1,1,1,1,1,1,1,1,1,0,1,1,1,1,1,1,1,0,0,0,1,1,1,1,1,1,1,1,1,1,1,1,1,1,0,0,0,0,0,0,0,0,0,0,0,0,0,0,0,0,0,0,0,0,0,0,0,0,0,0,0,0,0,0,0,0,0,0,0,0,0,0],"id":4,"left_children":[1,3,5,7,9,11,13,15,17,-1,-1,19,21,23,25,27,29,31,33,35,37,39,41,43,-1,45,47,49,51,53,55,57,-1,-1,-1,59,61,63,65,67,69,71,73,75,77,79,81,83,85,-1,-1,-1,-1,-1,-1,-1,-1,-1,-1,-1,-1,-1,-1,-1,-1,-1,-1,-1,-1,-1,-1,-1,-1,-1,-1,-1,-1,-1,-1,-1,-1,-1,-1,-1,-1,-1,-1],"loss_changes":[1.6282238E1,5.726618E0,9.28911E0,4.474598E0,3.910916E-1,1.1433876E1,9.315788E0,3.6538486E0,2.7247E0,0E0,0E0,1.0586786E1,8.780516E0,8.032585E0,1.1948432E1,5.9941626E0,5.7383766E0,1.7481899E0,2.8417609E0,1.2103948E1,7.9281125E0,1.248159E1,8.625426E0,8.940491E0,0E0,6.784891E0,4.1780953E0,3.1209679E0,3.2731586E0,3.8355784E0,3.8420153E0,2.4935234E0,0E0,0E0,0E0,2.758913E0,4.5266032E-1,9.626032E0,7.0278807E0,1.56034565E1,1.0727417E1,5.94081E0,1.1126692E1,8.691643E0,5.175699E0,1.1106894E1,6.576035E0,1.1728965E0,3.1927843E0,0E0,0E0,0E0,0E0,0E0,0E0,0E0,0E0,0E0,0E0,0E0,0E0,0E0,0E0,0E0,0E0,0E0,0E0,0E0,0E0,0E0,0E0,0E0,0E0,0E0,0E0,0E0,0E0,0E0,0E0,0E0,0E0,0E0,0E0,0E0,0E0,0E0,0E0],"parents":[2147483647,0,0,1,1,2,2,3,3,4,4,5,5,6,6,7,7,8,8,11,11,12,12,13,13,14,14,15,15,16,16,17,17,18,18,19,19,20,20,21,21,22,22,23,23,25,25,26,26,27,27,28,28,29,29,30,30,31,31,35,35,36,36,37,37,38,38,39,39,40,40,41,41,42,42,43,43,44,44,45,45,46,46,47,47,48,48],"right_children":[2,4,6,8,10,12,14,16,18,-1,-1,20,22,24,26,28,30,32,34,36,38,40,42,44,-1,46,48,50,52,54,56,58,-1,-1,-1,60,62,64,66,68,70,72,74,76,78,80,82,84,86,-1,-1,-1,-1,-1,-1,-1,-1,-1,-1,-1,-1,-1,-1,-1,-1,-1,-1,-1,-1,-1,-1,-1,-1,-1,-1,-1,-1,-1,-1,-1,-1,-1,-1,-1,-1,-1,-1],"split_conditions":[5E-1,5E-1,5E-1,5E-1,5E-1,5E-1,5E-1,5E-1,5E-1,3.1803182E-1,6.0211863E-2,5E-1,5E-1,5E-1,5E-1,5E-1,5E-1,5E-1,5E-1,5E-1,5E-1,5E-1,5E-1,5E-1,2.8945068E-1,5E-1,5E-1,5E-1,5E-1,5E-1,5E-1,5E-1,-3.799024E-1,2.637991E-1,-2.1150257E-1,5E-1,5E-1,5E-1,5E-1,5E-1,5E-1,5E-1,5E-1,5E-1,5E-1,5E-1,5E-1,5E-1,5E-1,-3.6072713E-1,-2.6631756E-2,-9.380384E-2,3.1822646E-1,-1.0485145E-2,-2.201509E-1,-1.1589204E-2,2.5235108E-1,-1.0857087E-2,-3.2481718E-1,-4.635217E-2,-3.5028476E-1,3.202362E-1,6.3393E-2,3.2352614E-1,-2.917919E-1,-1.8092567E-1,1.9151448E-1,-6.659667E-2,2.4971354E-1,2.948267E-1,4.399991E-2,1.1120785E-2,2.2560953E-1,1.9446684E-1,-3.792773E-1,-1.4611644E-1,1.7354393E-1,3.3188916E-3,-3.0787492E-1,1.6610646E-1,-2.1639831E-1,1.3022214E-1,-2.216423E-1,-7.3324375E-2,2.3271812E-1,-6.394784E-2,-2.9759067E-1],"split_indices":[86,11,110,146,127,142,150,160,71,0,0,132,135,34,66,57,131,91,24,50,125,96,154,152,0,109,96,54,104,120,81,148,0,0,0,164,98,152,127,62,79,69,151,66,105,99,133,123,132,0,0,0,0,0,0,0,0,0,0,0,0,0,0,0,0,0,0,0,0,0,0,0,0,0,0,0,0,0,0,0,0,0,0,0,0,0,0],"split_type":[0,0,0,0,0,0,0,0,0,0,0,0,0,0,0,0,0,0,0,0,0,0,0,0,0,0,0,0,0,0,0,0,0,0,0,0,0,0,0,0,0,0,0,0,0,0,0,0,0,0,0,0,0,0,0,0,0,0,0,0,0,0,0,0,0,0,0,0,0,0,0,0,0,0,0,0,0,0,0,0,0,0,0,0,0,0,0],"sum_hessian":[5.626852E2,9.988981E1,4.6279538E2,9.689631E1,2.9935026E0,2.8932068E2,1.7347469E2,7.6750946E1,2.014536E1,1.6128463E0,1.3806565E0,6.290603E1,2.2641464E2,6.669495E1,1.0677975E2,2.0626715E1,5.612423E1,1.7603933E1,2.5414271E0,2.388797E1,3.901806E1,1.3463496E2,9.1779686E1,6.357268E1,3.1222627E0,8.130848E1,2.5471266E1,1.4917262E1,5.7094526E0,3.1571253E1,2.4552979E1,8.276082E0,9.327851E0,1.2431629E0,1.2982643E0,2.0329012E1,3.558958E0,1.1434569E1,2.7583488E1,6.301798E1,7.161698E1,7.9238525E1,1.2541164E1,3.0978697E1,3.2593983E1,6.3261543E1,1.8046938E1,3.2617223E0,2.2209545E1,1.1560223E1,3.35704E0,4.016804E0,1.6926485E0,1.3553664E1,1.8017588E1,1.885455E1,5.6984277E0,4.918853E0,3.3572295E0,3.5609283E0,1.6768084E1,2.0214248E0,1.5375332E0,2.044246E0,9.390324E0,4.8028154E0,2.2780672E1,4.3489174E1,1.9528803E1,4.8879578E1,2.2737406E1,6.610662E1,1.3131901E1,3.6601086E0,8.881056E0,1.986653E1,1.1112168E1,5.790663E0,2.6803322E1,5.6376984E1,6.884562E0,7.131862E0,1.0915074E1,1.1744249E0,2.0872974E0,9.779174E0,1.243037E1],"tree_param":{"num_deleted":"0","num_feature":"167","num_nodes":"87","size_leaf_vector":"0"}},{"base_weights":[-1.2313565E-2,-4.0300578E-1,3.9509434E-2,-6.4510673E-1,3.9581373E-1,-2.4015634E-1,9.145516E-2,-8.994318E-1,-3.302127E-1,-4.599834E-1,9.45908E-1,-4.5715427E-1,-2.5131367E-3,1.5410216E-2,3.2085815E-1,-1.0999191E0,-3.3675772E-1,-8.2505006E-1,2.6705125E-1,-9.1959834E-1,4.0632334E-1,-1.4445166E-1,1.1925014E0,-8.1757694E-2,-8.7492174E-1,-1.01497464E-1,7.6484567E-1,-1.7317475E-1,2.8146642E-1,5.851283E-1,4.0511236E-2,-2.5589633E-1,-1.2826734E0,-7.8939176E-1,3.5587993E-1,-1.0183225E0,-1.5878674E-2,-7.849728E-1,5.457488E-1,-1.1439784E0,-6.475044E-2,-5.719782E-1,3.9015564E-1,-9.605241E-1,-2.6212028E-1,-3.5715356E-1,3.306439E-1,1.0443484E0,2.3150328E-1,-9.132738E-2,-6.763677E-1,1.23450965E-1,6.664912E-1,6.8582535E-1,-8.273914E-1,4.773962E-1,-3.3895275E-1,-8.710861E-1,3.8615522E-1,-1.4043179E0,-6.927835E-1,-9.956298E-1,3.8352896E-2,8.4156805E-1,-2.8809485E-1,-3.508818E-1,-1.2688603E0,-3.42436E-1,2.6757258E-1,-4.6716133E-1,8.914499E-1,-9.8829293E-1,-4.033063E-2,-7.86942E-2,8.7160885E-1,-1.0303363E0,-3.5466254E-1,2.543579E-1,-7.2188026E-1,-5.415087E-1,1.7038934E-1,-4.9426056E-2,8.870049E-1,-3.1937003E-2,-6.130674E-1,-1.174864E0,-4.2582908E-1,-2.9683915E-1,3.9778954E-1,9.471157E-1,1.2443169E-1,-6.1203325E-1,7.362777E-1,-1.3263366E0,1.6996107E-1,9.114333E-1,-1.2297541E-1,-9.138589E-2,-1.11251E0],"categories":[],"categories_nodes":[],"categories_segments":[],"categories_sizes":[],"default_left":[1,1,1,1,1,1,1,1,1,1,1,1,1,1,1,1,1,1,1,1,0,0,0,1,1,1,1,1,1,1,1,1,1,1,1,1,1,0,1,0,0,1,1,1,1,1,1,0,0,1,1,1,1,1,1,1,1,0,0,0,0,0,0,0,0,0,0,0,0,0,0,0,0,0,0,0,0,0,0,0,0,0,0,0,0,0,0,0,0,0,0,0,0,0,0,0,0,0,0],"id":5,"left_children":[1,3,5,7,9,11,13,15,17,19,21,23,25,27,29,31,33,35,37,39,-1,-1,-1,41,43,45,47,49,51,53,55,57,59,61,63,65,67,-1,69,-1,-1,71,73,75,77,79,81,-1,-1,83,85,87,89,91,93,95,97,-1,-1,-1,-1,-1,-1,-1,-1,-1,-1,-1,-1,-1,-1,-1,-1,-1,-1,-1,-1,-1,-1,-1,-1,-1,-1,-1,-1,-1,-1,-1,-1,-1,-1,-1,-1,-1,-1,-1,-1,-1,-1],"loss_changes":[1.0908494E1,1.2457246E1,6.935507E0,3.611086E0,7.6351304E0,3.8573332E0,7.009183E0,2.609518E0,7.1312413E0,3.0242925E0,2.7634363E0,6.061225E0,2.8666158E0,1.5252632E1,7.388756E0,2.6078682E0,2.9084132E0,2.022028E0,3.756352E0,8.1898546E-1,0E0,0E0,0E0,5.2432733E0,7.136955E-1,3.8087487E0,4.01083E-1,7.2670093E0,7.588066E0,7.882313E0,8.3883915E0,2.1679928E0,1.3199806E-1,9.5649743E-1,1.4940133E0,1.3112793E0,4.1824168E-1,0E0,3.7651713E0,0E0,0E0,2.40566E0,2.6985486E0,3.0174923E-1,1.0458591E0,2.1802888E0,2.779299E0,0E0,0E0,4.758788E0,2.5894089E0,1.0566287E1,5.427986E0,3.6298103E0,2.1539505E0,6.230955E0,5.0961065E0,0E0,0E0,0E0,0E0,0E0,0E0,0E0,0E0,0E0,0E0,0E0,0E0,0E0,0E0,0E0,0E0,0E0,0E0,0E0,0E0,0E0,0E0,0E0,0E0,0E0,0E0,0E0,0E0,0E0,0E0,0E0,0E0,0E0,0E0,0E0,0E0,0E0,0E0,0E0,0E0,0E0,0E0],"parents":[2147483647,0,0,1,1,2,2,3,3,4,4,5,5,6,6,7,7,8,8,9,9,10,10,11,11,12,12,13,13,14,14,15,15,16,16,17,17,18,18,19,19,23,23,24,24,25,25,26,26,27,27,28,28,29,29,30,30,31,31,32,32,33,33,34,34,35,35,36,36,38,38,41,41,42,42,43,43,44,44,45,45,46,46,49,49,50,50,51,51,52,52,53,53,54,54,55,55,56,56],"right_children":[2,4,6,8,10,12,14,16,18,20,22,24,26,28,30,32,34,36,38,40,-1,-1,-1,42,44,46,48,50,52,54,56,58,60,62,64,66,68,-1,70,-1,-1,72,74,76,78,80,82,-1,-1,84,86,88,90,92,94,96,98,-1,-1,-1,-1,-1,-1,-1,-1,-1,-1,-1,-1,-1,-1,-1,-1,-1,-1,-1,-1,-1,-1,-1,-1,-1,-1,-1,-1,-1,-1,-1,-1,-1,-1,-1,-1,-1,-1,-1,-1,-1,-1],"split_conditions":[5E-1,5E-1,5E-1,5E-1,5E-1,5E-1,5E-1,5E-1,5E-1,5E-1,5E-1,5E-1,5E-1,5E-1,5E-1,5E-1,5E-1,5E-1,5E-1,5E-1,1.21897005E-1,-4.33355E-2,3.5775045E-1,5E-1,5E-1,5E-1,5E-1,5E-1,5E-1,5E-1,5E-1,5E-1,5E-1,5E-1,5E-1,5E-1,5E-1,-2.3549184E-1,5E-1,-3.4319353E-1,-1.9425133E-2,5E-1,5E-1,5E-1,5E-1,5E-1,5E-1,3.133045E-1,6.945099E-2,5E-1,5E-1,5E-1,5E-1,5E-1,5E-1,5E-1,5E-1,-2.6132584E-1,1.1584657E-1,-4.2129537E-1,-2.0783505E-1,-2.9868895E-1,1.1505869E-2,2.5247043E-1,-8.6428456E-2,-1.0526454E-1,-3.8065812E-1,-1.027308E-1,8.027178E-2,-1.401484E-1,2.6743498E-1,-2.964879E-1,-1.209919E-2,-2.3608262E-2,2.6148266E-1,-3.091009E-1,-1.0639877E-1,7.630737E-2,-2.1656409E-1,-1.6245261E-1,5.1116806E-2,-1.4827818E-2,2.6610148E-1,-9.581101E-3,-1.8392022E-1,-3.5245922E-1,-1.2774873E-1,-8.9051746E-2,1.19336866E-1,2.8413472E-1,3.732951E-2,-1.8360998E-1,2.2088332E-1,-3.97901E-1,5.098832E-2,2.7343E-1,-3.6892623E-2,-2.741577E-2,-3.33753E-1],"split_indices":[125,80,86,66,66,133,141,87,91,114,138,159,108,107,95,156,98,62,151,84,0,0,0,108,74,104,104,72,116,103,97,116,54,84,95,137,145,0,145,0,0,131,157,42,91,25,126,0,0,52,126,90,62,100,140,150,139,0,0,0,0,0,0,0,0,0,0,0,0,0,0,0,0,0,0,0,0,0,0,0,0,0,0,0,0,0,0,0,0,0,0,0,0,0,0,0,0,0,0],"split_type":[0,0,0,0,0,0,0,0,0,0,0,0,0,0,0,0,0,0,0,0,0,0,0,0,0,0,0,0,0,0,0,0,0,0,0,0,0,0,0,0,0,0,0,0,0,0,0,0,0,0,0,0,0,0,0,0,0,0,0,0,0,0,0,0,0,0,0,0,0,0,0,0,0,0,0,0,0,0,0,0,0,0,0,0,0,0,0,0,0,0,0,0,0,0,0,0,0,0,0],"sum_hessian":[5.369886E2,6.209318E1,4.7489545E2,4.7799E1,1.4294183E1,7.382307E1,4.0107236E2,2.5415667E1,2.2383335E1,5.657093E0,8.63709E0,3.8104862E1,3.57182E1,3.0202206E2,9.905031E1,1.803484E1,7.3808255E0,1.2032742E1,1.0350594E1,3.6559372E0,2.0011559E0,1.6694608E0,6.9676285E0,2.07E1,1.7404861E1,3.2405796E1,3.3124068E0,1.7694774E2,1.2507433E2,5.042748E1,4.8622826E1,3.6372013E0,1.4397638E1,4.379296E0,3.0015297E0,9.504172E0,2.5285687E0,1.7873079E0,8.563286E0,2.6279342E0,1.0280032E0,1.0049061E1,1.065094E1,1.4773691E1,2.63117E0,2.0469503E1,1.1936293E1,1.5447485E0,1.7676584E0,1.5320888E2,2.3738853E1,8.961618E1,3.545815E1,4.7552013E1,2.8754652E0,2.2481415E1,2.614141E1,1.6752839E0,1.9619175E0,1.0791597E1,3.6060412E0,3.3434346E0,1.0358613E0,1.5361362E0,1.4653935E0,3.249068E0,6.2551045E0,1.0782492E0,1.4503196E0,2.0895438E0,6.4737415E0,5.154122E0,4.8949385E0,5.8199205E0,4.8310194E0,1.2619015E1,2.1546764E0,1.4495528E0,1.1816173E0,1.5149045E1,5.3204584E0,7.6330485E0,4.303244E0,1.38504E2,1.47048855E1,6.706195E0,1.703266E1,3.536087E1,5.425531E1,2.2870712E1,1.2587435E1,1.3628374E0,4.6189175E1,1.6967669E0,1.1786983E0,1.2747516E1,9.733899E0,2.0650595E1,5.4908156E0],"tree_param":{"num_deleted":"0","num_feature":"167","num_nodes":"99","size_leaf_vector":"0"}},{"base_weights":[-1.4117676E-2,-3.4647363E-1,2.6825275E-2,-5.477357E-1,3.2327458E-1,1.04559645E-1,-1.079552E-1,-6.080812E-1,2.6489493E-1,-3.881844E-1,8.0781114E-1,-2.2073623E-2,2.384531E-1,1.2891194E-1,-2.5150457E-1,-8.283213E-1,-3.2884854E-1,-4.6662343E-1,7.987713E-1,-7.865559E-1,3.3478817E-1,1.0000712E0,-3.146387E-1,-2.4250485E-1,3.6072928E-1,3.8182092E-1,-1.829382E-1,4.7038382E-1,-1.561608E-1,-6.776424E-1,-1.184755E-1,-2.0418637E-1,-9.669964E-1,-6.0761636E-1,2.1688132E-1,-9.9585485E-1,-5.5047862E-2,1.0883609E-1,1.1546603E0,8.724602E-2,-5.1283807E-1,1.7922299E-1,7.740953E-1,1.9778003E-1,8.323837E-1,3.5003015E-1,-6.859674E-1,-4.8001885E-1,7.850858E-1,-6.324268E-1,2.4984305E-1,-9.8877543E-1,-2.524571E-1,-4.3639094E-1,3.123506E-2,4.7475904E-1,-5.864834E-1,-1.128982E0,-2.9243955E-1,-9.157117E-1,-1.24042265E-1,-5.443488E-1,8.084017E-1,4.0730834E-1,-9.6153355E-1,-9.549117E-1,-1.7061584E-1,-2.016094E-1,5.341156E-1,1.1140901E0,-4.1836757E-2,2.0493485E-3,6.845226E-1,1.066358E0,4.047002E-2,6.2061495E-1,-3.967467E-1,-1.3214633E0,1.431252E-1,-7.645538E-2,-1.0998968E0,1.3241136E0,3.7020102E-1,-9.28117E-1,1.0354974E0,-3.633112E-1,6.777987E-1,-1.1177906E0,-3.3835508E-2,7.085112E-1,-7.192539E-1,2.521169E-1,-6.835001E-1,-6.654687E-1,2.0015939E-1],"categories":[],"categories_nodes":[],"categories_segments":[],"categories_sizes":[],"default_left":[1,1,1,1,1,1,1,1,1,1,1,1,1,1,1,1,1,0,0,1,0,1,0,1,1,1,1,1,1,1,1,1,1,1,1,0,0,0,0,1,1,1,1,1,1,1,1,1,1,1,1,1,1,1,1,0,0,0,0,0,0,0,0,0,0,0,0,0,0,0,0,0,0,0,0,0,0,0,0,0,0,0,0,0,0,0,0,0,0,0,0,0,0,0,0],"id":6,"left_children":[1,3,5,7,9,11,13,15,17,19,21,23,25,27,29,31,33,-1,-1,35,-1,37,-1,39,41,43,45,47,49,51,53,55,57,59,61,-1,-1,-1,-1,63,65,67,69,71,73,75,77,79,81,83,85,87,89,91,93,-1,-1,-1,-1,-1,-1,-1,-1,-1,-1,-1,-1,-1,-1,-1,-1,-1,-1,-1,-1,-1,-1,-1,-1,-1,-1,-1,-1,-1,-1,-1,-1,-1,-1,-1,-1,-1,-1,-1,-1],"loss_changes":[7.07028E0,7.8582263E0,4.861282E0,2.327999E0,5.0694466E0,4.9917746E0,5.806613E0,2.2759037E0,1.8376864E0,2.0676184E0,2.1557484E0,1.2918671E1,8.711162E0,6.3757014E0,5.9330707E0,1.7505884E0,3.1637397E0,0E0,0E0,6.092844E-1,0E0,9.108257E-1,0E0,8.699928E0,4.0604305E0,8.712052E0,1.0156131E1,9.261801E0,7.126053E0,3.060832E0,3.9189363E0,1.6695073E0,1.6528187E0,1.8909516E0,3.8060732E0,0E0,0E0,0E0,0E0,1.5360914E1,7.9308233E0,5.5398374E0,4.7003307E0,7.3644495E0,5.6513596E0,4.008892E0,1.0392545E1,1.9197305E0,4.585435E0,9.279215E0,5.538784E0,1.7002363E0,5.8552804E0,4.6530166E0,6.8081737E0,0E0,0E0,0E0,0E0,0E0,0E0,0E0,0E0,0E0,0E0,0E0,0E0,0E0,0E0,0E0,0E0,0E0,0E0,0E0,0E0,0E0,0E0,0E0,0E0,0E0,0E0,0E0,0E0,0E0,0E0,0E0,0E0,0E0,0E0,0E0,0E0,0E0,0E0,0E0,0E0],"parents":[2147483647,0,0,1,1,2,2,3,3,4,4,5,5,6,6,7,7,8,8,9,9,10,10,11,11,12,12,13,13,14,14,15,15,16,16,19,19,21,21,23,23,24,24,25,25,26,26,27,27,28,28,29,29,30,30,31,31,32,32,33,33,34,34,39,39,40,40,41,41,42,42,43,43,44,44,45,45,46,46,47,47,48,48,49,49,50,50,51,51,52,52,53,53,54,54],"right_children":[2,4,6,8,10,12,14,16,18,20,22,24,26,28,30,32,34,-1,-1,36,-1,38,-1,40,42,44,46,48,50,52,54,56,58,60,62,-1,-1,-1,-1,64,66,68,70,72,74,76,78,80,82,84,86,88,90,92,94,-1,-1,-1,-1,-1,-1,-1,-1,-1,-1,-1,-1,-1,-1,-1,-1,-1,-1,-1,-1,-1,-1,-1,-1,-1,-1,-1,-1,-1,-1,-1,-1,-1,-1,-1,-1,-1,-1,-1,-1],"split_conditions":[5E-1,5E-1,5E-1,5E-1,5E-1,5E-1,5E-1,5E-1,5E-1,5E-1,5E-1,5E-1,5E-1,5E-1,5E-1,5E-1,5E-1,-1.3998704E-1,2.396314E-1,5E-1,1.0043646E-1,5E-1,-9.4391614E-2,5E-1,5E-1,5E-1,5E-1,5E-1,5E-1,5E-1,5E-1,5E-1,5E-1,5E-1,5E-1,-2.9875648E-1,-1.6514359E-2,3.265083E-2,3.4639812E-1,5E-1,5E-1,5E-1,5E-1,5E-1,5E-1,5E-1,5E-1,5E-1,5E-1,5E-1,5E-1,5E-1,5E-1,5E-1,5E-1,1.4242771E-1,-1.7594503E-1,-3.386946E-1,-8.773187E-2,-2.7471352E-1,-3.721268E-2,-1.6330464E-1,2.4252053E-1,1.2219251E-1,-2.8846008E-1,-2.864735E-1,-5.1184755E-2,-6.0482822E-2,1.6023469E-1,3.3422703E-1,-1.2551027E-2,6.1480456E-4,2.0535679E-1,3.199074E-1,1.2141006E-2,1.861845E-1,-1.19024016E-1,-3.9643902E-1,4.2937562E-2,-2.2936614E-2,-3.2996905E-1,3.972341E-1,1.11060314E-1,-2.784351E-1,3.1064925E-1,-1.0899337E-1,2.0333962E-1,-3.353372E-1,-1.0150652E-2,2.1255337E-1,-2.1577618E-1,7.563507E-2,-2.0505004E-1,-1.9964062E-1,6.0047816E-2],"split_indices":[125,80,110,46,66,90,97,66,135,114,94,112,135,83,151,156,82,0,0,84,0,138,0,65,38,87,66,98,150,109,65,152,103,97,115,0,0,0,0,72,151,57,116,80,150,95,131,116,157,36,107,103,66,127,127,0,0,0,0,0,0,0,0,0,0,0,0,0,0,0,0,0,0,0,0,0,0,0,0,0,0,0,0,0,0,0,0,0,0,0,0,0,0,0,0],"split_type":[0,0,0,0,0,0,0,0,0,0,0,0,0,0,0,0,0,0,0,0,0,0,0,0,0,0,0,0,0,0,0,0,0,0,0,0,0,0,0,0,0,0,0,0,0,0,0,0,0,0,0,0,0,0,0,0,0,0,0,0,0,0,0,0,0,0,0,0,0,0,0,0,0,0,0,0,0,0,0,0,0,0,0,0,0,0,0,0,0,0,0,0,0,0,0],"sum_hessian":[5.178989E2,5.5984035E1,4.619149E2,4.3188034E1,1.2796002E1,2.9309637E2,1.6881851E2,4.043692E1,2.7511127E0,5.264638E0,7.5313644E0,1.510613E2,1.4203506E2,6.3741787E1,1.0507673E2,2.150712E1,1.8929802E1,1.2138561E0,1.5372565E0,3.3376064E0,1.9270312E0,6.5230803E0,1.0082842E0,9.6093704E1,5.4967598E1,1.060486E2,3.5986465E1,2.8706232E1,3.5035553E1,2.4024393E1,8.105234E1,4.359359E0,1.714776E1,1.2454458E1,6.4753437E0,2.3141189E0,1.0234877E0,1.2160965E0,5.306984E0,4.359457E1,5.2499134E1,3.9192154E1,1.5775444E1,7.631518E1,2.9733416E1,1.7620932E1,1.8365534E1,7.0101647E0,2.1696068E1,1.5866061E1,1.9169495E1,1.3107414E1,1.0916979E1,2.5335867E1,5.571647E1,1.4832689E0,2.8760896E0,1.32841015E1,3.8636594E0,7.0616794E0,5.392779E0,2.8663597E0,3.608984E0,3.386992E1,9.724649E0,2.2126448E1,3.0372688E1,1.9113512E1,2.007864E1,1.0877446E1,4.897998E0,5.514449E1,2.1170689E1,2.2684595E1,7.04882E0,1.30583515E1,4.5625806E0,1.0060408E1,8.305127E0,4.9263E0,2.0838642E0,8.483104E0,1.3212965E1,1.3853634E1,2.012427E0,7.9418488E0,1.1227645E1,1.1397099E1,1.7103157E0,3.3999264E0,7.5170527E0,6.686195E0,1.8649672E1,1.02992525E1,4.5417213E1],"tree_param":{"num_deleted":"0","num_feature":"167","num_nodes":"95","size_leaf_vector":"0"}},{"base_weights":[-1.21229375E-2,-2.7016315E-1,2.6000636E-2,-5.315322E-1,-2.8525513E-2,9.020908E-2,-1.5582949E-1,-7.718055E-1,-8.575539E-2,-2.6386914E-1,4.7601214E-1,-4.6846056E-3,2.8381792E-1,-7.337778E-2,-1.0519062E0,-8.932505E-1,7.331225E-2,-3.8655835E-1,5.022607E-1,3.835383E-1,-4.793135E-1,8.4959614E-1,-7.606192E-1,-2.1609566E-1,2.1172042E-1,1.350086E-1,7.1217763E-1,-1.6983275E-1,4.882206E-1,-1.5104877E0,-2.166617E-1,-1.0736415E0,-3.259398E-2,-7.7741724E-1,5.3504435E-3,-9.7006135E-2,9.175456E-1,5.8087605E-1,-3.2307193E-1,-9.592231E-2,-1.0891917E0,6.642176E-3,9.648439E-1,-4.3205363E-1,8.135211E-2,-1.0362622E0,2.4506573E-1,-1.7450675E-1,3.7576693E-1,-6.3364576E-3,8.9605576E-1,-4.199935E-2,-5.7164264E-1,8.268935E-1,-2.4142489E-1,3.9631435E-1,-6.962348E-1,-1.1718369E0,-5.355281E-1,-4.4223705E-1,4.5311558E-1,-9.6779823E-1,-2.4213007E-1,-2.3930773E-1,2.5047487E-1,7.2389936E-1,1.4177169E-1,2.7904302E-1,-1.1286037E0,-1.274666E0,-5.3989E-2,1.0763819E0,1.4017797E-1,2.7999288E-1,-6.171724E-1,-3.1124666E-1,7.452291E-1,2.9736438E-1,-3.7603927E-1,4.9195954E-1,-5.3316534E-1,4.3364602E-1,-8.3119255E-1,-8.220302E-1,4.114121E-1,9.7153914E-1,1.5190099E-1,-5.1437277E-1,1.2122174E-1,-1.0087665E0,3.694127E-3,-4.0218455E-1,1.0370777E0,-7.608009E-1,9.644795E-1],"categories":[],"categories_nodes":[],"categories_segments":[],"categories_sizes":[],"default_left":[1,1,1,1,1,1,1,1,1,1,1,1,1,1,1,1,0,1,1,1,1,1,0,1,1,1,1,1,1,0,1,1,1,1,1,0,0,1,0,1,1,0,1,1,1,0,1,1,1,1,1,1,1,1,1,0,0,0,0,0,0,0,0,0,0,0,0,0,0,0,0,0,0,0,0,0,0,0,0,0,0,0,0,0,0,0,0,0,0,0,0,0,0,0,0],"id":7,"left_children":[1,3,5,7,9,11,13,15,17,19,21,23,25,27,29,31,-1,33,35,37,39,41,-1,43,45,47,49,51,53,-1,55,57,59,61,63,-1,-1,65,-1,67,69,-1,71,73,75,-1,77,79,81,83,85,87,89,91,93,-1,-1,-1,-1,-1,-1,-1,-1,-1,-1,-1,-1,-1,-1,-1,-1,-1,-1,-1,-1,-1,-1,-1,-1,-1,-1,-1,-1,-1,-1,-1,-1,-1,-1,-1,-1,-1,-1,-1,-1],"loss_changes":[4.8881054E0,4.0241923E0,5.071884E0,3.218583E0,4.1971936E0,5.895049E0,8.302851E0,2.0978775E0,2.292917E0,3.5350323E0,5.849892E0,9.93988E0,6.630831E0,5.767452E0,3.304656E0,2.6648636E0,0E0,1.2931871E0,1.1966153E0,1.1016437E0,4.2146153E0,8.79859E-1,0E0,7.093984E0,4.7222724E0,5.9939976E0,3.5695658E0,4.614274E0,4.06443E0,0E0,1.6070951E0,1.3045502E-1,1.0051278E0,1.9572186E-1,3.7149662E-1,0E0,0E0,2.4159586E-1,0E0,5.1313257E0,1.281601E0,0E0,5.866804E-1,8.585622E0,1.2498821E1,0E0,3.535162E0,8.745801E0,3.508628E0,2.5495455E0,1.0592785E0,5.42748E0,5.4650354E0,3.2349424E0,4.3238935E0,0E0,0E0,0E0,0E0,0E0,0E0,0E0,0E0,0E0,0E0,0E0,0E0,0E0,0E0,0E0,0E0,0E0,0E0,0E0,0E0,0E0,0E0,0E0,0E0,0E0,0E0,0E0,0E0,0E0,0E0,0E0,0E0,0E0,0E0,0E0,0E0,0E0,0E0,0E0,0E0],"parents":[2147483647,0,0,1,1,2,2,3,3,4,4,5,5,6,6,7,7,8,8,9,9,10,10,11,11,12,12,13,13,14,14,15,15,17,17,18,18,19,19,20,20,21,21,23,23,24,24,25,25,26,26,27,27,28,28,30,30,31,31,32,32,33,33,34,34,37,37,39,39,40,40,42,42,43,43,44,44,46,46,47,47,48,48,49,49,50,50,51,51,52,52,53,53,54,54],"right_children":[2,4,6,8,10,12,14,16,18,20,22,24,26,28,30,32,-1,34,36,38,40,42,-1,44,46,48,50,52,54,-1,56,58,60,62,64,-1,-1,66,-1,68,70,-1,72,74,76,-1,78,80,82,84,86,88,90,92,94,-1,-1,-1,-1,-1,-1,-1,-1,-1,-1,-1,-1,-1,-1,-1,-1,-1,-1,-1,-1,-1,-1,-1,-1,-1,-1,-1,-1,-1,-1,-1,-1,-1,-1,-1,-1,-1,-1,-1,-1],"split_conditions":[5E-1,5E-1,5E-1,5E-1,5E-1,5E-1,5E-1,5E-1,5E-1,5E-1,5E-1,5E-1,5E-1,5E-1,5E-1,5E-1,2.1993676E-2,5E-1,5E-1,5E-1,5E-1,5E-1,-2.2818577E-1,5E-1,5E-1,5E-1,5E-1,5E-1,5E-1,-4.531463E-1,5E-1,5E-1,5E-1,5E-1,5E-1,-2.9101841E-2,2.752637E-1,5E-1,-9.6921586E-2,5E-1,5E-1,1.992653E-3,5E-1,5E-1,5E-1,-3.1087866E-1,5E-1,5E-1,5E-1,5E-1,5E-1,5E-1,5E-1,5E-1,5E-1,1.1889431E-1,-2.0887046E-1,-3.5155106E-1,-1.6065845E-1,-1.3267112E-1,1.3593468E-1,-2.9033947E-1,-7.2639026E-2,-7.179232E-2,7.5142466E-2,2.1716982E-1,4.253151E-2,8.3712906E-2,-3.3858112E-1,-3.823998E-1,-1.6196702E-2,3.229146E-1,4.205339E-2,8.399787E-2,-1.8515173E-1,-9.3374E-2,2.2356875E-1,8.920932E-2,-1.1281178E-1,1.4758787E-1,-1.599496E-1,1.3009381E-1,-2.4935777E-1,-2.4660906E-1,1.2342363E-1,2.9146177E-1,4.55703E-2,-1.5431184E-1,3.6366526E-2,-3.0262998E-1,1.1082381E-3,-1.20655365E-1,3.111233E-1,-2.2824028E-1,2.8934386E-1],"split_indices":[147,80,139,90,126,108,123,36,141,135,92,133,82,103,141,103,0,120,131,150,75,120,0,95,145,152,85,117,79,0,109,133,104,132,126,0,0,160,0,36,139,0,76,156,91,0,54,98,37,145,38,120,38,90,36,0,0,0,0,0,0,0,0,0,0,0,0,0,0,0,0,0,0,0,0,0,0,0,0,0,0,0,0,0,0,0,0,0,0,0,0,0,0,0,0],"split_type":[0,0,0,0,0,0,0,0,0,0,0,0,0,0,0,0,0,0,0,0,0,0,0,0,0,0,0,0,0,0,0,0,0,0,0,0,0,0,0,0,0,0,0,0,0,0,0,0,0,0,0,0,0,0,0,0,0,0,0,0,0,0,0,0,0,0,0,0,0,0,0,0,0,0,0,0,0,0,0,0,0,0,0,0,0,0,0,0,0,0,0,0,0,0,0],"sum_hessian":[4.9517526E2,6.2957767E1,4.3221747E2,2.9667738E1,3.329003E1,3.197945E2,1.1242299E2,1.8802067E1,1.086567E1,2.3026318E1,1.0263711E1,2.1526315E2,1.04531334E2,1.0394085E2,8.482139E0,1.638986E1,2.4122074E0,7.4150605E0,3.4506102E0,5.5545993E0,1.747172E1,8.122804E0,2.140908E0,1.088887E2,1.0637445E2,7.85565E1,2.597483E1,8.9300934E1,1.4639915E1,4.953848E0,3.5282907E0,1.3345264E1,3.0445962E0,3.220009E0,4.195051E0,1.7261467E0,1.7244635E0,4.4810886E0,1.0735108E0,1.1438408E1,6.0333104E0,1.1041781E0,7.0186253E0,6.282379E1,4.606491E1,1.9855751E0,1.0438888E2,3.4490807E1,4.4065693E1,5.489569E0,2.0485262E1,6.858542E1,2.0715513E1,9.907815E0,4.732101E0,1.6249448E0,1.9033458E0,1.0289884E1,3.0553803E0,1.7001815E0,1.3444147E0,1.7792132E0,1.4407959E0,2.1113985E0,2.0836527E0,2.8908958E0,1.5901928E0,8.926863E0,2.5115452E0,4.920414E0,1.1128968E0,5.9135675E0,1.1050577E0,1.2857151E1,4.996664E1,2.9280432E1,1.6784481E1,9.676247E1,7.6264157E0,1.1937203E1,2.2553604E1,4.266064E1,1.4050549E0,1.5314685E0,3.9581008E0,1.8321281E1,2.163981E0,1.7060305E1,5.1525116E1,1.1343617E1,9.371897E0,1.3134965E0,8.594318E0,3.5655448E0,1.1665559E0],"tree_param":{"num_deleted":"0","num_feature":"167","num_nodes":"95","size_leaf_vector":"0"}},{"base_weights":[-1.3258281E-2,-2.718771E-1,1.6631868E-2,-5.529503E-1,1.8648313E-2,1.10042445E-1,-6.607056E-2,-6.517375E-1,-3.2463953E-2,-2.2031602E-1,6.800401E-1,-5.816473E-2,3.5526264E-1,-3.6967568E-2,-8.3772045E-1,-8.97494E-1,-1.9253153E-1,6.654607E-1,-5.4074216E-1,-5.794266E-1,2.109121E-1,9.645206E-1,-4.501362E-2,3.771605E-2,-5.4686314E-1,5.416706E-1,-1.6593768E-1,-1.0017759E-1,3.5854003E-1,-7.290328E-2,-1.1018274E0,-1.1787454E0,-3.3994856E-1,-5.127109E-1,3.943902E-1,-5.5835277E-2,-7.3002094E-1,-6.609944E-2,-8.7374187E-1,-6.334703E-1,4.1303134E-1,3.7999362E-1,-1.3977183E-1,-9.554693E-1,1.6052184E-1,7.1730924E-1,6.932598E-2,-6.7840624E-1,2.3365408E-1,-1.8338093E-1,1.3326354E-1,4.6941513E-1,-1.019098E0,-7.1555156E-1,5.7727146E-1,-6.2916064E-1,1.4244989E-1,-7.437112E-1,-1.4548413E-1,7.96812E-1,-2.0263857E-1,4.6132645E-1,-4.7661754E-1,4.283405E-2,-1.0884969E0,-3.4664896E-1,6.892731E-1,-6.4147377E-1,5.353697E-1,-7.177061E-1,4.4990755E-3,-1.1586484E0,-6.044385E-2,3.7872767E-1,-6.682463E-1,8.011079E-1,-7.885709E-1,2.237935E-1,-9.9393463E-1,-8.487876E-1,1.603961E-1,5.283218E-1,-7.8994435E-1,-1.4865193E-1,-1.1998835E0,4.4969913E-1,-1.5190555E-1,1.6063593E-1,8.2912904E-1],"categories":[],"categories_nodes":[],"categories_segments":[],"categories_sizes":[],"default_left":[1,1,1,1,1,1,1,1,1,1,1,1,1,1,1,1,1,0,1,1,1,0,0,1,1,1,1,1,1,1,0,0,1,1,1,0,0,1,1,0,1,1,1,1,1,1,1,1,1,1,1,1,0,0,0,0,0,0,0,0,0,0,0,0,0,0,0,0,0,0,0,0,0,0,0,0,0,0,0,0,0,0,0,0,0,0,0,0,0],"id":8,"left_children":[1,3,5,7,9,11,13,15,17,19,21,23,25,27,29,31,33,-1,35,37,39,-1,-1,41,43,45,47,49,51,53,-1,-1,55,57,59,-1,-1,61,63,-1,65,67,69,71,73,75,77,79,81,83,85,87,-1,-1,-1,-1,-1,-1,-1,-1,-1,-1,-1,-1,-1,-1,-1,-1,-1,-1,-1,-1,-1,-1,-1,-1,-1,-1,-1,-1,-1,-1,-1,-1,-1,-1,-1,-1,-1],"loss_changes":[3.7068658E0,4.0669394E0,3.331231E0,1.2787886E0,4.1635566E0,8.37044E0,5.1081843E0,2.2193184E0,2.1638618E0,3.128098E0,1.4841552E0,5.6869392E0,8.105366E0,5.5751767E0,1.5903511E0,1.7215996E0,1.8300669E0,0E0,2.799474E-1,1.5826325E0,1.8919833E0,0E0,0E0,6.25142E0,5.904958E0,5.0111313E0,4.765841E0,3.7501707E0,5.1753297E0,1.7475708E0,0E0,0E0,9.18815E-1,4.0414453E-1,1.0318742E0,0E0,0E0,1.3108103E0,1.3889103E0,0E0,1.9834905E0,5.9157357E0,5.66633E0,2.2498198E0,1.7254734E0,6.22958E0,3.1199245E0,1.5815253E0,4.4547358E0,4.828784E0,4.668884E0,3.1039295E0,0E0,0E0,0E0,0E0,0E0,0E0,0E0,0E0,0E0,0E0,0E0,0E0,0E0,0E0,0E0,0E0,0E0,0E0,0E0,0E0,0E0,0E0,0E0,0E0,0E0,0E0,0E0,0E0,0E0,0E0,0E0,0E0,0E0,0E0,0E0,0E0,0E0],"parents":[2147483647,0,0,1,1,2,2,3,3,4,4,5,5,6,6,7,7,8,8,9,9,10,10,11,11,12,12,13,13,14,14,15,15,16,16,18,18,19,19,20,20,23,23,24,24,25,25,26,26,27,27,28,28,29,29,32,32,33,33,34,34,37,37,38,38,40,40,41,41,42,42,43,43,44,44,45,45,46,46,47,47,48,48,49,49,50,50,51,51],"right_children":[2,4,6,8,10,12,14,16,18,20,22,24,26,28,30,32,34,-1,36,38,40,-1,-1,42,44,46,48,50,52,54,-1,-1,56,58,60,-1,-1,62,64,-1,66,68,70,72,74,76,78,80,82,84,86,88,-1,-1,-1,-1,-1,-1,-1,-1,-1,-1,-1,-1,-1,-1,-1,-1,-1,-1,-1,-1,-1,-1,-1,-1,-1,-1,-1,-1,-1,-1,-1,-1,-1,-1,-1,-1,-1],"split_conditions":[5E-1,5E-1,5E-1,5E-1,5E-1,5E-1,5E-1,5E-1,5E-1,5E-1,5E-1,5E-1,5E-1,5E-1,5E-1,5E-1,5E-1,1.9963822E-1,5E-1,5E-1,5E-1,2.8935617E-1,-1.3504087E-2,5E-1,5E-1,5E-1,5E-1,5E-1,5E-1,5E-1,-3.3054823E-1,-3.5362363E-1,5E-1,5E-1,5E-1,-1.6750583E-2,-2.1900629E-1,5E-1,5E-1,-1.900411E-1,5E-1,5E-1,5E-1,5E-1,5E-1,5E-1,5E-1,5E-1,5E-1,5E-1,5E-1,5E-1,-3.0572942E-1,-2.1466547E-1,1.7318144E-1,-1.887482E-1,4.2734966E-2,-2.2311336E-1,-4.364524E-2,2.3904361E-1,-6.079157E-2,1.3839795E-1,-1.4298527E-1,1.2850216E-2,-3.2654908E-1,-1.0399469E-1,2.0678194E-1,-1.9244213E-1,1.6061091E-1,-2.1531184E-1,1.3497227E-3,-3.4759453E-1,-1.8133156E-2,1.1361831E-1,-2.004739E-1,2.4033238E-1,-2.3657127E-1,6.713805E-2,-2.981804E-1,-2.546363E-1,4.8118833E-2,1.5849654E-1,-2.3698331E-1,-4.459558E-2,-3.5996506E-1,1.3490975E-1,-4.5571666E-2,4.8190784E-2,2.4873872E-1],"split_indices":[125,66,154,123,80,95,69,79,151,91,159,139,150,124,79,139,115,0,116,137,151,0,0,65,108,133,151,141,47,106,0,0,114,103,133,0,0,156,160,0,145,111,151,103,114,140,52,112,53,50,95,113,0,0,0,0,0,0,0,0,0,0,0,0,0,0,0,0,0,0,0,0,0,0,0,0,0,0,0,0,0,0,0,0,0,0,0,0,0],"split_type":[0,0,0,0,0,0,0,0,0,0,0,0,0,0,0,0,0,0,0,0,0,0,0,0,0,0,0,0,0,0,0,0,0,0,0,0,0,0,0,0,0,0,0,0,0,0,0,0,0,0,0,0,0,0,0,0,0,0,0,0,0,0,0,0,0,0,0,0,0,0,0,0,0,0,0,0,0,0,0,0,0,0,0,0,0,0,0,0,0],"sum_hessian":[4.7794824E2,4.867771E1,4.2927054E2,2.4282228E1,2.4395485E1,2.0142961E2,2.2784093E2,2.0196756E1,4.0854707E0,1.8410547E1,5.984937E0,1.1992835E2,8.150125E1,2.2056998E2,7.270949E0,1.253426E1,7.662497E0,1.5912523E0,2.494218E0,9.857733E0,8.5528145E0,4.061214E0,1.9237233E0,1.0102956E2,1.8898794E1,6.0002136E1,2.1499117E1,1.9081985E2,2.9750118E1,2.1938624E0,5.0770864E0,7.5908966E0,4.943363E0,5.039677E0,2.6228201E0,1.0638268E0,1.4303914E0,4.03854E0,5.819193E0,1.2396897E0,7.313125E0,3.410965E1,6.691991E1,1.1756938E1,7.1418567E0,4.3360256E1,1.6641878E1,9.113493E0,1.2385623E1,1.4083702E2,4.998284E1,2.814427E1,1.6058469E0,1.0527482E0,1.1411141E0,2.9003084E0,2.0430548E0,2.4643157E0,2.5753613E0,1.3668668E0,1.2559533E0,1.713413E0,2.3251271E0,1.256593E0,4.5626E0,1.8821722E0,5.430953E0,4.090371E0,3.0019278E1,1.2574212E1,5.4345695E1,9.341736E0,2.4152021E0,6.0832305E0,1.0586263E0,4.1517902E1,1.8423574E0,1.5220245E1,1.4216332E0,7.5649595E0,1.5485333E0,9.992808E0,2.3928146E0,1.3729263E2,3.5443919E0,2.3419085E1,2.6563755E1,1.592273E1,1.22215395E1],"tree_param":{"num_deleted":"0","num_feature":"167","num_nodes":"89","size_leaf_vector":"0"}},{"base_weights":[-1.6197523E-2,-2.2965604E-1,1.4126407E-2,-3.022807E-1,4.064161E-1,2.8410522E-2,-4.5555037E-1,-1.017917E-1,-7.8963715E-1,9.962627E-1,-2.232197E-1,2.5993378E-3,3.2809618E-1,-7.9820156E-1,-4.1904435E-2,-5.8957344E-1,2.4925306E-2,-9.9230874E-1,5.0143564E-1,-4.923665E-1,6.1072923E-2,2.2834513E-2,-6.747399E-1,6.48889E-1,-2.1285252E-1,-1.0040432E0,1.5300344E-1,4.6533215E-1,-7.639339E-1,-8.342688E-1,7.0194855E-2,-1.6919349E-1,4.6138537E-1,1.6925505E-1,-1.1894954E0,-4.6086896E-2,2.1572311E-1,-9.056683E-1,2.1793489E-1,1.7657119E-1,1.0944978E0,-6.1482584E-1,8.681726E-1,-7.927531E-2,1.0022229E0,-9.7244877E-1,-2.3122188E-1,-4.049492E-1,2.7160558E-1,1.0182309E-1,1.0742749E0,-1.3689871E0,-4.6104783E-1,2.7404787E-2,-2.9243392E-1,-5.4781314E-2,4.106779E-1,1.283805E-1,-1.2775699E0,6.199356E-1,-3.477663E-1,-8.074958E-1,4.7074315E-1,-6.9834465E-1,6.1586416E-1],"categories":[],"categories_nodes":[],"categories_segments":[],"categories_sizes":[],"default_left":[1,1,1,1,1,1,1,1,1,0,1,1,1,1,1,1,1,1,0,0,0,1,1,1,1,0,0,1,0,1,0,1,1,0,1,1,1,1,0,1,0,1,0,1,0,0,0,0,0,0,0,0,0,0,0,0,0,0,0,0,0,0,0,0,0],"id":9,"left_children":[1,3,5,7,9,11,13,15,17,-1,19,21,23,25,27,29,31,33,-1,-1,-1,35,37,39,41,-1,-1,43,-1,45,-1,47,49,-1,51,53,55,57,-1,59,-1,61,-1,63,-1,-1,-1,-1,-1,-1,-1,-1,-1,-1,-1,-1,-1,-1,-1,-1,-1,-1,-1,-1,-1],"loss_changes":[3.0157208E0,2.7997544E0,2.7531977E0,5.057546E0,2.5862293E0,3.0726337E0,1.6835597E0,2.3885088E0,4.4693127E0,0E0,3.281446E-1,5.043287E0,5.604365E0,1.4400568E0,2.7521102E0,1.3436592E0,2.7422235E0,3.2831278E0,0E0,0E0,0E0,4.7581067E0,2.3977308E0,4.0204763E0,5.956513E0,0E0,0E0,1.3850249E0,0E0,2.6547003E-1,0E0,2.447834E0,2.0829487E0,0E0,8.8905525E-1,4.7869215E0,4.990177E0,3.4997597E0,0E0,2.7522006E0,0E0,2.4051862E0,0E0,1.7827814E0,0E0,0E0,0E0,0E0,0E0,0E0,0E0,0E0,0E0,0E0,0E0,0E0,0E0,0E0,0E0,0E0,0E0,0E0,0E0,0E0,0E0],"parents":[2147483647,0,0,1,1,2,2,3,3,4,4,5,5,6,6,7,7,8,8,10,10,11,11,12,12,13,13,14,14,15,15,16,16,17,17,21,21,22,22,23,23,24,24,27,27,29,29,31,31,32,32,34,34,35,35,36,36,37,37,39,39,41,41,43,43],"right_children":[2,4,6,8,10,12,14,16,18,-1,20,22,24,26,28,30,32,34,-1,-1,-1,36,38,40,42,-1,-1,44,-1,46,-1,48,50,-1,52,54,56,58,-1,60,-1,62,-1,64,-1,-1,-1,-1,-1,-1,-1,-1,-1,-1,-1,-1,-1,-1,-1,-1,-1,-1,-1,-1,-1],"split_conditions":[5E-1,5E-1,5E-1,5E-1,5E-1,5E-1,5E-1,5E-1,5E-1,2.9887882E-1,5E-1,5E-1,5E-1,5E-1,5E-1,5E-1,5E-1,5E-1,1.504307E-1,-1.4770995E-1,1.8321877E-2,5E-1,5E-1,5E-1,5E-1,-3.0121297E-1,4.5901034E-2,5E-1,-2.2918017E-1,5E-1,2.1058457E-2,5E-1,5E-1,5.0776515E-2,5E-1,5E-1,5E-1,5E-1,6.538047E-2,5E-1,3.2834935E-1,5E-1,2.604518E-1,5E-1,3.0066687E-1,-2.9173464E-1,-6.936657E-2,-1.21484764E-1,8.148168E-2,3.0546928E-2,3.222825E-1,-4.1069615E-1,-1.3831435E-1,8.221436E-3,-8.773018E-2,-1.6434396E-2,1.23203374E-1,3.8514152E-2,-3.8327098E-1,1.8598068E-1,-1.043299E-1,-2.4224874E-1,1.4122295E-1,-2.095034E-1,1.8475926E-1],"split_indices":[147,23,78,75,131,25,38,142,36,0,62,69,116,74,116,103,141,160,0,0,0,82,74,94,114,0,0,80,0,97,0,90,62,0,38,104,96,131,0,152,0,42,0,107,0,0,0,0,0,0,0,0,0,0,0,0,0,0,0,0,0,0,0,0,0],"split_type":[0,0,0,0,0,0,0,0,0,0,0,0,0,0,0,0,0,0,0,0,0,0,0,0,0,0,0,0,0,0,0,0,0,0,0,0,0,0,0,0,0,0,0,0,0,0,0,0,0,0,0,0,0,0,0,0,0,0,0,0,0,0,0,0,0],"sum_hessian":[4.643982E2,5.6948505E1,4.0744968E2,5.1583626E1,5.36488E0,3.9633557E2,1.1114103E1,3.7404858E1,1.4178767E1,2.469321E0,2.8955593E0,3.6583572E2,3.0499853E1,5.570229E0,5.5438747E0,6.960105E0,3.0444754E1,1.2454999E1,1.7237684E0,1.1114355E0,1.7841237E0,3.5616187E2,9.673872E0,1.9020687E1,1.1479167E1,4.533604E0,1.0366249E0,3.4651067E0,2.0787678E0,4.8841715E0,2.075933E0,2.1496416E1,8.948338E0,1.8280699E0,1.0626928E1,2.6296307E2,9.3198784E1,7.6740866E0,1.9997854E0,9.91143E0,9.109257E0,8.68205E0,2.7971168E0,2.1433222E0,1.3217844E0,3.4752958E0,1.4088758E0,1.4058656E1,7.4377613E0,6.3746657E0,2.573672E0,7.8205895E0,2.8063388E0,2.0322466E2,5.973841E1,3.9336903E1,5.3861885E1,2.2031546E0,5.470932E0,5.2715993E0,4.639831E0,7.590942E0,1.0911078E0,1.131253E0,1.0120693E0],"tree_param":{"num_deleted":"0","num_feature":"167","num_nodes":"65","size_leaf_vector":"0"}},{"base_weights":[-1.2075146E-2,-5.7470396E-2,9.732835E-2,-1.2689696E-2,-3.787814E-1,1.2408901E-1,-6.9965047E-1,-5.6129414E-1,7.2362996E-3,-1.0500774E0,-1.0865823E-1,-4.7192138E-2,2.9797253E-1,-1.0141653E0,1.414149E-1,-2.9307928E-2,-9.7967225E-1,-3.7786685E-2,2.5235865E-1,7.733267E-2,-1.3210162E0,-8.183178E-1,3.9919585E-2,3.422809E-1,-1.3008268E-1,3.3197272E-1,-6.6273075E-1,-3.7070465E-1,6.3165087E-1,-1.1086245E0,-3.7234095E-1,-1.4575341E-1,1.19232155E-1,5.6302726E-1,-1.8574807E-1,-6.941148E-1,8.446194E-1,-1.0709212E0,-3.892983E-1,-3.4059113E-1,3.3551946E-1,-3.2308158E-1,7.7473974E-1,-4.3713996E-1,4.7654234E-2,-2.1065239E-2,4.5746192E-1,-7.5417906E-1,2.4830545E-1,-3.528664E-1,3.6676504E-2,7.902719E-2,1.0236878E0,7.4055284E-1,5.67322E-2,-8.0932075E-1,1.10999405E-1,-1.10435866E-1,-4.8132393E-1,5.023403E-1,-6.4417624E-1,-7.1705216E-1,5.1562715E-1,1.1405573E-1,-6.248534E-1,-3.2884307E-2,1.1034949E0,-7.438699E-1,3.849603E-1,2.1857814E-1,-4.7257665E-1,3.4315795E-1,-4.9960738E-1,3.5430577E-1,1.1525254E0],"categories":[],"categories_nodes":[],"categories_segments":[],"categories_sizes":[],"default_left":[1,1,1,1,1,1,1,1,1,1,1,1,1,0,0,1,1,1,1,1,0,1,1,1,1,1,0,1,0,0,0,1,1,1,1,0,0,0,1,1,1,1,1,1,1,1,1,0,0,0,0,0,0,0,0,0,0,0,0,0,0,0,0,0,0,0,0,0,0,0,0,0,0,0,0],"id":10,"left_children":[1,3,5,7,9,11,13,15,17,19,21,23,25,-1,-1,27,29,31,33,35,-1,37,39,41,43,45,-1,47,-1,-1,-1,49,51,53,55,-1,-1,-1,57,59,61,63,65,67,69,71,73,-1,-1,-1,-1,-1,-1,-1,-1,-1,-1,-1,-1,-1,-1,-1,-1,-1,-1,-1,-1,-1,-1,-1,-1,-1,-1,-1,-1],"loss_changes":[2.2693312E0,4.6394E0,2.9455657E0,3.1121502E0,7.038938E0,3.901755E0,1.3351536E0,2.19206E0,3.0482981E0,3.5242767E0,3.1161292E0,2.1953382E0,2.3402886E0,0E0,0E0,1.4579316E0,2.2219181E-2,3.9756846E0,5.9376535E0,2.4303265E0,0E0,1.367855E-1,2.9413939E0,3.6935139E0,3.0582862E0,2.8166041E0,0E0,1.185749E0,0E0,0E0,0E0,5.2575235E0,3.3985155E0,2.2340708E0,3.519308E0,0E0,0E0,0E0,3.5753846E-2,3.2626958E0,3.1469045E0,7.861895E-1,2.0400376E0,5.456485E0,3.3180134E0,3.2340586E0,2.9463463E0,0E0,0E0,0E0,0E0,0E0,0E0,0E0,0E0,0E0,0E0,0E0,0E0,0E0,0E0,0E0,0E0,0E0,0E0,0E0,0E0,0E0,0E0,0E0,0E0,0E0,0E0,0E0,0E0],"parents":[2147483647,0,0,1,1,2,2,3,3,4,4,5,5,6,6,7,7,8,8,9,9,10,10,11,11,12,12,15,15,16,16,17,17,18,18,19,19,21,21,22,22,23,23,24,24,25,25,27,27,31,31,32,32,33,33,34,34,38,38,39,39,40,40,41,41,42,42,43,43,44,44,45,45,46,46],"right_children":[2,4,6,8,10,12,14,16,18,20,22,24,26,-1,-1,28,30,32,34,36,-1,38,40,42,44,46,-1,48,-1,-1,-1,50,52,54,56,-1,-1,-1,58,60,62,64,66,68,70,72,74,-1,-1,-1,-1,-1,-1,-1,-1,-1,-1,-1,-1,-1,-1,-1,-1,-1,-1,-1,-1,-1,-1,-1,-1,-1,-1,-1,-1],"split_conditions":[5E-1,5E-1,5E-1,5E-1,5E-1,5E-1,5E-1,5E-1,5E-1,5E-1,5E-1,5E-1,5E-1,-3.0424958E-1,4.242447E-2,5E-1,5E-1,5E-1,5E-1,5E-1,-3.9630488E-1,5E-1,5E-1,5E-1,5E-1,5E-1,-1.9881923E-1,5E-1,1.8949527E-1,-3.3258736E-1,-1.11702286E-1,5E-1,5E-1,5E-1,5E-1,-2.0823444E-1,2.5338584E-1,-3.2127637E-1,5E-1,5E-1,5E-1,5E-1,5E-1,5E-1,5E-1,5E-1,5E-1,-2.2625373E-1,7.449164E-2,-1.0585993E-1,1.1002951E-2,2.370816E-2,3.0710638E-1,2.2216587E-1,1.7019661E-2,-2.4279623E-1,3.3299822E-2,-3.313076E-2,-1.4439718E-1,1.507021E-1,-1.9325288E-1,-2.1511565E-1,1.5468815E-1,3.421672E-2,-1.8745601E-1,-9.865292E-3,3.310485E-1,-2.2316098E-1,1.1548809E-1,6.557345E-2,-1.41773E-1,1.0294739E-1,-1.4988223E-1,1.0629173E-1,3.4575763E-1],"split_indices":[108,72,69,145,151,90,92,138,141,105,121,164,45,0,0,93,75,133,79,89,0,156,57,155,126,120,0,104,0,0,0,95,46,97,93,0,0,0,144,120,118,98,144,136,151,117,42,0,0,0,0,0,0,0,0,0,0,0,0,0,0,0,0,0,0,0,0,0,0,0,0,0,0,0,0],"split_type":[0,0,0,0,0,0,0,0,0,0,0,0,0,0,0,0,0,0,0,0,0,0,0,0,0,0,0,0,0,0,0,0,0,0,0,0,0,0,0,0,0,0,0,0,0,0,0,0,0,0,0,0,0,0,0,0,0,0,0,0,0,0,0,0,0,0,0,0,0,0,0,0,0,0,0],"sum_hessian":[4.5481064E2,3.2177136E2,1.3303926E2,2.833243E2,3.8447052E1,1.295341E2,3.5051482E0,8.9777975E0,2.7434653E2,1.0203197E1,2.8243856E1,6.562241E1,6.3911694E1,2.4013557E0,1.1037927E0,4.4233565E0,4.554441E0,2.324897E2,4.1856827E1,2.115386E0,8.0878105E0,4.109202E0,2.4134655E1,1.0966313E1,5.46561E1,6.235919E1,1.5525004E0,3.206358E0,1.2169986E0,3.0759368E0,1.4785043E0,1.3780573E2,9.4683975E1,2.43235E1,1.7533327E1,1.1023862E0,1.0129997E0,1.6446425E0,2.4645596E0,1.0485282E1,1.3649373E1,4.419532E0,6.546781E0,1.9503128E1,3.5152973E1,1.6571327E1,4.578787E1,1.845015E0,1.3613429E0,6.409936E1,7.370637E1,9.16953E1,2.9886746E0,1.7666344E1,6.6571565E0,5.0964847E0,1.2436843E1,1.1573956E0,1.307164E0,2.6030328E0,7.882249E0,1.5587285E0,1.2090645E1,2.0589895E0,2.3605425E0,2.1543498E0,4.3924313E0,1.4272968E1,5.23016E0,2.689602E1,8.25695E0,9.570235E0,7.0010915E0,4.118521E1,4.602656E0],"tree_param":{"num_deleted":"0","num_feature":"167","num_nodes":"75","size_leaf_vector":"0"}},{"base_weights":[-1.1801977E-2,-5.567928E-2,7.785669E-2,-1.3147828E-1,1.1553683E-1,1.0208403E-1,-8.731186E-1,-1.5184775E-1,7.1663153E-1,2.9682916E-1,-7.39973E-2,1.5378429E-1,-3.3399928E-1,-1.026506E0,-3.062657E-1,-1.09766796E-1,-4.4717294E-1,1.0527445E0,2.1367602E-2,1.3481703E-1,6.956109E-1,-8.424043E-1,1.1280576E-1,2.2851358E-1,-1.19634315E-1,-7.47607E-1,1.5963466E-1,-1.6186455E-1,1.720591E-1,-8.067322E-1,-2.096378E-1,-2.3920618E-1,4.6795183E-1,1.0834591E0,3.7910547E-2,3.1182292E-1,-1.1320397E0,5.045977E-1,-1.7538689E-1,8.084064E-2,4.8317504E-1,5.2753395E-1,-2.8173018E-1,-3.1777543E-1,-1.1238945E0,8.823191E-1,-9.983152E-2,-8.657094E-2,-4.9409905E-1,-2.717801E-1,5.999048E-1,-1.1490324E0,-1.24350535E-2,2.3796654E-1,-6.9546276E-1,2.2253062E-1,-6.540763E-1,-6.040511E-2,6.7348164E-1,-2.8198674E-1,5.576702E-1,-1.3578682E0,9.224345E-2,-3.665124E-1,7.466198E-1,-4.199382E-1,6.997577E-1,5.963368E-1,-1.1986274E-2,3.3634093E-1,8.5666543E-1,-5.927598E-1,8.755258E-1,1.8844043E-1,-5.4962975E-1,-7.531469E-1,3.740249E-1,4.012049E-1,-8.516473E-1],"categories":[],"categories_nodes":[],"categories_segments":[],"categories_sizes":[],"default_left":[1,1,1,1,1,1,1,1,1,1,1,1,1,0,0,1,1,0,0,1,1,1,1,1,1,1,1,1,1,1,1,1,1,0,1,0,1,1,1,1,1,1,1,1,0,0,1,0,0,0,0,0,0,0,0,0,0,0,0,0,0,0,0,0,0,0,0,0,0,0,0,0,0,0,0,0,0,0,0],"id":11,"left_children":[1,3,5,7,9,11,13,15,17,19,21,23,25,-1,-1,27,29,-1,-1,31,33,35,37,39,41,43,45,47,49,51,53,55,57,-1,59,-1,61,63,65,67,69,71,73,75,-1,-1,77,-1,-1,-1,-1,-1,-1,-1,-1,-1,-1,-1,-1,-1,-1,-1,-1,-1,-1,-1,-1,-1,-1,-1,-1,-1,-1,-1,-1,-1,-1,-1,-1],"loss_changes":[1.7523817E0,3.8946471E0,3.4625955E0,3.6963415E0,3.192133E0,3.2906713E0,1.0998726E-2,2.4814095E0,1.1565626E0,2.9657087E0,6.6843257E0,2.6658573E0,3.2929177E0,0E0,0E0,2.6640863E0,1.9720459E0,0E0,0E0,4.46231E0,3.3873997E0,3.3936534E0,4.35768E0,3.7877674E0,3.1252313E0,1.0392156E0,1.5713722E0,3.7608287E0,5.574569E0,2.6018639E0,3.7421746E0,3.4230947E0,2.0827746E0,0E0,1.1585296E0,0E0,2.195218E0,3.7064767E0,5.115101E0,3.1467388E0,1.749155E0,2.8704185E0,3.0438447E0,1.9153988E0,0E0,0E0,2.8726244E0,0E0,0E0,0E0,0E0,0E0,0E0,0E0,0E0,0E0,0E0,0E0,0E0,0E0,0E0,0E0,0E0,0E0,0E0,0E0,0E0,0E0,0E0,0E0,0E0,0E0,0E0,0E0,0E0,0E0,0E0,0E0,0E0],"parents":[2147483647,0,0,1,1,2,2,3,3,4,4,5,5,6,6,7,7,8,8,9,9,10,10,11,11,12,12,15,15,16,16,19,19,20,20,21,21,22,22,23,23,24,24,25,25,26,26,27,27,28,28,29,29,30,30,31,31,32,32,34,34,36,36,37,37,38,38,39,39,40,40,41,41,42,42,43,43,46,46],"right_children":[2,4,6,8,10,12,14,16,18,20,22,24,26,-1,-1,28,30,-1,-1,32,34,36,38,40,42,44,46,48,50,52,54,56,58,-1,60,-1,62,64,66,68,70,72,74,76,-1,-1,78,-1,-1,-1,-1,-1,-1,-1,-1,-1,-1,-1,-1,-1,-1,-1,-1,-1,-1,-1,-1,-1,-1,-1,-1,-1,-1,-1,-1,-1,-1,-1,-1],"split_conditions":[5E-1,5E-1,5E-1,5E-1,5E-1,5E-1,5E-1,5E-1,5E-1,5E-1,5E-1,5E-1,5E-1,-3.079518E-1,-9.187972E-2,5E-1,5E-1,3.1582338E-1,6.4102807E-3,5E-1,5E-1,5E-1,5E-1,5E-1,5E-1,5E-1,5E-1,5E-1,5E-1,5E-1,5E-1,5E-1,5E-1,3.2503775E-1,5E-1,9.354688E-2,5E-1,5E-1,5E-1,5E-1,5E-1,5E-1,5E-1,5E-1,-3.3716834E-1,2.6469573E-1,5E-1,-2.5971284E-2,-1.4822972E-1,-8.1534036E-2,1.7997144E-1,-3.4470972E-1,-3.7305162E-3,7.1389966E-2,-2.0863883E-1,6.675919E-2,-1.9622289E-1,-1.8121533E-2,2.020445E-1,-8.459602E-2,1.6730106E-1,-4.0736046E-1,2.7673036E-2,-1.09953724E-1,2.2398596E-1,-1.2598146E-1,2.0992732E-1,1.7890105E-1,-3.5958823E-3,1.0090228E-1,2.5699964E-1,-1.7782794E-1,2.6265773E-1,5.653213E-2,-1.6488893E-1,-2.2594407E-1,1.1220747E-1,1.2036148E-1,-2.554942E-1],"split_indices":[107,141,11,11,95,84,23,72,152,132,152,136,83,0,0,140,95,0,0,133,90,154,132,104,75,80,62,139,155,89,150,152,144,0,92,0,52,151,94,87,109,122,91,93,0,0,85,0,0,0,0,0,0,0,0,0,0,0,0,0,0,0,0,0,0,0,0,0,0,0,0,0,0,0,0,0,0,0,0],"split_type":[0,0,0,0,0,0,0,0,0,0,0,0,0,0,0,0,0,0,0,0,0,0,0,0,0,0,0,0,0,0,0,0,0,0,0,0,0,0,0,0,0,0,0,0,0,0,0,0,0,0,0,0,0,0,0,0,0,0,0,0,0,0,0,0,0,0,0,0,0,0,0,0,0,0,0,0,0,0,0],"sum_hessian":[4.4334555E2,2.9792535E2,1.4542021E2,2.066649E2,9.126044E1,1.4267795E2,2.7422552E0,2.0261946E2,4.045451E0,4.635503E1,4.4905407E1,1.2813423E2,1.4543718E1,1.5200511E0,1.222204E0,1.7854958E2,2.4069885E1,2.3804834E0,1.6649675E0,3.391467E1,1.2440362E1,8.095461E0,3.6809944E1,1.00759445E2,2.737479E1,7.633357E0,6.910361E0,1.5105206E2,2.7497517E1,8.622166E0,1.544772E1,1.6109673E1,1.7804995E1,7.418375E0,5.021987E0,1.6085628E0,6.486898E0,1.5282626E1,2.1527319E1,6.461056E1,3.6148884E1,5.0316105E0,2.234318E1,4.42416E0,3.209197E0,1.1914182E0,5.7189426E0,1.2417183E2,2.6880232E1,1.3675537E1,1.3821979E1,5.7133923E0,2.9087737E0,8.305659E0,7.14206E0,7.8436084E0,8.266065E0,5.184154E0,1.262084E1,3.3918605E0,1.6301266E0,5.3845606E0,1.1023372E0,3.210978E0,1.2071648E1,1.723211E1,4.295209E0,9.031531E0,5.5579025E1,2.7311981E1,8.8369055E0,1.0258164E0,4.005794E0,8.21763E0,1.4125549E1,2.6608977E0,1.7632623E0,3.7116926E0,2.00725E0],"tree_param":{"num_deleted":"0","num_feature":"167","num_nodes":"79","size_leaf_vector":"0"}},{"base_weights":[-8.620549E-3,6.387486E-2,-7.2088875E-2,1.4560592E-1,-1.3853095E-1,-1.1187286E-1,2.0169325E-1,-1.7799718E-2,3.7303314E-1,-4.39283E-1,1.4243612E-1,-1.4273334E-1,3.3334598E-1,3.5606185E-1,-3.113658E-1,-6.422034E-1,6.500674E-2,2.1261513E-1,7.8660434E-1,-7.19661E-1,1.8510467E-1,3.0355707E-1,-6.316988E-1,-5.571913E-1,-1.00825824E-1,4.8139575E-1,-7.61774E-1,6.6954285E-1,2.6069244E-2,-1.0005744E0,2.8492272E-1,-1.05984725E-1,-1.0058373E0,1.3904367E-1,-5.313922E-1,3.2467967E-1,-8.754624E-1,-2.0153707E-1,8.742721E-1,-5.771841E-2,-8.5122913E-1,-2.3493347E-1,4.9789602E-1,-3.8632014E-1,4.2054334E-1,-1.1073705E0,3.0044088E-1,-7.008162E-1,2.0877227E-1,-6.650157E-1,-6.595815E-2,1.0063304E0,1.1068678E-1,-1.6276674E-1,8.206648E-1,4.3291253E-1,-4.0527353E-1,-7.1702087E-1,7.439534E-1,-4.725831E-1,6.6207343E-1,-1.8806425E-1,2.7776998E-1,5.2154946E-1,-1.0143584E0,4.046403E-1,-6.212927E-1,-9.6709535E-2,-1.1028883E0,1.014056E0,1.320163E-1,-8.036274E-1,7.2004956E-1,2.4930173E-1,-9.3722266E-1,3.616712E-1,-5.901042E-1,8.4189415E-1,-2.622487E-1,-6.1137754E-1,1.3808413E-1,7.045356E-1,1.0681599E-1,-9.583943E-2,-7.825874E-1,-2.7894598E-1,6.118711E-1,-8.623034E-1,2.6239476E-1,-1.5017879E-1,1.8047722E-1,4.9862218E-1,-5.9051144E-1,1.0788537E0,3.2828978E-1,-3.1416778E-2,7.604193E-1,-8.660692E-1,1.7870031E-1,9.08056E-1,2.3965573E-1],"categories":[],"categories_nodes":[],"categories_segments":[],"categories_sizes":[],"default_left":[1,1,1,1,1,1,1,1,1,1,1,1,1,1,1,1,1,1,1,1,1,1,1,1,1,1,0,1,1,0,1,1,0,1,1,1,1,0,1,1,1,1,1,1,1,0,0,1,1,1,1,0,1,0,1,1,1,0,1,0,0,0,0,0,0,0,0,0,0,0,0,0,0,0,0,0,0,0,0,0,0,0,0,0,0,0,0,0,0,0,0,0,0,0,0,0,0,0,0,0,0],"id":12,"left_children":[1,3,5,7,9,11,13,15,17,19,21,23,25,27,29,31,33,35,37,39,41,43,45,47,49,51,-1,53,55,-1,57,59,-1,61,63,65,67,-1,69,71,73,75,77,79,81,-1,-1,83,85,87,89,-1,91,-1,93,95,97,-1,99,-1,-1,-1,-1,-1,-1,-1,-1,-1,-1,-1,-1,-1,-1,-1,-1,-1,-1,-1,-1,-1,-1,-1,-1,-1,-1,-1,-1,-1,-1,-1,-1,-1,-1,-1,-1,-1,-1,-1,-1,-1,-1],"loss_changes":[2.014695E0,3.4025297E0,2.5648465E0,5.4374657E0,5.0756063E0,2.8564467E0,2.484517E0,4.4879045E0,3.889329E0,5.1923046E0,4.111557E0,3.2766209E0,2.5638855E0,2.414053E0,3.3530686E0,1.8745775E0,3.4663954E0,5.8232794E0,1.6244602E0,1.7055407E0,1.3980683E0,2.3163414E0,2.8771298E0,2.060453E0,3.4082503E0,2.3309348E0,0E0,1.6446447E0,2.367557E0,0E0,2.7322295E0,1.783717E0,0E0,3.189659E0,4.949177E0,3.4217901E0,6.9249845E-1,0E0,1.4788094E0,3.1390173E0,1.8173666E0,1.2392786E0,1.7660385E0,6.0261154E-1,2.0004377E0,0E0,0E0,6.6118574E-1,8.622877E-1,2.0749202E0,3.4803095E0,0E0,2.6010225E0,0E0,9.594102E-1,1.0749729E0,1.9253023E0,0E0,9.4328165E-2,0E0,0E0,0E0,0E0,0E0,0E0,0E0,0E0,0E0,0E0,0E0,0E0,0E0,0E0,0E0,0E0,0E0,0E0,0E0,0E0,0E0,0E0,0E0,0E0,0E0,0E0,0E0,0E0,0E0,0E0,0E0,0E0,0E0,0E0,0E0,0E0,0E0,0E0,0E0,0E0,0E0,0E0],"parents":[2147483647,0,0,1,1,2,2,3,3,4,4,5,5,6,6,7,7,8,8,9,9,10,10,11,11,12,12,13,13,14,14,15,15,16,16,17,17,18,18,19,19,20,20,21,21,22,22,23,23,24,24,25,25,27,27,28,28,30,30,31,31,33,33,34,34,35,35,36,36,38,38,39,39,40,40,41,41,42,42,43,43,44,44,47,47,48,48,49,49,50,50,52,52,54,54,55,55,56,56,58,58],"right_children":[2,4,6,8,10,12,14,16,18,20,22,24,26,28,30,32,34,36,38,40,42,44,46,48,50,52,-1,54,56,-1,58,60,-1,62,64,66,68,-1,70,72,74,76,78,80,82,-1,-1,84,86,88,90,-1,92,-1,94,96,98,-1,100,-1,-1,-1,-1,-1,-1,-1,-1,-1,-1,-1,-1,-1,-1,-1,-1,-1,-1,-1,-1,-1,-1,-1,-1,-1,-1,-1,-1,-1,-1,-1,-1,-1,-1,-1,-1,-1,-1,-1,-1,-1,-1],"split_conditions":[5E-1,5E-1,5E-1,5E-1,5E-1,5E-1,5E-1,5E-1,5E-1,5E-1,5E-1,5E-1,5E-1,5E-1,5E-1,5E-1,5E-1,5E-1,5E-1,5E-1,5E-1,5E-1,5E-1,5E-1,5E-1,5E-1,-2.2853221E-1,5E-1,5E-1,-3.0017233E-1,5E-1,5E-1,-3.017512E-1,5E-1,5E-1,5E-1,5E-1,-6.0461123E-2,5E-1,5E-1,5E-1,5E-1,5E-1,5E-1,5E-1,-3.3221117E-1,9.013227E-2,5E-1,5E-1,5E-1,5E-1,3.0189914E-1,5E-1,-4.8830025E-2,5E-1,5E-1,5E-1,-2.1510626E-1,5E-1,-1.4177494E-1,1.9862203E-1,-5.6419276E-2,8.3331E-2,1.5646484E-1,-3.0430752E-1,1.2139209E-1,-1.8638782E-1,-2.901286E-2,-3.3086652E-1,3.042168E-1,3.960489E-2,-2.4108823E-1,2.1601488E-1,7.479052E-2,-2.8116682E-1,1.0850137E-1,-1.7703128E-1,2.5256824E-1,-7.8674614E-2,-1.8341327E-1,4.142524E-2,2.113607E-1,3.2044798E-2,-2.8751832E-2,-2.3477623E-1,-8.3683796E-2,1.8356134E-1,-2.58691E-1,7.871843E-2,-4.505364E-2,5.4143168E-2,1.4958666E-1,-1.7715344E-1,3.2365614E-1,9.848694E-2,-9.425034E-3,2.281258E-1,-2.5982076E-1,5.3610098E-2,2.7241683E-1,7.1896724E-2],"split_indices":[154,150,103,95,133,25,38,153,66,66,53,129,54,97,95,65,117,72,129,160,115,160,83,47,86,83,0,120,95,0,83,75,0,155,101,19,118,0,135,82,153,91,74,66,155,0,0,153,93,87,141,0,97,0,90,132,104,0,132,0,0,0,0,0,0,0,0,0,0,0,0,0,0,0,0,0,0,0,0,0,0,0,0,0,0,0,0,0,0,0,0,0,0,0,0,0,0,0,0,0,0],"split_type":[0,0,0,0,0,0,0,0,0,0,0,0,0,0,0,0,0,0,0,0,0,0,0,0,0,0,0,0,0,0,0,0,0,0,0,0,0,0,0,0,0,0,0,0,0,0,0,0,0,0,0,0,0,0,0,0,0,0,0,0,0,0,0,0,0,0,0,0,0,0,0,0,0,0,0,0,0,0,0,0,0,0,0,0,0,0,0,0,0,0,0,0,0,0,0,0,0,0,0,0,0],"sum_hessian":[4.3586575E2,2.0346059E2,2.3240517E2,1.4513571E2,5.832488E1,2.0343489E2,2.897027E1,8.499142E1,6.014429E1,2.7898438E1,3.0426443E1,1.9088318E2,1.2551718E1,2.2504995E1,6.465274E0,9.160562E0,7.583086E1,4.4426155E1,1.5718137E1,1.9147684E1,8.750753E0,2.568789E1,4.7385526E0,1.6399479E1,1.744837E2,1.1550604E1,1.0011142E0,1.1013555E1,1.1491441E1,2.6844738E0,3.7808003E0,4.223703E0,4.9368587E0,6.8138954E1,7.691904E0,4.0913906E1,3.5122497E0,1.1750264E0,1.454311E1,3.4133277E0,1.5734357E1,3.8412998E0,4.9094534E0,3.3906562E0,2.2297234E1,3.0130188E0,1.7255338E0,1.3881608E1,2.5178707E0,9.103788E0,1.6537991E2,4.0711403E0,7.479463E0,1.6805902E0,9.332965E0,5.9117904E0,5.5796504E0,1.0113205E0,2.7694798E0,3.119468E0,1.104235E0,2.0185997E1,4.7952957E1,2.3935983E0,5.298306E0,3.825275E1,2.6611571E0,1.1160164E0,2.3962333E0,1.1930199E1,2.6129115E0,1.7253773E0,1.6879504E0,1.0027138E0,1.4731644E1,1.4266149E0,2.4146848E0,3.3058636E0,1.6035898E0,2.2564213E0,1.1342349E0,1.1049401E1,1.1247832E1,1.9115112E0,1.1970097E1,1.2787179E0,1.2391529E0,7.564746E0,1.5390425E0,1.2354748E2,4.1832436E1,5.001372E0,2.4780912E0,5.3411036E0,3.9918609E0,2.8190699E0,3.0927203E0,2.848738E0,2.7309124E0,1.485463E0,1.2840167E0],"tree_param":{"num_deleted":"0","num_feature":"167","num_nodes":"101","size_leaf_vector":"0"}},{"base_weights":[-8.756123E-3,-6.958809E-2,5.3721268E-2,-1.0922163E-1,2.8974354E-1,1.5816076E-1,-1.3231246E-1,-2.1295592E-1,1.2799462E-2,6.070806E-1,-3.3513904E-1,5.892727E-2,4.3721065E-1,3.0969502E-2,-5.371987E-1,-3.9962195E-2,-4.5052642E-1,-1.9902034E-1,3.0971503E-1,7.5828695E-1,-7.3554206E-1,-8.088583E-1,1.8037732E-1,-6.900892E-2,2.789865E-1,5.563131E-1,-4.5409197E-1,1.6012737E-1,-4.6821693E-1,-6.60444E-1,7.490679E-1,1.2742196E-1,-2.8979674E-1,-8.363053E-2,-6.8335825E-1,-3.2936254E-1,4.5079768E-1,4.311276E-1,-7.632893E-1,1.8445502E-1,9.2108405E-1,-1.3849947E-1,-9.9867254E-1,-2.836759E-1,7.9846823E-1,-4.7940734E-1,9.840369E-2,4.1295794E-1,-3.4710565E-1,8.452866E-1,2.8263402E-1,3.7157062E-1,-9.0672004E-1,2.596491E-1,-4.3345276E-1,-8.622018E-1,6.2819463E-1,-3.637754E-2,-8.581847E-1,-1.655163E-1,5.713804E-1,2.656048E-1,-4.83443E-1,1.2880191E-1,-9.2304176E-1,-7.968917E-1,4.23035E-2,-4.4882444E-1,2.6273462E-1,8.9121485E-1,1.0004613E-1,7.013748E-1,-9.505344E-2,-1.0904491E0,1.1788331E-2,5.116972E-1,-3.969785E-1,1.3691998E-1,1.0295742E0,-8.2592916E-1,2.9856688E-1,-9.171385E-1,-1.7297883E-2,-2.7686061E-2,4.286571E-1,6.90987E-1,1.105438E-1,-6.678394E-1,3.040891E-1,1.008687E0,-4.3739098E-1,8.577408E-1,5.9430324E-2,4.3351886E-1,-1.4312212E-1,-9.227303E-1,2.1715993E-1,-1.0788844E0,2.3867503E-1,1.6886121E-1,8.3506554E-1,-3.8643196E-1,7.875288E-1,-9.9146515E-1,6.7014344E-2],"categories":[],"categories_nodes":[],"categories_segments":[],"categories_sizes":[],"default_left":[1,1,1,1,1,1,1,1,1,1,1,1,1,1,1,1,1,1,1,1,0,1,1,1,1,1,1,1,1,1,0,1,1,1,1,1,1,1,1,1,1,0,0,1,0,1,1,1,1,1,1,0,0,1,1,1,1,1,1,0,0,0,0,0,0,0,0,0,0,0,0,0,0,0,0,0,0,0,0,0,0,0,0,0,0,0,0,0,0,0,0,0,0,0,0,0,0,0,0,0,0,0,0,0,0],"id":13,"left_children":[1,3,5,7,9,11,13,15,17,19,21,23,25,27,29,31,33,35,37,39,-1,41,43,45,47,49,51,53,55,57,-1,59,61,63,65,67,69,71,73,75,77,-1,-1,79,-1,81,83,85,87,89,91,-1,-1,93,95,97,99,101,103,-1,-1,-1,-1,-1,-1,-1,-1,-1,-1,-1,-1,-1,-1,-1,-1,-1,-1,-1,-1,-1,-1,-1,-1,-1,-1,-1,-1,-1,-1,-1,-1,-1,-1,-1,-1,-1,-1,-1,-1,-1,-1,-1,-1,-1,-1],"loss_changes":[1.6200707E0,3.1065974E0,4.1082106E0,2.4734058E0,4.511053E0,3.7176685E0,5.0530744E0,4.3202233E0,5.761797E0,3.5546937E0,2.0899315E0,2.8593407E0,4.0006604E0,3.6361263E0,3.974039E0,2.63709E0,3.7340126E0,4.680319E0,5.296212E0,1.1155772E0,0E0,4.1274595E-1,1.5544388E0,4.485128E0,3.2707517E0,2.2597704E0,2.0980234E0,2.7487698E0,5.556084E0,2.5059872E0,0E0,5.027087E0,2.8441272E0,3.394426E0,2.259058E0,3.3111E0,1.3569568E0,5.028146E0,1.0871575E0,1.0196748E0,7.496662E-1,0E0,0E0,1.3144441E0,0E0,3.8042617E0,1.9568679E0,2.5443645E0,1.6891873E0,3.5568476E0,2.224818E0,0E0,0E0,2.7822335E0,2.359414E0,2.3951106E0,2.0555294E-1,2.032322E0,1.9862528E0,0E0,0E0,0E0,0E0,0E0,0E0,0E0,0E0,0E0,0E0,0E0,0E0,0E0,0E0,0E0,0E0,0E0,0E0,0E0,0E0,0E0,0E0,0E0,0E0,0E0,0E0,0E0,0E0,0E0,0E0,0E0,0E0,0E0,0E0,0E0,0E0,0E0,0E0,0E0,0E0,0E0,0E0,0E0,0E0,0E0,0E0],"parents":[2147483647,0,0,1,1,2,2,3,3,4,4,5,5,6,6,7,7,8,8,9,9,10,10,11,11,12,12,13,13,14,14,15,15,16,16,17,17,18,18,19,19,21,21,22,22,23,23,24,24,25,25,26,26,27,27,28,28,29,29,31,31,32,32,33,33,34,34,35,35,36,36,37,37,38,38,39,39,40,40,43,43,45,45,46,46,47,47,48,48,49,49,50,50,53,53,54,54,55,55,56,56,57,57,58,58],"right_children":[2,4,6,8,10,12,14,16,18,20,22,24,26,28,30,32,34,36,38,40,-1,42,44,46,48,50,52,54,56,58,-1,60,62,64,66,68,70,72,74,76,78,-1,-1,80,-1,82,84,86,88,90,92,-1,-1,94,96,98,100,102,104,-1,-1,-1,-1,-1,-1,-1,-1,-1,-1,-1,-1,-1,-1,-1,-1,-1,-1,-1,-1,-1,-1,-1,-1,-1,-1,-1,-1,-1,-1,-1,-1,-1,-1,-1,-1,-1,-1,-1,-1,-1,-1,-1,-1,-1,-1],"split_conditions":[5E-1,5E-1,5E-1,5E-1,5E-1,5E-1,5E-1,5E-1,5E-1,5E-1,5E-1,5E-1,5E-1,5E-1,5E-1,5E-1,5E-1,5E-1,5E-1,5E-1,-2.2066262E-1,5E-1,5E-1,5E-1,5E-1,5E-1,5E-1,5E-1,5E-1,5E-1,2.2472037E-1,5E-1,5E-1,5E-1,5E-1,5E-1,5E-1,5E-1,5E-1,5E-1,5E-1,-4.1549843E-2,-2.9960176E-1,5E-1,2.3954047E-1,5E-1,5E-1,5E-1,5E-1,5E-1,5E-1,1.1147119E-1,-2.7201602E-1,5E-1,5E-1,5E-1,5E-1,5E-1,5E-1,-4.9654894E-2,1.7141412E-1,7.968144E-2,-1.450329E-1,3.8640574E-2,-2.7691254E-1,-2.3906751E-1,1.269105E-2,-1.3464734E-1,7.882039E-2,2.6736447E-1,3.0013839E-2,2.1041246E-1,-2.8516034E-2,-3.2713473E-1,3.5364993E-3,1.5350915E-1,-1.1909355E-1,4.1075993E-2,3.0887225E-1,-2.4777876E-1,8.957007E-2,-2.7514157E-1,-5.189365E-3,-8.305819E-3,1.2859714E-1,2.072961E-1,3.316314E-2,-2.0035183E-1,9.1226734E-2,3.026061E-1,-1.312173E-1,2.5732225E-1,1.7829098E-2,1.3005567E-1,-4.2936638E-2,-2.768191E-1,6.514798E-2,-3.2366532E-1,7.160251E-2,5.0658364E-2,2.5051966E-1,-1.15929596E-1,2.3625866E-1,-2.9743955E-1,2.0104304E-2],"split_indices":[90,59,135,62,83,87,57,95,113,53,131,80,106,103,99,83,154,25,123,129,0,65,132,95,139,113,79,84,109,154,0,112,120,38,34,131,93,107,108,154,160,0,0,38,0,108,83,149,126,115,144,0,0,95,136,114,132,87,114,0,0,0,0,0,0,0,0,0,0,0,0,0,0,0,0,0,0,0,0,0,0,0,0,0,0,0,0,0,0,0,0,0,0,0,0,0,0,0,0,0,0,0,0,0,0],"split_type":[0,0,0,0,0,0,0,0,0,0,0,0,0,0,0,0,0,0,0,0,0,0,0,0,0,0,0,0,0,0,0,0,0,0,0,0,0,0,0,0,0,0,0,0,0,0,0,0,0,0,0,0,0,0,0,0,0,0,0,0,0,0,0,0,0,0,0,0,0,0,0,0,0,0,0,0,0,0,0,0,0,0,0,0,0,0,0,0,0,0,0,0,0,0,0,0,0,0,0,0,0,0,0,0,0],"sum_hessian":[4.242809E2,2.1491356E2,2.0936734E2,1.9419077E2,2.0722801E1,1.3418538E2,7.518196E1,1.0455757E2,8.9633194E1,1.376231E1,6.96049E0,9.987854E1,3.430684E1,5.4234043E1,2.0947918E1,6.117758E1,4.3379986E1,5.2505463E1,3.712773E1,1.2760447E1,1.001864E0,3.3307583E0,3.6297321E0,6.35935E1,3.628504E1,3.059443E1,3.7124107E0,4.3625694E1,1.0608348E1,1.9560268E1,1.38765E0,3.6927124E1,2.425046E1,1.7369057E1,2.6010931E1,4.4144077E1,8.361387E0,3.3891094E1,3.23664E0,3.2915015E0,9.468945E0,1.1166812E0,2.214077E0,2.382233E0,1.2474991E0,1.788536E1,4.5708138E1,3.0169733E1,6.1153097E0,1.38654785E1,1.6728952E1,1.3779329E0,2.3344777E0,3.7843323E1,5.7823734E0,7.961187E0,2.647161E0,4.9914126E0,1.4568855E1,2.2625357E1,1.4301766E1,6.17324E0,1.8077219E1,1.4536752E1,2.8323047E0,2.2407072E1,3.603858E0,3.6934185E1,7.20989E0,3.0237622E0,5.3376245E0,2.2171059E1,1.1720035E1,1.9898396E0,1.2468004E0,2.1828752E0,1.1086261E0,1.425744E0,8.0432005E0,1.016768E0,1.3654649E0,8.6792755E0,9.206085E0,3.374179E1,1.1966347E1,1.5049157E1,1.5120576E1,4.0801487E0,2.035161E0,1.2488212E1,1.3772666E0,3.882483E0,1.2846469E1,2.637942E1,1.1463903E1,3.06167E0,2.7207034E0,6.6686015E0,1.2925853E0,1.3859905E0,1.2611705E0,3.8757095E0,1.1157031E0,1.2671785E1,1.89707E0],"tree_param":{"num_deleted":"0","num_feature":"167","num_nodes":"105","size_leaf_vector":"0"}},{"base_weights":[-6.765122E-3,-1.8234889E-1,1.1551285E-2,-1.0917671E-2,-5.476512E-1,2.9354107E-2,-1.8885335E-1,-3.3280742E-1,2.0636453E-1,-8.993556E-1,-3.2870106E-2,4.566478E-2,-2.9200628E-1,1.11776E-1,-8.5272616E-1,-5.4807925E-1,1.3777806E-1,4.8363468E-1,-4.289481E-1,-9.68453E-1,-2.6734528E-1,5.258584E-1,-3.706339E-1,-4.501927E-4,1.6808645E-1,6.1065044E-2,-8.5777646E-1,2.9451478E-1,-7.920535E-1,-1.0545129E0,3.3314088E-1,-7.0295024E-1,-3.889791E-3,6.51507E-1,-4.4641206E-1,6.0653305E-1,-4.1542125E-1,-7.7144855E-1,2.761413E-1,-7.8896123E-1,5.334396E-2,-7.509784E-2,1.8005304E-1,7.578066E-2,3.8523835E-1,-2.7820012E-1,6.832689E-1,-1.1441852E0,-1.1039561E-1,4.0137216E-1,-3.7717637E-1,-1.0508536E0,-1.4323075E-1,-1.2050759E0,-2.8176786E-2,-1.5621217E-1,-7.8471303E-1,-1.1103516E-1,7.5933003E-1,-8.0012836E-2,1.6432263E-1,-9.59645E-2,6.6945964E-1,-5.204746E-2,5.864998E-1,-2.7114144E-1,2.5803E-1,5.688913E-1,-4.2054206E-1,2.8835055E-1,-5.645283E-1,9.480122E-2,9.1125196E-1,7.968569E-2,7.3741215E-1,-1.3772192E0,-4.951264E-1],"categories":[],"categories_nodes":[],"categories_segments":[],"categories_sizes":[],"default_left":[1,1,1,1,1,1,1,1,1,1,1,1,1,1,1,1,1,1,1,0,0,0,1,1,1,1,1,1,1,1,0,1,0,0,0,1,0,0,0,0,1,1,1,1,1,1,1,0,0,1,0,0,0,1,0,0,0,0,0,0,0,0,0,0,0,0,0,0,0,0,0,0,0,0,0,0,0],"id":14,"left_children":[1,3,5,7,9,11,13,15,17,19,21,23,25,27,29,31,33,35,37,-1,-1,-1,39,41,43,45,47,49,51,53,-1,55,-1,-1,-1,57,-1,-1,-1,-1,59,61,63,65,67,69,71,-1,-1,73,-1,-1,-1,75,-1,-1,-1,-1,-1,-1,-1,-1,-1,-1,-1,-1,-1,-1,-1,-1,-1,-1,-1,-1,-1,-1,-1],"loss_changes":[1.3222181E0,2.4259849E0,1.335037E0,1.9886298E0,2.2124283E0,1.8117449E0,6.1898756E0,1.2349656E0,3.2030685E0,6.0709476E-2,1.3393359E0,1.8483737E0,3.3899825E0,3.8508587E0,2.656662E0,6.760347E-1,1.6087918E0,1.61201E0,1.5887727E0,0E0,0E0,0E0,8.164553E-1,3.231287E0,1.76647E0,2.558867E0,1.2622156E0,1.5114009E0,5.135362E-1,1.2753944E0,0E0,1.5743685E-1,0E0,0E0,0E0,1.3161602E0,0E0,0E0,0E0,0E0,5.9101887E-2,2.6999843E0,6.649303E0,4.1232643E0,4.1573496E0,1.4560852E0,4.8366094E-1,0E0,0E0,1.760771E0,0E0,0E0,0E0,2.1823597E-1,0E0,0E0,0E0,0E0,0E0,0E0,0E0,0E0,0E0,0E0,0E0,0E0,0E0,0E0,0E0,0E0,0E0,0E0,0E0,0E0,0E0,0E0,0E0],"parents":[2147483647,0,0,1,1,2,2,3,3,4,4,5,5,6,6,7,7,8,8,9,9,10,10,11,11,12,12,13,13,14,14,15,15,16,16,17,17,18,18,22,22,23,23,24,24,25,25,26,26,27,27,28,28,29,29,31,31,35,35,40,40,41,41,42,42,43,43,44,44,45,45,46,46,49,49,53,53],"right_children":[2,4,6,8,10,12,14,16,18,20,22,24,26,28,30,32,34,36,38,-1,-1,-1,40,42,44,46,48,50,52,54,-1,56,-1,-1,-1,58,-1,-1,-1,-1,60,62,64,66,68,70,72,-1,-1,74,-1,-1,-1,76,-1,-1,-1,-1,-1,-1,-1,-1,-1,-1,-1,-1,-1,-1,-1,-1,-1,-1,-1,-1,-1,-1,-1],"split_conditions":[5E-1,5E-1,5E-1,5E-1,5E-1,5E-1,5E-1,5E-1,5E-1,5E-1,5E-1,5E-1,5E-1,5E-1,5E-1,5E-1,5E-1,5E-1,5E-1,-2.905359E-1,-8.0203585E-2,1.5775752E-1,5E-1,5E-1,5E-1,5E-1,5E-1,5E-1,5E-1,5E-1,9.994227E-2,5E-1,-1.1669373E-3,1.9545211E-1,-1.3392362E-1,5E-1,-1.24626376E-1,-2.3143457E-1,8.284239E-2,-2.3668838E-1,5E-1,5E-1,5E-1,5E-1,5E-1,5E-1,5E-1,-3.4325558E-1,-3.3118684E-2,5E-1,-1.13152914E-1,-3.152561E-1,-4.2969227E-2,5E-1,-8.453037E-3,-4.6863653E-2,-2.3541392E-1,-3.331055E-2,2.2779901E-1,-2.4003852E-2,4.9296793E-2,-2.878935E-2,2.008379E-1,-1.5614239E-2,1.7594995E-1,-8.134244E-2,7.7409E-2,1.706674E-1,-1.2616262E-1,8.650517E-2,-1.6935849E-1,2.8440366E-2,2.733756E-1,2.3905708E-2,2.2122365E-1,-4.1316578E-1,-1.4853792E-1],"split_indices":[125,113,53,108,89,37,95,150,150,135,126,109,57,94,66,135,133,124,99,0,0,0,141,57,107,82,115,146,155,34,0,156,0,0,0,153,0,0,0,0,87,17,62,127,115,159,62,0,0,154,0,0,0,108,0,0,0,0,0,0,0,0,0,0,0,0,0,0,0,0,0,0,0,0,0,0,0],"split_type":[0,0,0,0,0,0,0,0,0,0,0,0,0,0,0,0,0,0,0,0,0,0,0,0,0,0,0,0,0,0,0,0,0,0,0,0,0,0,0,0,0,0,0,0,0,0,0,0,0,0,0,0,0,0,0,0,0,0,0,0,0,0,0,0,0,0,0,0,0,0,0,0,0,0,0,0,0],"sum_hessian":[4.0947433E2,3.783424E1,3.7164008E2,2.6451029E1,1.138321E1,3.421031E2,2.953699E1,1.0445299E1,1.600573E1,6.3189588E0,5.0642514E0,3.263948E2,1.5708294E1,2.090291E1,8.634081E0,7.053818E0,3.3914816E0,1.1308914E1,4.696816E0,5.2163234E0,1.1026355E0,1.6982034E0,3.366048E0,2.3781041E2,8.858439E1,1.0221556E1,5.486738E0,1.7948235E1,2.9546762E0,7.473208E0,1.1608723E0,5.263998E0,1.7898201E0,1.7432551E0,1.6482264E0,1.0235163E1,1.073751E0,3.097888E0,1.5989281E0,1.2609997E0,2.1050484E0,1.6864905E2,6.916136E1,6.310782E1,2.5476568E1,6.9725547E0,3.2490013E0,3.5828166E0,1.9039214E0,1.583201E1,2.1162233E0,1.669229E0,1.2854471E0,6.365273E0,1.107935E0,1.0634419E0,4.200556E0,1.8448157E0,8.3903475E0,1.082861E0,1.0221876E0,1.6489879E2,3.750273E0,4.4577454E1,2.4583908E1,2.1566671E1,4.1541145E1,2.0987173E1,4.4893956E0,2.338452E0,4.6341023E0,1.3025912E0,1.9464102E0,8.72082E0,7.11119E0,4.3666067E0,1.9986663E0],"tree_param":{"num_deleted":"0","num_feature":"167","num_nodes":"77","size_leaf_vector":"0"}},{"base_weights":[-8.403915E-3,-1.6348863E-1,1.2898197E-2,-2.923752E-1,6.1535314E-2,1.9554332E-2,-5.0256795E-1,-4.3090913E-1,1.9895346E-1,-2.9275805E-1,3.5877097E-1,-2.3029E-2,1.01767756E-1,4.7216392E-1,-9.068606E-1,-2.414322E-1,-1.0440708E0,-5.1169175E-1,8.640851E-1,-5.76378E-1,1.7348522E-1,5.404607E-1,-6.5515465E-1,2.603993E-1,-6.2967815E-2,1.22127175E-1,-8.3441955E-1,-6.607899E-1,-1.6906148E-2,-1.38375E-1,-8.3172446E-1,-1.0303389E0,7.2076716E-2,-2.2724876E-1,6.7634743E-1,1.4335705E-1,9.3050337E-1,-2.9344746E-1,6.0766673E-1,-4.23366E-1,-3.0392673E-2,-4.4465968E-1,1.459729E-1,-8.675344E-1,-1.248304E-1,-2.4719629E-1,4.2778873E-1,-2.2831579E-1,3.777336E-1,-1.771309E-2,4.091381E-1,1.0822434E0,2.065578E-1,6.248479E-1,-5.697838E-1,1.0609359E0,1.4488928E-1,-8.6212397E-1,6.3163773E-3,-9.054002E-2,2.035224E-1,-8.094367E-1,2.5090763E-1,1.8394472E-1,-1.7837863E-1],"categories":[],"categories_nodes":[],"categories_segments":[],"categories_sizes":[],"default_left":[1,1,1,1,1,1,1,1,1,1,1,1,1,0,0,1,0,1,0,1,1,1,0,1,1,1,0,1,1,0,0,0,1,0,0,1,1,1,1,1,1,1,1,0,0,0,0,0,0,0,0,0,0,0,0,0,0,0,0,0,0,0,0,0,0],"id":15,"left_children":[1,3,5,7,9,11,13,15,17,19,21,23,25,-1,-1,27,-1,29,-1,31,33,35,-1,37,39,41,-1,43,45,-1,-1,-1,47,-1,-1,49,51,53,55,57,59,61,63,-1,-1,-1,-1,-1,-1,-1,-1,-1,-1,-1,-1,-1,-1,-1,-1,-1,-1,-1,-1,-1,-1],"loss_changes":[1.3401718E0,1.438771E0,1.2348354E0,2.2176528E0,2.0707793E0,1.239747E0,2.236637E0,2.6232028E0,4.021736E0,1.2989178E0,2.3068094E0,2.6613934E0,2.4041815E0,0E0,0E0,1.8914483E0,0E0,3.9737403E-1,0E0,1.8018452E0,9.9963033E-1,1.343785E0,0E0,5.7663674E0,2.4009662E0,1.6744747E0,0E0,6.695709E-1,1.5586139E0,0E0,0E0,0E0,3.9394614E-1,0E0,0E0,2.60161E-1,2.849803E-1,3.3684115E0,3.6603918E0,3.204038E0,2.6865559E0,1.4857411E0,1.4496164E0,0E0,0E0,0E0,0E0,0E0,0E0,0E0,0E0,0E0,0E0,0E0,0E0,0E0,0E0,0E0,0E0,0E0,0E0,0E0,0E0,0E0,0E0],"parents":[2147483647,0,0,1,1,2,2,3,3,4,4,5,5,6,6,7,7,8,8,9,9,10,10,11,11,12,12,15,15,17,17,19,19,20,20,21,21,23,23,24,24,25,25,27,27,28,28,32,32,35,35,36,36,37,37,38,38,39,39,40,40,41,41,42,42],"right_children":[2,4,6,8,10,12,14,16,18,20,22,24,26,-1,-1,28,-1,30,-1,32,34,36,-1,38,40,42,-1,44,46,-1,-1,-1,48,-1,-1,50,52,54,56,58,60,62,64,-1,-1,-1,-1,-1,-1,-1,-1,-1,-1,-1,-1,-1,-1,-1,-1,-1,-1,-1,-1,-1,-1],"split_conditions":[5E-1,5E-1,5E-1,5E-1,5E-1,5E-1,5E-1,5E-1,5E-1,5E-1,5E-1,5E-1,5E-1,1.4164919E-1,-2.720582E-1,5E-1,-3.1322128E-1,5E-1,2.5922555E-1,5E-1,5E-1,5E-1,-1.965464E-1,5E-1,5E-1,5E-1,-2.503259E-1,5E-1,5E-1,-4.15125E-2,-2.4951735E-1,-3.0910167E-1,5E-1,-6.817463E-2,2.0290424E-1,5E-1,5E-1,5E-1,5E-1,5E-1,5E-1,5E-1,5E-1,-2.6026034E-1,-3.744912E-2,-7.415889E-2,1.2833662E-1,-6.849474E-2,1.1332008E-1,-5.3139273E-3,1.2274144E-1,3.2467306E-1,6.196734E-2,1.8745437E-1,-1.7093515E-1,3.1828076E-1,4.3466784E-2,-2.586372E-1,1.8949133E-3,-2.7162008E-2,6.1056722E-2,-2.42831E-1,7.527229E-2,5.5183418E-2,-5.351359E-2],"split_indices":[147,128,45,81,80,107,96,75,93,23,89,164,11,0,0,101,0,47,0,50,11,155,0,155,85,145,0,103,150,0,0,0,141,0,0,157,66,111,65,95,82,141,74,0,0,0,0,0,0,0,0,0,0,0,0,0,0,0,0,0,0,0,0,0,0],"split_type":[0,0,0,0,0,0,0,0,0,0,0,0,0,0,0,0,0,0,0,0,0,0,0,0,0,0,0,0,0,0,0,0,0,0,0,0,0,0,0,0,0,0,0,0,0,0,0,0,0,0,0,0,0,0,0,0,0,0,0,0,0,0,0,0,0],"sum_hessian":[4.0402792E2,4.7988064E1,3.560399E2,3.0321537E1,1.7666525E1,3.524508E2,3.5890782E0,2.3748451E1,6.573087E0,8.066561E0,9.599963E0,2.3266127E2,1.1978953E2,1.0030038E0,2.5860746E0,1.9206944E1,4.5415077E0,3.2893474E0,3.2837398E0,4.8686814E0,3.1978793E0,8.537122E0,1.0628417E0,2.8054043E1,2.0460722E2,1.18090935E2,1.6985948E0,6.0200233E0,1.3186919E1,2.1794298E0,1.1099176E0,2.5174127E0,2.351269E0,2.0846767E0,1.1132023E0,4.907908E0,3.629214E0,1.087107E1,1.7182974E1,1.596627E1,1.8864095E2,4.055227E0,1.14035706E2,3.8978028E0,2.1222205E0,8.980428E0,4.2064915E0,1.3134617E0,1.0378072E0,3.6370916E0,1.2708164E0,2.591176E0,1.0380379E0,2.222911E0,8.648159E0,8.027686E0,9.155287E0,7.4017563E0,8.564514E0,1.50544E2,3.809694E1,2.552769E0,1.5024581E0,1.02472176E2,1.1563528E1],"tree_param":{"num_deleted":"0","num_feature":"167","num_nodes":"65","size_leaf_vector":"0"}},{"base_weights":[-8.417424E-3,-3.761734E-2,6.575124E-2,-4.5955083E-3,-3.0030528E-1,1.1703423E-1,-3.4891668E-1,-1.6700443E-2,5.200678E-1,2.2783903E-3,-7.670629E-1,3.8793918E-2,3.5505465E-1,-8.757976E-1,1.7538342E-1,1.2348594E-2,-2.7679157E-1,9.897716E-1,-6.270286E-2,-2.3546481E-1,3.103244E-1,-8.789919E-1,1.6395043E-1,-1.1533054E-1,3.3426085E-1,4.606854E-1,-5.3209E-1,4.127899E-2,-1.1560227E0,-7.932398E-2,6.139946E-1,-2.2258651E-1,6.0254056E-2,-4.1871428E-1,7.0532596E-1,6.7819196E-1,-9.1948056E-1,-5.2761793E-1,5.3809917E-1,6.227653E-1,-2.2508186E-1,-3.4939486E-1,-1.0364562E0,-4.1961244E-1,6.352112E-2,-4.8309314E-1,4.117838E-1,1.6050473E-1,6.851518E-1,-6.6201276E-1,-1.4746214E-1,-7.322909E-1,5.8273506E-1,3.8560566E-2,-5.8110327E-1,2.8777307E-1,7.571764E-3,7.402398E-1,-5.207704E-1,1.8452814E-1,-1.2048727E0,1.8317403E-2,8.3231556E-1,8.709861E-1,-3.1542994E-2,-5.447433E-1,3.2743663E-1,-4.252712E-1,-9.838503E-2,-1.4418408E-1,-9.9999976E-1,3.2200727E-1,-2.263541E-1,7.7699345E-1,2.3335949E-1,3.8608563E-1,-5.55922E-1,8.0432004E-1,-1.563852E-1],"categories":[],"categories_nodes":[],"categories_segments":[],"categories_sizes":[],"default_left":[1,1,1,1,1,1,1,1,1,1,1,1,1,1,1,1,1,0,1,1,1,1,0,1,1,1,1,0,0,1,0,1,1,1,0,0,0,1,1,1,1,1,0,1,1,0,1,1,1,0,0,0,0,0,0,0,0,0,0,0,0,0,0,0,0,0,0,0,0,0,0,0,0,0,0,0,0,0,0],"id":16,"left_children":[1,3,5,7,9,11,13,15,17,19,21,23,25,27,29,31,33,-1,35,37,39,41,-1,43,45,47,49,-1,-1,51,-1,53,55,57,-1,-1,-1,59,61,63,65,67,-1,69,71,-1,73,75,77,-1,-1,-1,-1,-1,-1,-1,-1,-1,-1,-1,-1,-1,-1,-1,-1,-1,-1,-1,-1,-1,-1,-1,-1,-1,-1,-1,-1,-1,-1],"loss_changes":[8.646361E-1,2.481904E0,2.4399838E0,1.6302472E0,4.51455E0,1.8699425E0,3.6531022E0,1.8963035E0,1.6466926E0,1.5658187E0,1.4540076E0,3.5564058E0,2.578621E0,1.7143831E0,8.511481E-1,2.5605826E0,3.8096554E0,0E0,2.8605475E0,3.0123315E0,1.6975849E0,5.8673096E-1,0E0,2.8299665E0,1.8931837E0,1.4254808E0,5.796683E-2,0E0,0E0,2.7739651E0,0E0,3.631267E0,2.2605257E0,3.065348E0,0E0,0E0,0E0,4.6923475E0,5.665951E-1,1.0254478E0,9.1405374E-1,3.655684E-2,0E0,2.9251127E0,2.5688236E0,0E0,1.4452643E0,2.0013387E0,1.4026318E0,0E0,0E0,0E0,0E0,0E0,0E0,0E0,0E0,0E0,0E0,0E0,0E0,0E0,0E0,0E0,0E0,0E0,0E0,0E0,0E0,0E0,0E0,0E0,0E0,0E0,0E0,0E0,0E0,0E0,0E0],"parents":[2147483647,0,0,1,1,2,2,3,3,4,4,5,5,6,6,7,7,8,8,9,9,10,10,11,11,12,12,13,13,14,14,15,15,16,16,18,18,19,19,20,20,21,21,23,23,24,24,25,25,26,26,29,29,31,31,32,32,33,33,37,37,38,38,39,39,40,40,41,41,43,43,44,44,46,46,47,47,48,48],"right_children":[2,4,6,8,10,12,14,16,18,20,22,24,26,28,30,32,34,-1,36,38,40,42,-1,44,46,48,50,-1,-1,52,-1,54,56,58,-1,-1,-1,60,62,64,66,68,-1,70,72,-1,74,76,78,-1,-1,-1,-1,-1,-1,-1,-1,-1,-1,-1,-1,-1,-1,-1,-1,-1,-1,-1,-1,-1,-1,-1,-1,-1,-1,-1,-1,-1,-1],"split_conditions":[5E-1,5E-1,5E-1,5E-1,5E-1,5E-1,5E-1,5E-1,5E-1,5E-1,5E-1,5E-1,5E-1,5E-1,5E-1,5E-1,5E-1,2.969315E-1,5E-1,5E-1,5E-1,5E-1,4.918513E-2,5E-1,5E-1,5E-1,5E-1,1.23836985E-2,-3.4680682E-1,5E-1,1.8419838E-1,5E-1,5E-1,5E-1,2.115978E-1,2.034576E-1,-2.758442E-1,5E-1,5E-1,5E-1,5E-1,5E-1,-3.1093687E-1,5E-1,5E-1,-1.4492795E-1,5E-1,5E-1,5E-1,-1.9860384E-1,-4.4238646E-2,-2.1968728E-1,1.7482053E-1,1.156817E-2,-1.7433098E-1,8.633193E-2,2.2715293E-3,2.2207195E-1,-1.5623112E-1,5.5358443E-2,-3.6146182E-1,5.4952214E-3,2.4969468E-1,2.6129586E-1,-9.462899E-3,-1.63423E-1,9.8230995E-2,-1.2758137E-1,-2.951551E-2,-4.3255225E-2,-2.9999995E-1,9.660219E-2,-6.790624E-2,2.3309804E-1,7.0007846E-2,1.1582569E-1,-1.667766E-1,2.4129602E-1,-4.691556E-2],"split_indices":[108,72,102,11,139,82,74,19,152,141,71,57,140,96,152,128,59,0,104,89,116,85,0,75,98,80,101,0,0,87,0,85,105,121,0,0,0,62,75,74,77,121,0,83,154,0,154,93,139,0,0,0,0,0,0,0,0,0,0,0,0,0,0,0,0,0,0,0,0,0,0,0,0,0,0,0,0,0,0],"split_type":[0,0,0,0,0,0,0,0,0,0,0,0,0,0,0,0,0,0,0,0,0,0,0,0,0,0,0,0,0,0,0,0,0,0,0,0,0,0,0,0,0,0,0,0,0,0,0,0,0,0,0,0,0,0,0,0,0,0,0,0,0,0,0,0,0,0,0,0,0,0,0,0,0,0,0,0,0,0,0],"sum_hessian":[3.9709543E2,2.8527612E2,1.118193E2,2.5432327E2,3.095284E1,1.0015113E2,1.1668169E1,2.4953424E2,4.789038E0,1.9382753E1,1.1570086E1,7.624983E1,2.3901295E1,5.4853773E0,6.1827917E0,2.2532112E2,2.4213123E1,2.2650526E0,2.5239856E0,1.1072702E1,8.310052E0,1.0378259E1,1.1918272E0,5.0511288E1,2.5738544E1,2.1787773E1,2.113522E0,1.4834076E0,4.00197E0,4.429607E0,1.7531847E0,3.7545643E1,1.8777547E2,2.1657175E1,2.5559478E0,1.4653068E0,1.0586789E0,8.268038E0,2.8046641E0,5.1446714E0,3.165381E0,3.1162636E0,7.261995E0,1.8200489E1,3.23108E1,1.7765111E0,2.3962034E1,1.0055511E1,1.1732263E1,1.0407811E0,1.0727409E0,2.1767094E0,2.2528975E0,2.2238993E1,1.5306652E1,3.4465763E1,1.5330971E2,1.2466695E0,2.0410505E1,4.384836E0,3.883202E0,1.3976836E0,1.4069806E0,3.4896638E0,1.6550072E0,2.014156E0,1.1512247E0,1.8598261E0,1.2564375E0,1.3189645E1,5.0108447E0,1.7021564E1,1.5289235E1,6.7634497E0,1.7198584E1,7.9982133E0,2.057298E0,1.0315703E1,1.4165589E0],"tree_param":{"num_deleted":"0","num_feature":"167","num_nodes":"79","size_leaf_vector":"0"}},{"base_weights":[-6.9726105E-3,3.2064917E-3,-2.1565855E-1,-2.7225658E-3,4.6470365E-1,5.134877E-2,-7.635807E-1,-3.2859426E-2,9.47747E-2,-1.6988052E-1,7.361579E-1,2.5523385E-1,-5.123508E-1,-1.0220338E0,-9.6435554E-2,-8.011443E-2,1.0083669E-1,1.4473921E-1,-4.1887754E-1,8.6973804E-1,2.1152814E-1,4.288544E-1,-4.727658E-1,-9.743383E-1,2.4445216E-1,-1.8592523E-2,-2.4317697E-1,1.643258E-1,-3.525744E-1,1.6970259E-1,-9.041313E-1,-5.8057886E-2,-8.001638E-1,-1.4176124E-1,6.38517E-1,-1.6108046E-1,1.305726E-1,-1.20836E-1,-9.5112234E-1,3.0127773E-1,-1.7424084E-1,-7.8540987E-1,3.3792466E-1,-3.5901517E-1,2.2430561E-1,5.009276E-1,-4.1772142E-1,-4.8319134E-1,2.5457639E-1,9.624566E-1,2.4171469E-1],"categories":[],"categories_nodes":[],"categories_segments":[],"categories_sizes":[],"default_left":[1,1,1,1,1,1,1,1,1,0,1,1,1,0,0,1,1,1,1,0,0,1,0,0,0,1,1,1,1,1,0,1,0,1,1,0,0,0,0,0,0,0,0,0,0,0,0,0,0,0,0],"id":17,"left_children":[1,3,5,7,9,11,13,15,17,-1,19,21,23,-1,-1,25,27,29,31,-1,-1,33,-1,-1,-1,35,37,39,41,43,-1,45,-1,47,49,-1,-1,-1,-1,-1,-1,-1,-1,-1,-1,-1,-1,-1,-1,-1,-1],"loss_changes":[8.2751966E-1,1.019471E0,2.6897774E0,1.0855471E0,9.3915355E-1,1.6384609E0,9.3583775E-1,1.7906508E0,2.299638E0,0E0,6.1132908E-2,1.5047944E0,1.5727302E0,0E0,0E0,2.0923967E0,2.1917694E0,2.2546773E0,1.0528809E0,0E0,0E0,1.1483482E0,0E0,0E0,0E0,3.2696977E0,4.837187E0,3.0989776E0,3.0815403E0,2.3677945E0,0E0,1.251437E0,0E0,5.552523E-1,6.218722E-1,0E0,0E0,0E0,0E0,0E0,0E0,0E0,0E0,0E0,0E0,0E0,0E0,0E0,0E0,0E0,0E0],"parents":[2147483647,0,0,1,1,2,2,3,3,4,4,5,5,6,6,7,7,8,8,10,10,11,11,12,12,15,15,16,16,17,17,18,18,21,21,25,25,26,26,27,27,28,28,29,29,31,31,33,33,34,34],"right_children":[2,4,6,8,10,12,14,16,18,-1,20,22,24,-1,-1,26,28,30,32,-1,-1,34,-1,-1,-1,36,38,40,42,44,-1,46,-1,48,50,-1,-1,-1,-1,-1,-1,-1,-1,-1,-1,-1,-1,-1,-1,-1,-1],"split_conditions":[5E-1,5E-1,5E-1,5E-1,5E-1,5E-1,5E-1,5E-1,5E-1,-5.0964158E-2,5E-1,5E-1,5E-1,-3.0661017E-1,-2.8930668E-2,5E-1,5E-1,5E-1,5E-1,2.6092142E-1,6.345844E-2,5E-1,-1.4182974E-1,-2.923015E-1,7.3335655E-2,5E-1,5E-1,5E-1,5E-1,5E-1,-2.712394E-1,5E-1,-2.4004915E-1,5E-1,5E-1,-4.832414E-2,3.917178E-2,-3.62508E-2,-2.853367E-1,9.038332E-2,-5.2272256E-2,-2.3562297E-1,1.01377405E-1,-1.0770456E-1,6.7291684E-2,1.502783E-1,-1.2531643E-1,-1.4495741E-1,7.637292E-2,2.88737E-1,7.251441E-2],"split_indices":[37,26,57,141,104,114,115,109,54,0,95,19,104,0,0,139,19,46,133,0,0,87,0,0,0,79,117,116,160,100,0,118,0,95,136,0,0,0,0,0,0,0,0,0,0,0,0,0,0,0,0],"split_type":[0,0,0,0,0,0,0,0,0,0,0,0,0,0,0,0,0,0,0,0,0,0,0,0,0,0,0,0,0,0,0,0,0,0,0,0,0,0,0,0,0,0,0,0,0,0,0,0,0,0,0],"sum_hessian":[3.8823566E2,3.711182E2,1.7117449E1,3.6739224E2,3.7259495E0,1.2118353E1,4.999096E0,2.8115033E2,8.624191E1,1.228423E0,2.4975264E0,9.3013525E0,2.817E0,3.2197921E0,1.7793037E0,2.0802463E2,7.31257E1,7.925113E1,6.9907827E0,1.4663537E0,1.0311729E0,7.842024E0,1.4593291E0,1.57072E0,1.2462798E0,1.5184792E2,5.6176716E1,6.4703186E1,8.422518E0,7.82275E1,1.0236299E0,4.1838145E0,2.806968E0,2.1941924E0,5.6478314E0,7.762132E1,7.4226585E1,4.889738E1,7.279335E0,4.6146736E1,1.855645E1,5.092722E0,3.329796E0,6.800796E0,7.1426704E1,1.4842464E0,2.6995683E0,1.0610214E0,1.1331711E0,2.324575E0,3.3232565E0],"tree_param":{"num_deleted":"0","num_feature":"167","num_nodes":"51","size_leaf_vector":"0"}},{"base_weights":[-8.4701935E-3,-5.7495058E-2,4.210159E-2,-3.4577407E-2,-6.2502605E-1,1.3965887E-1,-1.3232823E-1,-8.669101E-2,1.6617747E-1,-1.0157582E-1,-1.0344173E0,2.2822374E-1,-5.875843E-2,5.6829864E-1,-2.215762E-1,2.9174065E-2,-1.8023197E-1,5.028787E-1,-1.4962906E-1,-3.9499712E-1,2.4319862E-1,3.6230378E-2,5.4140234E-1,-1.5112428E-1,7.7620935E-1,8.434047E-1,-3.4365854E-1,-2.6815647E-1,7.0909554E-1,-2.718475E-1,1.83151E-1,-5.0377436E-2,-4.062568E-1,-7.828541E-2,7.648177E-1,7.050593E-2,-7.4243104E-1,9.7059086E-2,-4.925681E-1,6.022993E-1,-6.6950005E-1,-4.9973896E-1,6.750277E-2,9.969992E-1,1.16964065E-1,-3.6146483E-1,1.7845531E-1,-6.791832E-2,-8.6680204E-1,2.534499E-1,-1.0113356E0,-1.9649112E-1,3.1581923E-1,-8.00276E-1,-1.8522362E-1,-4.790168E-1,6.036864E-1,8.667478E-1,-1.6798932E-2,-4.558768E-1,2.5483835E-1,-1.2492319E0,2.8629906E-3,1.1915902E-2,5.4231805E-1,5.1112067E-2,-7.822765E-1,6.4579475E-1,-2.3452868E-1,-6.7990863E-1,6.4339125E-1,-2.6153174E-1,3.040039E-1,-6.4838153E-1,-1.2943348E-1,4.4120646E-1,-9.282772E-1],"categories":[],"categories_nodes":[],"categories_segments":[],"categories_sizes":[],"default_left":[1,1,1,1,1,1,1,1,1,1,0,1,1,1,1,1,1,1,1,0,0,1,1,1,0,1,0,1,0,1,1,1,1,1,1,1,1,1,1,1,0,1,1,0,0,1,1,0,0,0,0,0,0,0,0,0,0,0,0,0,0,0,0,0,0,0,0,0,0,0,0,0,0,0,0,0,0],"id":18,"left_children":[1,3,5,7,9,11,13,15,17,19,-1,21,23,25,27,29,31,33,35,-1,-1,37,39,41,-1,43,-1,45,-1,47,49,51,53,55,57,59,61,63,65,67,-1,69,71,-1,-1,73,75,-1,-1,-1,-1,-1,-1,-1,-1,-1,-1,-1,-1,-1,-1,-1,-1,-1,-1,-1,-1,-1,-1,-1,-1,-1,-1,-1,-1,-1,-1],"loss_changes":[9.549122E-1,2.5211153E0,3.2463226E0,1.9913957E0,1.5084591E0,2.1596527E0,4.412331E0,1.6383526E0,4.2527394E0,5.4253054E-1,0E0,5.070087E0,3.0855057E0,2.303447E0,2.8572793E0,3.209454E0,2.43062E0,2.9893556E0,2.7984176E0,0E0,0E0,1.7702553E0,2.7702303E0,2.738694E0,0E0,6.0366917E-1,0E0,2.5364099E0,0E0,2.7889264E0,4.093577E0,2.9610815E0,2.49328E0,2.171008E0,1.0787892E0,1.6937017E0,2.1886735E0,1.8458409E0,9.3603873E-1,1.2830219E0,0E0,3.279201E0,1.8453827E0,0E0,0E0,3.2045937E0,3.5852246E0,0E0,0E0,0E0,0E0,0E0,0E0,0E0,0E0,0E0,0E0,0E0,0E0,0E0,0E0,0E0,0E0,0E0,0E0,0E0,0E0,0E0,0E0,0E0,0E0,0E0,0E0,0E0,0E0,0E0,0E0],"parents":[2147483647,0,0,1,1,2,2,3,3,4,4,5,5,6,6,7,7,8,8,9,9,11,11,12,12,13,13,14,14,15,15,16,16,17,17,18,18,21,21,22,22,23,23,25,25,27,27,29,29,30,30,31,31,32,32,33,33,34,34,35,35,36,36,37,37,38,38,39,39,41,41,42,42,45,45,46,46],"right_children":[2,4,6,8,10,12,14,16,18,20,-1,22,24,26,28,30,32,34,36,-1,-1,38,40,42,-1,44,-1,46,-1,48,50,52,54,56,58,60,62,64,66,68,-1,70,72,-1,-1,74,76,-1,-1,-1,-1,-1,-1,-1,-1,-1,-1,-1,-1,-1,-1,-1,-1,-1,-1,-1,-1,-1,-1,-1,-1,-1,-1,-1,-1,-1,-1],"split_conditions":[5E-1,5E-1,5E-1,5E-1,5E-1,5E-1,5E-1,5E-1,5E-1,5E-1,-3.103252E-1,5E-1,5E-1,5E-1,5E-1,5E-1,5E-1,5E-1,5E-1,-1.1849914E-1,7.295959E-2,5E-1,5E-1,5E-1,2.3286282E-1,5E-1,-1.03097565E-1,5E-1,2.1272866E-1,5E-1,5E-1,5E-1,5E-1,5E-1,5E-1,5E-1,5E-1,5E-1,5E-1,5E-1,-2.0085002E-1,5E-1,5E-1,2.9909977E-1,3.508922E-2,5E-1,5E-1,-2.0375498E-2,-2.600406E-1,7.603497E-2,-3.034007E-1,-5.894734E-2,9.474578E-2,-2.400828E-1,-5.556709E-2,-1.4370506E-1,1.8110593E-1,2.6002434E-1,-5.03968E-3,-1.3676305E-1,