{"learner":{"attributes":{"best_iteration":"99","best_ntree_limit":"100","scikit_learn":"{\"use_label_encoder\": null, \"n_estimators\": 100, \"objective\": \"binary:logistic\", \"max_depth\": null, \"max_leaves\": null, \"max_bin\": null, \"grow_policy\": null, \"learning_rate\": null, \"verbosity\": null, \"booster\": null, \"tree_method\": null, \"gamma\": null, \"min_child_weight\": null, \"max_delta_step\": null, \"subsample\": null, \"sampling_method\": null, \"colsample_bytree\": null, \"colsample_bylevel\": null, \"colsample_bynode\": null, \"reg_alpha\": null, \"reg_lambda\": null, \"scale_pos_weight\": 1.797940797940798, \"base_score\": null, \"missing\": NaN, \"num_parallel_tree\": null, \"random_state\": null, \"n_jobs\": 16, \"monotone_constraints\": null, \"interaction_constraints\": null, \"importance_type\": null, \"gpu_id\": null, \"validate_parameters\": null, \"predictor\": null, \"enable_categorical\": false, \"feature_types\": null, \"max_cat_to_onehot\": null, \"max_cat_threshold\": null, \"eval_metric\": \"logloss\", \"early_stopping_rounds\": null, \"callbacks\": null, \"classes_\": [0.0, 1.0], \"n_classes_\": 2, \"_estimator_type\": \"classifier\"}"},"feature_names":["NumValenceElectrons","NumRadicalElectrons","NumAliphaticCarbocycles","NumAliphaticHeterocycles","NumAliphaticRings","NumAromaticCarbocycles","NumAromaticHeterocycles","NumAromaticRings","NumHAcceptors","NumHDonors","NumHeteroatoms","NumRotatableBonds","NumSaturatedCarbocycles","NumSaturatedHeterocycles","NumSaturatedRings","HeavyAtomMolWt","TPSA","FractionCSP3","HeavyAtomCount","NHOHCount","NOCount","RingCount","fr_Al_COO","fr_Al_OH","fr_Al_OH_noTert","fr_ArN","fr_Ar_COO","fr_Ar_N","fr_Ar_NH","fr_Ar_OH","fr_COO","fr_COO2","fr_C_O","fr_C_O_noCOO","fr_C_S","fr_HOCCN","fr_Imine","fr_NH0","fr_NH1","fr_NH2","fr_N_O","fr_Ndealkylation1","fr_Ndealkylation2","fr_Nhpyrrole","fr_SH","fr_aldehyde","fr_alkyl_carbamate","fr_alkyl_halide","fr_allylic_oxid","fr_amide","fr_amidine","fr_aniline","fr_aryl_methyl","fr_azide","fr_azo","fr_barbitur","fr_benzene","fr_benzodiazepine","fr_bicyclic","fr_diazo","fr_dihydropyridine","fr_epoxide","fr_ester","fr_ether","fr_furan","fr_guanido","fr_halogen","fr_hdrzine","fr_hdrzone","fr_imidazole","fr_imide","fr_isocyan","fr_isothiocyan","fr_ketone","fr_ketone_Topliss","fr_lactam","fr_lactone","fr_methoxy","fr_morpholine","fr_nitrile","fr_nitro","fr_nitro_arom","fr_nitro_arom_nonortho","fr_nitroso","fr_oxazole","fr_oxime","fr_para_hydroxylation","fr_phenol","fr_phenol_noOrthoHbond","fr_phos_acid","fr_phos_ester","fr_piperdine","fr_piperzine","fr_priamide","fr_prisulfonamd","fr_pyridine","fr_quatN","fr_sulfide","fr_sulfonamd","fr_sulfone","fr_term_acetylene","fr_tetrazole","fr_thiazole","fr_thiocyan","fr_thiophene","fr_unbrch_alkane","fr_urea"],"feature_types":["int","int","int","int","int","int","int","int","int","int","int","int","int","int","int","float","float","float","int","int","int","int","int","int","int","int","int","int","int","int","int","int","int","int","int","int","int","int","int","int","int","int","int","int","int","int","int","int","int","int","int","int","int","int","int","int","int","int","int","int","int","int","int","int","int","int","int","int","int","int","int","int","int","int","int","int","int","int","int","int","int","int","int","int","int","int","int","int","int","int","int","int","int","int","int","int","int","int","int","int","int","int","int","int","int","int","int"],"gradient_booster":{"model":{"gbtree_model_param":{"num_parallel_tree":"1","num_trees":"100","size_leaf_vector":"0"},"tree_info":[0,0,0,0,0,0,0,0,0,0,0,0,0,0,0,0,0,0,0,0,0,0,0,0,0,0,0,0,0,0,0,0,0,0,0,0,0,0,0,0,0,0,0,0,0,0,0,0,0,0,0,0,0,0,0,0,0,0,0,0,0,0,0,0,0,0,0,0,0,0,0,0,0,0,0,0,0,0,0,0,0,0,0,0,0,0,0,0,0,0,0,0,0,0,0,0,0,0,0,0],"trees":[{"base_weights":[-9.010224E-5,-1.2579461E0,2.5370327E-1,-1.5160958E-1,-1.463071E0,-4.0609658E-1,4.3465292E-1,-1.490174E0,6.821783E-1,-1.5133988E0,1.1483765E0,-8.3190995E-1,2.0994386E-1,1.4207371E0,3.2522666E-1,-1.68E0,-2.7325922E-1,-3.4321177E-1,1.3415254E0,-1.6042994E0,-1.5923305E-1,-3.5401776E-1,-1.4601071E0,6.3536E-1,-4.5715487E-1,1.5605341E0,-8.129526E-1,-6.4013875E-1,4.8319134E-1,-9.733867E-1,5.9573025E-1,3.32618E-1,1.5156866E0,-1.6399062E0,3.32618E-1,-1.0956175E0,9.326006E-1,-5.1707757E-1,1.4590079E0,-1.6177152E0,8.4546804E-1,8.9393747E-1,-1.4666667E0,-8.90526E-1,3.323427E-1,1.685125E0,-7.875598E-2,-1E0,-2.7325922E-1,-1.2113658E0,2.1285761E-2,1.9294758E-1,9.368959E-1,-1.2E0,-2.7325922E-1,-1.6747634E0,-6.970036E-2,-1.3333334E0,-2.7325922E-1,1.1483765E0,3.32618E-1,-6.954081E-1,1.2399119E0,3.32618E-1,-1.729644E0,1.0124531E0,-5.93087E-1,-1.3711765E0,9.430373E-2,1.3176229E0,-7.2791106E-1,1.779075E0,-6.970036E-2,6.039826E-1,-5.93087E-1,-6.062893E-1,-1.5857444E0,1.0670233E0,-7.508851E-1,4.275706E-1,-7.2716135E-1,-1.0269309E0,1.0486954E0],"categories":[],"categories_nodes":[],"categories_segments":[],"categories_sizes":[],"default_left":[1,1,1,1,1,1,1,1,1,1,0,1,1,1,1,0,0,1,1,1,1,1,1,1,1,1,1,1,1,1,0,0,0,1,0,1,1,1,0,1,0,1,0,1,1,1,1,0,0,1,1,1,1,0,0,0,0,0,0,0,0,0,0,0,0,0,0,0,0,0,0,0,0,0,0,0,0,0,0,0,0,0,0],"id":0,"left_children":[1,3,5,7,9,11,13,15,17,19,-1,21,23,25,27,-1,-1,29,31,33,35,37,39,41,43,45,47,49,51,53,-1,-1,-1,55,-1,57,59,61,-1,63,-1,65,-1,67,69,71,73,-1,-1,75,77,79,81,-1,-1,-1,-1,-1,-1,-1,-1,-1,-1,-1,-1,-1,-1,-1,-1,-1,-1,-1,-1,-1,-1,-1,-1,-1,-1,-1,-1,-1,-1],"loss_changes":[2.1244159E2,2.5133163E1,6.6288216E1,2.1765287E1,1.4110123E1,3.1573088E1,4.6481064E1,1.2617702E0,8.668979E0,1.1166183E1,0E0,2.079108E1,1.4400471E1,1.4745392E1,6.0222385E1,0E0,0E0,3.8625798E0,8.300953E-1,6.5346527E0,8.124129E0,1.3061844E1,1.2394737E1,1.8039726E1,7.1189423E0,8.498169E0,4.972315E-2,2.1062588E1,4.4356384E1,2.5904226E-1,0E0,0E0,0E0,4.559738E0,0E0,4.566021E-1,1.03177786E-1,1.3061249E1,0E0,6.8508224E0,0E0,5.5398903E0,0E0,6.352272E0,9.10252E0,6.4071045E0,1.7096134E0,0E0,0E0,5.810356E0,2.2429834E1,4.511013E1,2.9990082E1,0E0,0E0,0E0,0E0,0E0,0E0,0E0,0E0,0E0,0E0,0E0,0E0,0E0,0E0,0E0,0E0,0E0,0E0,0E0,0E0,0E0,0E0,0E0,0E0,0E0,0E0,0E0,0E0,0E0,0E0],"parents":[2147483647,0,0,1,1,2,2,3,3,4,4,5,5,6,6,7,7,8,8,9,9,11,11,12,12,13,13,14,14,17,17,18,18,19,19,20,20,21,21,22,22,23,23,24,24,25,25,26,26,27,27,28,28,29,29,33,33,35,35,36,36,37,37,39,39,41,41,43,43,44,44,45,45,46,46,49,49,50,50,51,51,52,52],"right_children":[2,4,6,8,10,12,14,16,18,20,-1,22,24,26,28,-1,-1,30,32,34,36,38,40,42,44,46,48,50,52,54,-1,-1,-1,56,-1,58,60,62,-1,64,-1,66,-1,68,70,72,74,-1,-1,76,78,80,82,-1,-1,-1,-1,-1,-1,-1,-1,-1,-1,-1,-1,-1,-1,-1,-1,-1,-1,-1,-1,-1,-1,-1,-1,-1,-1,-1,-1,-1,-1],"split_conditions":[2.86227E2,1.5435E1,2.909946E-1,1.95E1,1.25E2,5.5E0,2.8445E1,2.6568E2,1.5E0,5.5E0,3.4451294E-1,5E-1,5E-1,2.5E0,3.33693E2,-5.04E-1,-8.197777E-2,2.6723602E2,2.5E0,3.5E0,2.71226E2,7.5E0,5E-1,1.5E0,5E-1,5E-1,1.36E2,5E-1,3.5E0,1.5E0,1.7871907E-1,9.97854E-2,4.54706E-1,6.5E0,9.97854E-2,2.5E0,2.5E0,5E-1,4.377024E-1,9.4494045E-2,2.536404E-1,1.91E2,-4.4000003E-1,5.28041E2,5E-1,5E-1,5E-1,-3E-1,-8.197777E-2,3.9135002E1,4.135E1,2.5E0,5E-1,-3.6E-1,-8.197777E-2,-5.0242907E-1,-2.0910108E-2,-4.0000004E-1,-8.197777E-2,3.4451294E-1,9.97854E-2,-2.0862244E-1,3.7197357E-1,9.97854E-2,-5.188932E-1,3.0373594E-1,-1.7792611E-1,-4.1135296E-1,2.829112E-2,3.952869E-1,-2.1837333E-1,5.337225E-1,-2.0910108E-2,1.811948E-1,-1.7792611E-1,-1.818868E-1,-4.7572333E-1,3.2010698E-1,-2.2526555E-1,1.2827119E-1,-2.1814841E-1,-3.080793E-1,3.1460863E-1],"split_indices":[15,16,17,18,0,11,16,15,58,58,0,86,49,14,15,0,0,15,11,2,15,58,50,66,52,32,0,38,58,52,0,0,0,105,0,4,3,12,0,17,0,0,0,15,58,95,2,0,0,16,16,3,91,0,0,0,0,0,0,0,0,0,0,0,0,0,0,0,0,0,0,0,0,0,0,0,0,0,0,0,0,0,0],"split_type":[0,0,0,0,0,0,0,0,0,0,0,0,0,0,0,0,0,0,0,0,0,0,0,0,0,0,0,0,0,0,0,0,0,0,0,0,0,0,0,0,0,0,0,0,0,0,0,0,0,0,0,0,0,0,0,0,0,0,0,0,0,0,0,0,0,0,0,0,0,0,0,0,0,0,0,0,0,0,0,0,0,0,0],"sum_hessian":[6.634701E2,1.1072683E2,5.527432E2,1.7590733E1,9.31361E1,1.18695946E2,4.340473E2,6.4494853E0,1.1141248E1,9.178764E1,1.3484555E0,6.997683E1,4.8719112E1,4.21583E1,3.9188898E2,5.25E0,1.1994852E0,4.5479407E0,6.5933075E0,8.584074E1,5.946911E0,4.063095E1,2.9345882E1,2.9777348E1,1.8941763E1,3.9958817E1,2.1994853E0,5.4678894E1,3.3721008E2,2.6994853E0,1.8484555E0,1.3989704E0,5.194337E0,8.4441765E1,1.3989704E0,3.1994853E0,2.747426E0,3.793404E1,2.696911E0,2.7747425E1,1.5984555E0,2.7027348E1,2.75E0,1.2146397E1,6.795367E0,3.711036E1,2.8484554E0,1E0,1.1994852E0,2.8893822E1,2.578507E1,2.0652026E2,1.3068983E2,1.5E0,1.1994852E0,8.254279E1,1.8989704E0,2E0,1.1994852E0,1.3484555E0,1.3989704E0,3.498713E1,2.946911E0,1.3989704E0,2.6348455E1,2.5327864E1,1.6994852E0,7.8989706E0,4.247426E0,3.3963962E0,3.3989704E0,3.5211388E1,1.8989704E0,1.1489704E0,1.6994852E0,1.2045366E1,1.6848455E1,1.0790218E1,1.4994852E1,1.649852E2,4.153507E1,6.5984554E0,1.2409138E2],"tree_param":{"num_deleted":"0","num_feature":"107","num_nodes":"83","size_leaf_vector":"0"}},{"base_weights":[-2.500382E-3,-7.4570733E-1,2.355375E-1,2.5947598E-1,-9.078339E-1,1.4461556E-1,1.0975268E0,-1.1800971E0,8.664386E-1,-9.9398786E-1,4.7065187E-1,3.5843965E-2,8.6860013E-1,-9.469998E-2,1.376579E0,-1.3336122E0,-2.2878724E-1,1.2835863E-1,1.2921473E0,-1.2643923E0,-7.0612514E-1,1.2202867E0,-5.081978E-2,-2.6903114E-1,4.117285E-1,-1.4749025E-1,1.1447251E0,-1.0152736E0,8.120606E-1,1.4934452E0,-4.1221148E-1,-8.133123E-1,8.6560094E-1,1.9818226E-1,1.436593E0,-1.3302876E0,8.220127E-2,-1.1373582E0,-3.368751E-1,4.7665963E-1,-1.0303103E0,-4.6786064E-1,3.8412252E-1,5.387832E-1,-1.0460101E0,1.035028E0,-6.815945E-1,1.2661062E0,-8.821223E-1,3.954901E-1,-1.6043662E0,1.2057612E0,-3.5095754E-1,1.609336E0,2.6336864E-3,-1.005434E0,-2.2878724E-1,1.315275E-1,1.13818E0,-1.3748447E0,3.4483328E-1,-8.6686945E-1,7.93596E-1,-1.2325457E0,1.9501767E-1,4.5053434E-1,-6.9828665E-1,-1.378945E-1,1.0252672E0,-1.4511569E-1,-9.4908714E-1,5.319541E-1,-9.2976314E-1,6.616527E-1,-2.5897047E-1,-1.317744E0,5.13973E-1,2.3902805E-1,1.2998183E0,-1.0335209E0,5.7126445E-1,-4.9204633E-1,1.337368E0,2.7087536E-1,1.6588533E0,5.1644456E-1,-4.483917E-1],"categories":[],"categories_nodes":[],"categories_segments":[],"categories_sizes":[],"default_left":[1,1,1,1,1,1,1,1,1,1,1,1,1,1,1,0,0,1,1,1,1,0,1,1,1,1,1,1,1,1,0,1,1,0,0,1,1,1,1,1,0,1,1,1,1,1,1,1,0,0,0,0,0,1,1,0,0,0,0,0,0,0,0,0,0,0,0,0,0,0,0,0,0,0,0,0,0,0,0,0,0,0,0,0,0,0,0],"id":1,"left_children":[1,3,5,7,9,11,13,15,17,19,21,23,25,27,29,-1,-1,31,33,35,37,-1,39,41,43,45,47,49,51,53,-1,55,57,-1,-1,59,61,63,65,67,-1,69,71,73,75,77,79,81,-1,-1,-1,-1,-1,83,85,-1,-1,-1,-1,-1,-1,-1,-1,-1,-1,-1,-1,-1,-1,-1,-1,-1,-1,-1,-1,-1,-1,-1,-1,-1,-1,-1,-1,-1,-1,-1,-1],"loss_changes":[1.14611916E2,2.5847343E1,3.8299034E1,2.0774364E1,1.6566505E1,3.501443E1,1.5656513E1,7.3581886E-1,5.0115604E0,9.062965E0,3.444315E0,4.4568302E1,1.646563E1,8.99406E0,8.534622E0,0E0,0E0,5.6593304E0,1.3491993E0,5.8491974E0,9.842117E0,0E0,3.623475E0,2.8076252E1,3.2815384E1,9.104117E0,1.2381527E1,5.0399365E0,2.9351485E0,6.176529E0,0E0,1.7985344E-1,7.482896E-1,0E0,0E0,5.081253E0,3.3612716E0,3.9437828E0,1.0563689E1,1.7004572E0,0E0,2.5509163E1,1.0338334E1,1.5936203E1,6.739272E0,6.4504623E-1,4.8951564E0,6.1220093E0,0E0,0E0,0E0,0E0,0E0,1.7505264E0,1.0616739E0,0E0,0E0,0E0,0E0,0E0,0E0,0E0,0E0,0E0,0E0,0E0,0E0,0E0,0E0,0E0,0E0,0E0,0E0,0E0,0E0,0E0,0E0,0E0,0E0,0E0,0E0,0E0,0E0,0E0,0E0,0E0,0E0],"parents":[2147483647,0,0,1,1,2,2,3,3,4,4,5,5,6,6,7,7,8,8,9,9,10,10,11,11,12,12,13,13,14,14,17,17,18,18,19,19,20,20,22,22,23,23,24,24,25,25,26,26,27,27,28,28,29,29,31,31,32,32,35,35,36,36,37,37,38,38,39,39,41,41,42,42,43,43,44,44,45,45,46,46,47,47,53,53,54,54],"right_children":[2,4,6,8,10,12,14,16,18,20,22,24,26,28,30,-1,-1,32,34,36,38,-1,40,42,44,46,48,50,52,54,-1,56,58,-1,-1,60,62,64,66,68,-1,70,72,74,76,78,80,82,-1,-1,-1,-1,-1,84,86,-1,-1,-1,-1,-1,-1,-1,-1,-1,-1,-1,-1,-1,-1,-1,-1,-1,-1,-1,-1,-1,-1,-1,-1,-1,-1,-1,-1,-1,-1,-1,-1],"split_conditions":[1.25E2,1.5435E1,1.5E0,1.95E1,5.5E0,6.043478E-1,1.5E0,2.6568E2,1.5E0,5E-1,1.5E0,5.5E0,5E-1,5E-1,2.5E0,-4.000837E-1,-6.863618E-2,2.6723602E2,1.5E0,5E-1,2.68245E2,3.6608604E-1,4.5E0,2.5E0,1.15E1,5E-1,9.3634995E1,5E-1,3.5E0,2.5E0,-1.2366345E-1,1.5E0,9.255E0,5.945468E-2,4.3097794E-1,6.5E0,2.8123248E2,2.5E0,3.5E0,5E-1,-3.090931E-1,5E-1,1.5E0,2.5E0,1.15E1,1.33E2,5E-1,5E-1,-2.646367E-1,1.1864704E-1,-4.8130986E-1,3.6172837E-1,-1.0528727E-1,5E-1,4.08342E2,-3.0163023E-1,-6.863618E-2,3.9458252E-2,3.4145403E-1,-4.124534E-1,1.0344999E-1,-2.6006085E-1,2.3807882E-1,-3.6976373E-1,5.85053E-2,1.3516031E-1,-2.0948601E-1,-4.136835E-2,3.0758017E-1,-4.3534707E-2,-2.8472614E-1,1.5958624E-1,-2.7892897E-1,1.9849582E-1,-7.7691145E-2,-3.9532322E-1,1.5419191E-1,7.170842E-2,3.899455E-1,-3.100563E-1,1.7137934E-1,-1.476139E-1,4.0121043E-1,8.126261E-2,4.9765602E-1,1.5493338E-1,-1.3451752E-1],"split_indices":[0,16,2,18,21,17,5,15,58,38,8,11,38,38,19,0,0,15,11,92,15,0,58,91,10,3,16,5,11,2,0,52,16,0,0,105,15,3,20,73,0,86,77,9,8,0,52,4,0,0,0,0,0,42,15,0,0,0,0,0,0,0,0,0,0,0,0,0,0,0,0,0,0,0,0,0,0,0,0,0,0,0,0,0,0,0,0],"split_type":[0,0,0,0,0,0,0,0,0,0,0,0,0,0,0,0,0,0,0,0,0,0,0,0,0,0,0,0,0,0,0,0,0,0,0,0,0,0,0,0,0,0,0,0,0,0,0,0,0,0,0,0,0,0,0,0,0,0,0,0,0,0,0,0,0,0,0,0,0,0,0,0,0,0,0,0,0,0,0,0,0,0,0,0,0,0,0],"sum_hessian":[6.4585645E2,1.5615942E2,4.89697E2,2.1605433E1,1.3455399E2,4.4402896E2,4.566804E1,6.1276994E0,1.5477733E1,1.2690168E2,7.6523023E0,3.8694394E2,5.7085033E1,8.786997E0,3.6881046E1,4.9302273E0,1.1974722E0,6.1377745E0,9.339958E0,6.3685886E1,6.3215797E1,2.589589E0,5.062713E0,2.1380981E2,1.7313411E2,1.2297669E1,4.4787365E1,4.3009043E0,4.4860926E0,3.4774265E1,2.1067798E0,2.6499028E0,3.4878714E0,1.3660612E0,7.973897E0,6.072636E1,2.9595234E0,2.8200876E1,3.5014923E1,3.6242998E0,1.4384136E0,1.6412994E2,4.967986E1,1.5983362E2,1.3300502E1,3.5344486E0,8.763221E0,4.261087E1,2.176492E0,1.3637146E0,2.9371893E0,3.324084E0,1.1620084E0,3.219224E1,2.582023E0,1.4524307E0,1.1974722E0,1.3458736E0,2.1419978E0,5.9327545E1,1.3988175E0,1.1743181E0,1.7852052E0,2.6390419E1,1.8104563E0,1.0937887E1,2.4077034E1,2.062509E0,1.5617906E0,9.902096E1,6.510899E1,4.51904E1,4.48946E0,1.386495E2,2.1184107E1,1.1459629E1,1.840873E0,1.3572015E0,2.1772473E0,6.9781404E0,1.7850807E0,1.4298236E0,4.118105E1,1.3793201E0,3.0812923E1,1.1391971E0,1.4428258E0],"tree_param":{"num_deleted":"0","num_feature":"107","num_nodes":"87","size_leaf_vector":"0"}},{"base_weights":[-2.7798987E-3,-7.7154785E-1,1.3727716E-1,-1.2431275E0,-5.7107794E-1,1.2008176E0,8.7923504E-2,-1.3023156E0,-8.18757E-2,4.364585E-1,-7.182245E-1,1.2886733E0,1.8849085E-1,-1.8874906E-1,3.446915E-1,1.4343432E0,-1.9704056E-1,2.268485E-1,-8.551291E-1,1.3793448E0,5.096631E-1,-3.665832E-1,2.2581266E-1,-5.0189996E-1,4.8973274E-1,-7.6930326E-1,3.8457656E-1,-6.711831E-1,7.790724E-1,-9.1735774E-1,9.283717E-1,3.1913927E-1,1.4257003E0,3.4179267E-2,8.347611E-1,-4.3912715E-1,8.398641E-1,-1.09220475E-1,9.082884E-1,3.4113464E-1,-9.776419E-1,6.4580005E-1,-1.1459043E-1,-9.42523E-1,-2.5272015E-1,-1.1469285E-1,6.2973976E-1,7.4950646E-4,-9.7727823E-1,1.1596241E0,-1.3226458E-1,-1.0573869E0,1.2746797E-2,2.267048E-1,-5.57279E-1,1.2305604E0,-1.0851215E0,1.4634684E-1,-1.320595E0,1.2462358E0,-1.3974385E-1,-2.9082993E-1,9.754093E-1,-1.0925099E0,7.8794163E-1,7.8060687E-1,-5.5736363E-2,3.362331E-1,-1.2076238E0],"categories":[],"categories_nodes":[],"categories_segments":[],"categories_sizes":[],"default_left":[1,1,1,1,1,1,1,0,0,1,1,1,0,1,1,0,1,1,1,1,1,1,1,1,1,1,1,1,1,1,0,0,0,0,0,1,1,1,1,1,1,1,1,0,0,0,0,0,0,0,0,0,0,0,0,0,0,0,0,0,0,0,0,0,0,0,0,0,0],"id":2,"left_children":[1,3,5,7,9,11,13,-1,-1,15,17,19,-1,21,23,-1,25,27,29,31,33,35,37,39,41,43,45,47,49,51,-1,-1,-1,-1,-1,53,55,57,59,61,63,65,67,-1,-1,-1,-1,-1,-1,-1,-1,-1,-1,-1,-1,-1,-1,-1,-1,-1,-1,-1,-1,-1,-1,-1,-1,-1,-1],"loss_changes":[6.682607E1,8.332241E0,2.7452433E1,1.7959633E0,1.0537931E1,1.8208351E0,3.5785328E1,0E0,0E0,6.2315874E0,8.02882E0,7.930145E-1,0E0,1.7973377E1,3.23116E1,0E0,2.5043886E0,4.7145743E0,6.7451744E0,4.485817E-1,5.5797195E-1,1.5265198E1,1.689777E1,1.5850716E1,2.1148914E1,9.091449E-2,5.5663997E-1,7.731832E-1,2.1290655E0,6.7619247E0,0E0,0E0,0E0,0E0,0E0,1.2808409E1,8.854116E0,1.57252445E1,8.779993E0,6.175405E0,5.9293003E0,1.6852722E1,2.34241E1,0E0,0E0,0E0,0E0,0E0,0E0,0E0,0E0,0E0,0E0,0E0,0E0,0E0,0E0,0E0,0E0,0E0,0E0,0E0,0E0,0E0,0E0,0E0,0E0,0E0,0E0],"parents":[2147483647,0,0,1,1,2,2,3,3,4,4,5,5,6,6,9,9,10,10,11,11,13,13,14,14,16,16,17,17,18,18,19,19,20,20,21,21,22,22,23,23,24,24,25,25,26,26,27,27,28,28,29,29,35,35,36,36,37,37,38,38,39,39,40,40,41,41,42,42],"right_children":[2,4,6,8,10,12,14,-1,-1,16,18,20,-1,22,24,-1,26,28,30,32,34,36,38,40,42,44,46,48,50,52,-1,-1,-1,-1,-1,54,56,58,60,62,64,66,68,-1,-1,-1,-1,-1,-1,-1,-1,-1,-1,-1,-1,-1,-1,-1,-1,-1,-1,-1,-1,-1,-1,-1,-1,-1,-1],"split_conditions":[2.86227E2,1.85E1,1.592E1,5E-1,1.5E0,5E-1,5E-1,-3.906947E-1,-2.456271E-2,5E-1,1.549E1,3.62049E2,5.6547258E-2,5E-1,5E-1,4.3030298E-1,5E-1,2.05E1,1.25E2,1.5E0,7.5E0,5E-1,1.5E0,4.1287878E-1,5E-1,1.5E0,1E0,5E-1,5E-1,2.5E0,2.7851152E-1,9.5741786E-2,4.2771012E-1,1.02537805E-2,2.5042835E-1,3.2739998E1,2.5E0,1.5E0,5E-1,5.5E0,1.5E0,3.5E0,5E-1,-2.8275692E-1,-7.581605E-2,-3.4407858E-2,1.8892194E-1,2.2485194E-4,-2.9318348E-1,3.4788725E-1,-3.967938E-2,-3.1721607E-1,3.8240391E-3,6.801145E-2,-1.671837E-1,3.6916813E-1,-3.2553646E-1,4.390405E-2,-3.961785E-1,3.7387076E-1,-4.1923158E-2,-8.724898E-2,2.926228E-1,-3.2775298E-1,2.363825E-1,2.3418207E-1,-1.672091E-2,1.0086994E-1,-3.6228716E-1],"split_indices":[15,18,16,24,8,47,91,0,0,37,16,15,0,52,9,0,2,18,0,10,11,64,38,17,73,3,58,63,2,7,0,0,0,0,0,16,27,63,28,21,66,7,38,0,0,0,0,0,0,0,0,0,0,0,0,0,0,0,0,0,0,0,0,0,0,0,0,0,0],"split_type":[0,0,0,0,0,0,0,0,0,0,0,0,0,0,0,0,0,0,0,0,0,0,0,0,0,0,0,0,0,0,0,0,0,0,0,0,0,0,0,0,0,0,0,0,0,0,0,0,0,0,0,0,0,0,0,0,0,0,0,0,0,0,0,0,0,0,0,0,0],"sum_hessian":[6.186648E2,9.464625E1,5.2401855E2,2.6681177E1,6.796507E1,2.220406E1,5.0181445E2,2.5271626E1,1.4095515E0,8.410549E0,5.955452E1,2.017976E1,2.0242994E0,2.416725E2,2.6014197E2,2.7750864E0,5.6354628E0,7.452413E0,5.2102108E1,1.7385557E1,2.794202E0,1.6920467E2,7.246783E1,3.7689823E1,2.2245215E2,2.677918E0,2.9575448E0,2.755681E0,4.6967325E0,5.081476E1,1.2873491E0,1.0586041E0,1.6326954E1,1.583432E0,1.2107701E0,1.6020737E2,8.997292E0,4.916988E1,2.3297947E1,1.36984825E1,2.3991343E1,1.7674013E2,4.571202E1,1.3879725E0,1.2899455E0,1.1492667E0,1.8082782E0,1.174656E0,1.5810249E0,3.1210265E0,1.5757058E0,4.4046604E1,6.7681537E0,2.4005909E1,1.3620146E2,7.7791696E0,1.2181221E0,4.1329636E1,7.8402467E0,1.7474134E1,5.823812E0,7.132969E0,6.5655136E0,2.2883757E1,1.1075866E0,1.4815756E2,2.8582567E1,3.28538E1,1.2858222E1],"tree_param":{"num_deleted":"0","num_feature":"107","num_nodes":"69","size_leaf_vector":"0"}},{"base_weights":[-1.7689028E-3,-8.510157E-1,8.175413E-2,-4.1333878E-1,-1.034168E0,2.0455932E-2,7.928261E-1,-7.2643346E-1,6.7523444E-1,-1.1119957E0,1.2411445E-2,8.272596E-2,-7.5094223E-1,8.801645E-1,-1.0344797E0,-9.002919E-1,2.685234E-2,1.0590045E0,-1.4117973E-1,-1.2362902E0,-2.6458287E-1,-7.0695126E-1,6.9190425E-1,3.4085384E-1,-1.2016369E-1,-9.2281544E-1,8.590488E-1,1.091551E0,6.6506945E-2,-1.0334636E0,2.3680566E-1,-1.15767255E-1,1.8823797E-1,-1.90938E-1,-1.298335E0,3.5898748E-1,-9.607754E-1,4.4089195E-1,-2.0667662E-1,-2.2236122E-1,4.8857015E-1,-1.1313157E0,3.9090246E-1,2.714627E-1,1.0593852E0,-2.4247786E-1,1.1935632E0,-9.874745E-1,8.780418E-1,-1.145504E0,-4.140603E-1,-7.676761E-1,1.1759528E0,5.302375E-1,-2.800265E-1,-6.5317918E-3,-1.2589798E0,-6.8683934E-1,-4.15582E-2,-1.6600029E-1,9.2334336E-1,-1.3723943E0,1.6947307E-2,1.2098762E0,-6.0320693E-1,1.284837E0,5.129318E-1,-1.4099289E0,7.507075E-2,1.1726067E0,-1.6863252E-1],"categories":[],"categories_nodes":[],"categories_segments":[],"categories_sizes":[],"default_left":[1,1,1,1,1,1,1,1,1,1,1,1,1,1,0,1,1,0,0,1,1,0,0,1,1,1,1,1,1,1,0,0,0,0,0,1,0,1,1,1,1,1,1,0,0,0,1,1,1,0,0,0,0,0,0,0,0,0,0,0,0,0,0,0,0,0,0,0,0,0,0],"id":3,"left_children":[1,3,5,7,9,11,13,15,17,19,21,23,25,27,-1,29,31,-1,-1,33,35,-1,-1,37,39,41,43,45,47,49,-1,-1,-1,-1,-1,51,-1,53,55,57,59,61,63,-1,-1,-1,65,67,69,-1,-1,-1,-1,-1,-1,-1,-1,-1,-1,-1,-1,-1,-1,-1,-1,-1,-1,-1,-1,-1,-1],"loss_changes":[4.211626E1,3.834465E0,2.354761E1,6.4040656E0,3.012577E0,2.4018717E1,7.753647E0,1.8520155E0,1.5261941E0,3.283451E0,2.2181559E0,2.4256512E1,1.11284485E1,7.0588417E0,0E0,1.9662533E0,1.04380585E-1,0E0,0E0,1.6733322E0,2.8007598E0,0E0,0E0,1.1251322E1,1.6260536E1,9.818424E0,1.9748545E-1,4.7595215E0,9.091512E0,2.4487019E-1,0E0,0E0,0E0,0E0,0E0,4.3195753E0,0E0,1.1265369E1,6.7644014E0,1.8698395E1,1.0863829E1,8.272266E0,5.15214E0,0E0,0E0,0E0,1.2471008E0,2.194717E0,2.0358596E0,0E0,0E0,0E0,0E0,0E0,0E0,0E0,0E0,0E0,0E0,0E0,0E0,0E0,0E0,0E0,0E0,0E0,0E0,0E0,0E0,0E0,0E0],"parents":[2147483647,0,0,1,1,2,2,3,3,4,4,5,5,6,6,7,7,8,8,9,9,10,10,11,11,12,12,13,13,15,15,16,16,19,19,20,20,23,23,24,24,25,25,26,26,27,27,28,28,29,29,35,35,37,37,38,38,39,39,40,40,41,41,42,42,46,46,47,47,48,48],"right_children":[2,4,6,8,10,12,14,16,18,20,22,24,26,28,-1,30,32,-1,-1,34,36,-1,-1,38,40,42,44,46,48,50,-1,-1,-1,-1,-1,52,-1,54,56,58,60,62,64,-1,-1,-1,66,68,70,-1,-1,-1,-1,-1,-1,-1,-1,-1,-1,-1,-1,-1,-1,-1,-1,-1,-1,-1,-1,-1,-1],"split_conditions":[2.05E1,5E-1,1.5E0,2.6033698E2,1.5E0,5E-1,3.5E0,5E-1,2.5E0,1.07E2,9.9E1,5E-1,5E-1,6.922E1,-3.1034392E-1,1.5E0,1.5E0,3.1770137E-1,-4.235392E-2,1.45E1,3.5E0,-2.1208538E-1,2.0757128E-1,2.5E0,6.043478E-1,2.5E0,8.3845E1,2.526E1,1.71E2,5E-1,7.10417E-2,-3.4730177E-2,5.6471393E-2,-5.72814E-2,-3.895005E-1,2.4415E1,-2.8823262E-1,1.5E0,1.5E0,5.5E0,5.5E0,5E-1,8.1455E1,8.143882E-2,3.1781557E-1,-7.274336E-2,4.5E0,3E0,2.5E0,-3.436512E-1,-1.2421809E-1,-2.3030284E-1,3.5278586E-1,1.5907125E-1,-8.400795E-2,-1.9595376E-3,-3.7769395E-1,-2.0605181E-1,-1.246746E-2,-4.980009E-2,2.7700302E-1,-4.117183E-1,5.0841924E-3,3.6296287E-1,-1.8096209E-1,3.854511E-1,1.5387955E-1,-4.229787E-1,2.2521228E-2,3.5178202E-1,-5.058976E-2],"split_indices":[18,37,2,15,51,29,3,23,11,0,0,32,92,16,0,52,5,0,0,18,20,0,0,27,17,5,16,16,0,12,0,0,0,0,0,16,0,66,63,10,21,42,16,0,0,0,4,58,3,0,0,0,0,0,0,0,0,0,0,0,0,0,0,0,0,0,0,0,0,0,0],"split_type":[0,0,0,0,0,0,0,0,0,0,0,0,0,0,0,0,0,0,0,0,0,0,0,0,0,0,0,0,0,0,0,0,0,0,0,0,0,0,0,0,0,0,0,0,0,0,0,0,0,0,0,0,0,0,0,0,0,0,0,0,0,0,0,0,0,0,0,0,0,0,0],"sum_hessian":[5.9177734E2,5.2166725E1,5.396106E2,1.6350626E1,3.58161E1,4.977322E2,4.1878407E1,1.2956701E1,3.393924E0,3.327885E1,2.5372486E0,4.6138065E2,3.635154E1,4.0462765E1,1.415643E0,1.0368498E1,2.5882034E0,2.1065574E0,1.2873666E0,2.8621832E1,4.6570187E0,1.212837E0,1.3244116E0,2.027502E2,2.5863046E2,3.323083E1,3.1207085E0,3.1847357E1,8.615407E0,9.363076E0,1.0054213E0,1.5240436E0,1.0641598E0,1.8320582E0,2.6789774E1,2.712144E0,1.944875E0,1.7159348E2,3.1156721E1,2.2199539E2,3.6635075E1,2.8798986E1,4.431846E0,1.392257E0,1.7284515E0,2.1645315E0,2.9682825E1,3.6535532E0,4.9618535E0,7.209604E0,2.1534724E0,1.1653545E0,1.5467894E0,1.5290768E2,1.8685795E1,2.7023197E1,4.133522E0,6.1417263E1,1.6057812E2,1.486833E1,2.1766745E1,2.3640463E1,5.158523E0,2.3109658E0,2.1208804E0,2.5390238E1,4.292587E0,2.3802578E0,1.2732954E0,3.7782314E0,1.1836221E0],"tree_param":{"num_deleted":"0","num_feature":"107","num_nodes":"71","size_leaf_vector":"0"}},{"base_weights":[-3.999466E-3,-4.4692016E-1,1.16906345E-1,-6.8538743E-1,-9.9354506E-2,-2.6717097E-1,2.106614E-1,-7.987709E-1,2.0530722E-1,1.09499626E-1,-1.0590223E0,4.340913E-3,-9.705553E-1,5.993392E-1,8.41213E-2,-8.6654794E-1,5.060137E-1,-7.6827514E-1,8.0186766E-1,-6.915194E-1,2.9351336E-1,-1.179004E0,-1.6480854E-1,-1.6220571E-1,6.182231E-1,-1.1632543E0,8.7174314E-1,2.3767753E-2,9.437808E-1,-5.084183E-1,2.254672E-1,-1.0555079E0,-5.231808E-1,4.189433E-2,8.455977E-1,-1.0444428E0,-1.1216731E-2,1.1688547E0,-1.6492834E-2,-9.9697196E-1,-1.9895466E-2,1.195732E0,1.10064365E-1,-6.995092E-1,1.294495E-1,8.9076525E-1,-8.04567E-1,-1.2670541E0,3.0674136E-1,6.4279044E-1,-5.832961E-1,1.0223609E0,6.652374E-2,-8.610284E-1,5.97192E-1,3.343713E-1,-6.717082E-1,-7.910885E-1,-1.4679726E0,-7.860662E-1,9.778734E-3,2.2686295E-1,1.6039671E0,-3.137525E-1,2.6997322E-1,4.0188923E-1,-7.3893106E-1,-1.1055975E0,1.1451988E0,6.408621E-1,-4.5783463E-1,1.7039113E-1,1.4081739E0,-1.3180181E0,-1.6125594E-1,3.563655E-1,1.1996306E0,-1.2336576E0,2.7517474E-1,1.0733114E0,-9.482541E-2,-2.0705172E-1,4.1782358E-1,-1.0773712E0,2.0605285E-1,1.0214971E0,-7.5855476E-1,4.748788E-1,-1.4081855E-1,6.070832E-2,-1.2308738E0],"categories":[],"categories_nodes":[],"categories_segments":[],"categories_sizes":[],"default_left":[1,1,1,1,1,1,1,1,1,1,1,1,1,1,1,1,1,1,1,1,1,0,0,1,1,1,0,1,1,1,1,1,1,0,0,0,0,1,0,0,1,0,1,1,1,1,0,1,0,1,1,1,1,1,1,1,1,0,0,0,0,0,0,0,0,0,0,0,0,0,0,0,0,0,0,0,0,0,0,0,0,0,0,0,0,0,0,0,0,0,0],"id":4,"left_children":[1,3,5,7,9,11,13,15,17,19,21,23,25,27,29,31,33,35,37,39,41,-1,-1,43,45,47,-1,49,51,53,55,57,59,-1,-1,-1,-1,61,-1,-1,63,-1,65,67,69,71,-1,73,-1,75,77,79,81,83,85,87,89,-1,-1,-1,-1,-1,-1,-1,-1,-1,-1,-1,-1,-1,-1,-1,-1,-1,-1,-1,-1,-1,-1,-1,-1,-1,-1,-1,-1,-1,-1,-1,-1,-1,-1],"loss_changes":[3.0563864E1,1.0075584E1,1.6201887E1,7.4772034E0,1.0331989E1,1.688966E1,1.770272E1,6.1374016E0,5.827497E0,6.5066986E0,7.931614E-1,6.7241445E0,9.757439E0,1.7520767E1,2.301846E1,3.4464188E0,5.656096E-1,8.0782676E-1,1.8371642E0,1.680275E0,5.7406244E0,0E0,0E0,8.200733E0,6.158546E0,3.8561325E0,0E0,1.3210064E1,3.7464752E0,2.116729E1,2.1865658E1,3.0670586E0,3.3505282E0,0E0,0E0,0E0,0E0,1.3546715E0,0E0,0E0,3.922975E-1,0E0,7.8748174E0,1.5023481E1,1.0621912E1,4.326812E0,0E0,9.946556E-1,0E0,2.345574E0,1.0259931E1,2.9885788E0,6.265069E-1,9.58926E0,8.483664E0,1.3299139E1,1.0029839E1,0E0,0E0,0E0,0E0,0E0,0E0,0E0,0E0,0E0,0E0,0E0,0E0,0E0,0E0,0E0,0E0,0E0,0E0,0E0,0E0,0E0,0E0,0E0,0E0,0E0,0E0,0E0,0E0,0E0,0E0,0E0,0E0,0E0,0E0],"parents":[2147483647,0,0,1,1,2,2,3,3,4,4,5,5,6,6,7,7,8,8,9,9,10,10,11,11,12,12,13,13,14,14,15,15,16,16,17,17,18,18,19,19,20,20,23,23,24,24,25,25,27,27,28,28,29,29,30,30,31,31,32,32,37,37,40,40,42,42,43,43,44,44,45,45,47,47,49,49,50,50,51,51,52,52,53,53,54,54,55,55,56,56],"right_children":[2,4,6,8,10,12,14,16,18,20,22,24,26,28,30,32,34,36,38,40,42,-1,-1,44,46,48,-1,50,52,54,56,58,60,-1,-1,-1,-1,62,-1,-1,64,-1,66,68,70,72,-1,74,-1,76,78,80,82,84,86,88,90,-1,-1,-1,-1,-1,-1,-1,-1,-1,-1,-1,-1,-1,-1,-1,-1,-1,-1,-1,-1,-1,-1,-1,-1,-1,-1,-1,-1,-1,-1,-1,-1,-1,-1],"split_conditions":[1.25E2,1.5E0,2.909946E-1,5E-1,1.5E0,1.5E0,4.2375E1,2.5E0,1.5E0,2.542055E2,6.0629997E1,5E-1,7.5E0,5E-1,1.53E2,1.5E0,5E-1,5E-1,2.5E0,1.5E0,2.3669468E-1,-3.537012E-1,-4.9442563E-2,5.5E0,7.5E0,5E-1,2.6152295E-1,2.9855E1,1.5E0,1.5E0,2.5E0,2.7421997E2,5E-1,1.25683E-2,2.536793E-1,-3.1333286E-1,-3.3650193E-3,1.5E0,-4.9478505E-3,-2.990916E-1,5E-1,3.5871962E-1,3.5E0,5E-1,5E-1,1.57E2,-2.413701E-1,5E-1,9.202241E-2,1.45E2,3.453E1,1.5E0,3.4408602E-1,5E-1,6.5E0,5E-1,4.1060024E-1,-2.3732656E-1,-4.403918E-1,-2.3581986E-1,2.9336205E-3,6.8058886E-2,4.8119015E-1,-9.4125755E-2,8.099197E-2,1.2056678E-1,-2.2167933E-1,-3.3167925E-1,3.4355965E-1,1.9225864E-1,-1.373504E-1,5.1117342E-2,4.2245218E-1,-3.9540544E-1,-4.8376784E-2,1.06909655E-1,3.598892E-1,-3.7009728E-1,8.2552426E-2,3.2199344E-1,-2.8447624E-2,-6.211552E-2,1.2534708E-1,-3.2321137E-1,6.1815858E-2,3.0644915E-1,-2.2756644E-1,1.4246364E-1,-4.2245567E-2,1.8212497E-2,-3.6926216E-1],"split_indices":[0,58,17,104,27,4,16,52,9,15,16,41,58,9,0,5,6,95,37,11,17,0,0,20,8,23,0,16,38,38,9,15,66,0,0,0,0,6,0,0,2,0,20,64,49,0,0,69,0,0,16,12,17,52,20,73,17,0,0,0,0,0,0,0,0,0,0,0,0,0,0,0,0,0,0,0,0,0,0,0,0,0,0,0,0,0,0,0,0,0,0],"split_type":[0,0,0,0,0,0,0,0,0,0,0,0,0,0,0,0,0,0,0,0,0,0,0,0,0,0,0,0,0,0,0,0,0,0,0,0,0,0,0,0,0,0,0,0,0,0,0,0,0,0,0,0,0,0,0,0,0,0,0,0,0,0,0,0,0,0,0,0,0,0,0,0,0,0,0,0,0,0,0,0,0,0,0,0,0,0,0,0,0,0,0],"sum_hessian":[5.687601E2,1.2138554E2,4.4737454E2,7.141514E1,4.9970398E1,8.741602E1,3.599585E2,6.3442284E1,7.9728575E0,4.1766567E1,8.203831E0,6.3787415E1,2.3628614E1,8.7489944E1,2.7246857E2,6.0628788E1,2.8134947E0,2.919847E0,5.0530105E0,7.2871857E0,3.447938E1,6.952495E0,1.251336E0,5.0753677E1,1.3033735E1,2.1724846E1,1.903769E0,3.3155384E1,5.433456E1,5.1977104E1,2.2049146E2,3.7769627E1,2.2859161E1,1.6634198E0,1.1500748E0,1.8612679E0,1.058579E0,3.1928947E0,1.8601158E0,4.6760926E0,2.6110933E0,4.893694E0,2.958569E1,1.7364822E1,3.3388855E1,1.1252245E1,1.78149E0,2.042093E1,1.3039137E0,1.638686E1,1.6768524E1,4.9715866E1,4.6186934E0,3.9576324E1,1.2400778E1,1.9718355E2,2.3307915E1,2.4793306E1,1.2976321E1,1.4990233E1,7.868928E0,1.489534E0,1.7033608E0,1.2557102E0,1.3553829E0,2.2409508E1,7.176182E0,1.4560242E1,2.8045814E0,1.7798512E1,1.55903425E1,5.25925E0,5.9929953E0,1.9337778E1,1.083154E0,1.190381E1,4.483051E0,9.292022E0,7.476503E0,4.7584976E1,2.130893E0,2.8274353E0,1.7912583E0,3.289705E1,6.679276E0,9.632621E0,2.7681575E0,1.5218504E2,4.4998493E1,1.047664E1,1.2831275E1],"tree_param":{"num_deleted":"0","num_feature":"107","num_nodes":"91","size_leaf_vector":"0"}},{"base_weights":[-5.885821E-3,-4.3556577E-1,7.325457E-2,-6.479777E-1,-6.482781E-2,1.4517988E-1,-3.2572877E-1,-7.9802126E-2,-7.953403E-1,4.9051216E-1,-3.2804206E-1,1.9342217E-1,-5.265955E-1,-7.105532E-1,1.2146627E-1,-7.5365394E-1,5.299596E-1,-8.402015E-1,1.6288178E-1,-5.8028847E-2,1.0663041E0,-8.963374E-1,5.165269E-2,4.9485117E-2,4.47517E-1,-1.405236E0,-1.3789202E-1,-9.172979E-1,5.7197255E-1,4.2079383E-1,-1.2977071E0,-1.5936731E-1,-9.733145E-1,-4.4826043E-1,1.2126145E0,-1.2027851E0,-6.492798E-1,-5.5134326E-1,4.108303E-1,-1.1717331E0,2.969199E-1,-3.2042176E-1,8.383969E-1,-4.1072194E-2,6.907795E-1,4.9654758E-1,-1.2531109E0,-1.7893976E-1,-1.5758812E0,-1.1018769E0,1.825704E-1,-1.0960151E0,5.7894856E-1,1.1852679E0,-6.563232E-1,3.0928805E-2,1.1601784E0,-7.099538E-1,3.9428733E-2,-1.0184395E0,-3.2911283E-1,-1.7968465E-1,7.864594E-1,-7.8541017E-1,2.4145629E-1,1.1550224E0,-9.430177E-2,9.084444E-2,-4.588544E-1,-2.256298E-1,9.307978E-1,6.4055026E-1,1.0400033E-2,-2.7170327E-1,-1.5002366E0,-3.800027E-1,-1.7345624E0,-1.3798568E0,-1.0032458E-1,1.1063969E0,-4.291623E-1,-1.1677486E0,1.3177483E-1,-9.825589E-2,9.9833316E-1,-5.5473197E-1,8.602936E-1,1.3647579E0,-2.2645025E-1],"categories":[],"categories_nodes":[],"categories_segments":[],"categories_sizes":[],"default_left":[1,1,1,1,1,1,1,1,1,1,1,1,1,1,1,1,1,1,0,1,0,1,1,1,1,1,1,1,1,1,0,0,0,1,0,0,1,0,1,0,0,1,1,1,1,1,1,0,1,1,1,1,1,0,0,1,1,0,0,0,0,0,0,0,0,0,0,0,0,0,0,0,0,0,0,0,0,0,0,0,0,0,0,0,0,0,0,0,0],"id":5,"left_children":[1,3,5,7,9,11,13,15,17,19,21,23,25,27,29,31,33,35,-1,37,-1,39,41,43,45,47,49,51,53,55,-1,-1,-1,57,-1,-1,59,-1,61,-1,-1,63,65,67,69,71,73,-1,75,77,79,81,83,-1,-1,85,87,-1,-1,-1,-1,-1,-1,-1,-1,-1,-1,-1,-1,-1,-1,-1,-1,-1,-1,-1,-1,-1,-1,-1,-1,-1,-1,-1,-1,-1,-1,-1,-1],"loss_changes":[1.8434174E1,6.5977144E0,1.3186155E1,4.4153004E0,4.812552E0,1.2695897E1,1.2173806E1,5.382679E0,1.9579582E0,3.4204793E0,4.8342314E0,1.3265184E1,8.79055E0,1.0573536E1,1.4709139E1,6.50862E-1,5.187302E0,2.0317917E0,0E0,1.7054316E0,0E0,3.286346E0,4.4392147E0,1.3562442E1,1.1566555E1,1.3836193E0,6.17774E0,9.464512E0,5.205146E0,8.118597E0,0E0,0E0,0E0,4.8595148E-1,0E0,0E0,3.0675373E0,0E0,9.955952E-1,0E0,0E0,2.905838E0,1.541511E0,1.1348338E1,6.565172E0,8.974632E0,5.532694E-1,0E0,6.424618E-1,1.2449951E0,9.165237E0,2.7822876E0,1.2845862E0,0E0,0E0,9.972973E0,3.0717783E0,0E0,0E0,0E0,0E0,0E0,0E0,0E0,0E0,0E0,0E0,0E0,0E0,0E0,0E0,0E0,0E0,0E0,0E0,0E0,0E0,0E0,0E0,0E0,0E0,0E0,0E0,0E0,0E0,0E0,0E0,0E0,0E0],"parents":[2147483647,0,0,1,1,2,2,3,3,4,4,5,5,6,6,7,7,8,8,9,9,10,10,11,11,12,12,13,13,14,14,15,15,16,16,17,17,19,19,21,21,22,22,23,23,24,24,25,25,26,26,27,27,28,28,29,29,33,33,36,36,38,38,41,41,42,42,43,43,44,44,45,45,46,46,48,48,49,49,50,50,51,51,52,52,55,55,56,56],"right_children":[2,4,6,8,10,12,14,16,18,20,22,24,26,28,30,32,34,36,-1,38,-1,40,42,44,46,48,50,52,54,56,-1,-1,-1,58,-1,-1,60,-1,62,-1,-1,64,66,68,70,72,74,-1,76,78,80,82,84,-1,-1,86,88,-1,-1,-1,-1,-1,-1,-1,-1,-1,-1,-1,-1,-1,-1,-1,-1,-1,-1,-1,-1,-1,-1,-1,-1,-1,-1,-1,-1,-1,-1,-1,-1],"split_conditions":[1.19E2,1.5E0,1.5E0,5E-1,1.57E1,9.9795E1,6.5E0,2.5E0,5.5E0,2.6723602E2,5E-1,5.5E0,1.05490005E2,6.5E0,1.2355E2,2.11875E2,2.522095E2,1.5E0,4.8864536E-2,5E-1,3.1989124E-1,3.5E0,2.90704E2,1.5E0,3.5E0,1.6E2,2.5E0,5E-1,5E-1,5.44328E2,-3.8931215E-1,-4.7810193E-2,-2.9199436E-1,9.8E1,3.6378437E-1,-3.6083555E-1,5E-1,-1.6540298E-1,1E0,-3.5151994E-1,8.9075975E-2,5E-1,3.07688E2,5E-1,1.5E0,1.5E0,9E0,-5.368193E-2,1.00509995E2,5E-1,2.5E0,2.31E2,8.5E0,3.555804E-1,-1.9689697E-1,1.5E0,5E-1,-2.1298614E-1,1.1828621E-2,-3.0553186E-1,-9.873385E-2,-5.3905398E-2,2.3593782E-1,-2.3562306E-1,7.243689E-2,3.465067E-1,-2.829053E-2,2.7253332E-2,-1.3765633E-1,-6.768894E-2,2.7923936E-1,1.9216509E-1,3.12001E-3,-8.151098E-2,-4.50071E-1,-1.1400082E-1,-5.2036875E-1,-4.1395706E-1,-3.0097375E-2,3.3191907E-1,-1.287487E-1,-3.5032457E-1,3.953245E-2,-2.9476767E-2,2.9949996E-1,-1.664196E-1,2.580881E-1,4.0942737E-1,-6.793508E-2],"split_indices":[0,5,32,37,16,16,11,21,58,15,38,11,16,4,16,15,15,11,0,52,0,4,15,2,66,0,37,39,77,15,0,0,0,0,0,0,58,0,58,0,0,6,15,42,5,63,10,0,16,46,27,0,10,0,0,38,73,0,0,0,0,0,0,0,0,0,0,0,0,0,0,0,0,0,0,0,0,0,0,0,0,0,0,0,0,0,0,0,0],"split_type":[0,0,0,0,0,0,0,0,0,0,0,0,0,0,0,0,0,0,0,0,0,0,0,0,0,0,0,0,0,0,0,0,0,0,0,0,0,0,0,0,0,0,0,0,0,0,0,0,0,0,0,0,0,0,0,0,0,0,0,0,0,0,0,0,0,0,0,0,0,0,0,0,0,0,0,0,0,0,0,0,0,0,0,0,0,0,0,0,0],"sum_hessian":[5.4016284E2,8.331482E1,4.5684802E2,5.249204E1,3.082278E1,3.8760928E2,6.923877E1,1.1128025E1,4.1364014E1,9.633689E0,2.118909E1,3.6230322E2,2.5306051E1,3.6898026E1,3.234074E1,5.1741056E0,5.95392E0,3.9631737E1,1.7322783E0,5.3940997E0,4.2395897E0,7.9417963E0,1.3247294E1,2.3204913E2,1.3025407E2,6.9594502E0,1.8346601E1,3.2020977E1,4.8770475E0,2.7288609E1,5.052133E0,1.8620064E0,3.312099E0,2.5883148E0,3.365605E0,1.1842156E1,2.778958E1,2.5427728E0,2.851327E0,6.467239E0,1.4745569E0,9.396255E0,3.8510404E0,2.0415616E2,2.789298E1,1.2729216E2,2.9619212E0,1.100391E0,5.859059E0,3.9690082E0,1.4377593E1,2.8843315E1,3.1776612E0,3.2762344E0,1.6008129E0,1.8549566E1,8.739043E0,1.3878472E0,1.2004677E0,1.1894261E1,1.5895318E1,1.3113841E0,1.5399429E0,4.9237337E0,4.472521E0,2.6970875E0,1.1539527E0,1.5575755E2,4.83986E1,5.801673E0,2.2091307E1,9.7958176E1,2.933398E1,1.0181212E0,1.9438E0,1.0840468E0,4.775012E0,2.811078E0,1.1579301E0,5.405575E0,8.972018E0,2.729737E1,1.5459439E0,1.5081227E0,1.6695384E0,1.1066223E1,7.4833417E0,7.6292205E0,1.1098228E0],"tree_param":{"num_deleted":"0","num_feature":"107","num_nodes":"89","size_leaf_vector":"0"}},{"base_weights":[-8.511256E-3,-1.9014908E-1,1.2581718E-1,-9.327592E-2,-9.0499777E-1,2.163751E-1,-3.2493913E-1,-2.113346E-2,-7.7786577E-1,-1.1135393E0,-3.2722372E-1,3.5550863E-1,-1.2624055E-1,-4.2802593E-1,7.4547404E-1,-8.065557E-1,4.314991E-2,-1.0561726E0,1.912346E-1,-2.3392951E-1,-1.2273195E0,-6.089927E-1,5.801353E-1,3.846292E-1,-1.3710027E0,-2.9144597E-1,5.511324E-1,-7.7862304E-1,1.4203886E-2,1.019842E0,-1.4366207E-1,-1.0187056E0,-2.9111567E-1,-2.247382E-1,2.5431058E-1,-4.904829E-1,-1.2446617E0,-7.846335E-1,8.9223146E-1,6.023202E-1,-1.0078359E0,-1.4373331E0,-4.8644352E-1,-9.311526E-1,3.1467073E-2,4.8587528E-1,-1.718811E-1,-4.908322E-1,3.6800402E-1,2.0907556E-3,9.489938E-1,-1.138368E0,2.1636014E-1,2.7667046E-1,-1.138665E0,4.244996E-1,-8.2622653E-1,4.1715345E-1,-4.1186237E-1,6.4565516E-1,-8.244709E-2,-9.030138E-1,6.4010525E-1,2.3732683E-1,1.0848833E0,4.2343107E-1,-1.1569515E0,-1.0634543E0,-2.617757E-1,2.0607993E-1,7.368659E-1,-3.9109582E-1,8.077704E-1,-8.235054E-1,3.1050605E-1,8.0963016E-1,-6.0548073E-1,4.94717E-1,-1.3307365E0,-3.9257577E-1,1.2578976E0,-1.5774469E0,-3.2617518E-1,6.115278E-1,-4.7890517E-1,-7.15858E-1,5.066483E-1],"categories":[],"categories_nodes":[],"categories_segments":[],"categories_sizes":[],"default_left":[1,1,1,1,1,1,1,1,1,1,1,1,1,1,1,1,1,1,1,1,1,1,0,1,0,1,1,1,1,0,0,0,1,1,1,1,0,0,1,0,0,0,1,1,0,1,1,1,1,1,1,1,1,1,0,0,0,0,0,0,0,0,0,0,0,0,0,0,0,0,0,0,0,0,0,0,0,0,0,0,0,0,0,0,0,0,0],"id":6,"left_children":[1,3,5,7,9,11,13,15,17,19,21,23,25,27,29,31,33,35,37,39,41,43,-1,45,-1,47,49,51,53,-1,-1,-1,55,57,59,61,-1,-1,63,-1,-1,-1,65,67,-1,69,71,73,75,77,79,81,83,85,-1,-1,-1,-1,-1,-1,-1,-1,-1,-1,-1,-1,-1,-1,-1,-1,-1,-1,-1,-1,-1,-1,-1,-1,-1,-1,-1,-1,-1,-1,-1,-1,-1],"loss_changes":[1.2661902E1,1.5192397E1,1.2249374E1,9.633592E0,2.793993E0,1.1916915E1,5.8709793E0,9.011477E0,5.2184315E0,1.5988998E0,2.492737E0,9.445662E0,8.29234E0,7.225151E0,1.3137147E0,1.1798306E0,9.4072485E0,9.4660187E-1,4.118032E0,2.8034964E0,1.8604488E0,1.4474342E0,0E0,9.956343E0,0E0,7.9477534E0,3.185872E0,9.542495E0,6.838205E0,0E0,0E0,0E0,2.3943908E0,8.986912E0,1.2296541E1,3.0499947E0,0E0,0E0,1.6842747E-1,0E0,0E0,0E0,3.6286612E0,1.2948227E-1,0E0,1.0277592E1,6.266767E0,1.2461663E1,6.6318407E0,5.3424253E0,3.999599E0,6.3447933E0,2.4185574E0,4.554573E0,0E0,0E0,0E0,0E0,0E0,0E0,0E0,0E0,0E0,0E0,0E0,0E0,0E0,0E0,0E0,0E0,0E0,0E0,0E0,0E0,0E0,0E0,0E0,0E0,0E0,0E0,0E0,0E0,0E0,0E0,0E0,0E0,0E0],"parents":[2147483647,0,0,1,1,2,2,3,3,4,4,5,5,6,6,7,7,8,8,9,9,10,10,11,11,12,12,13,13,14,14,15,15,16,16,17,17,18,18,19,19,20,20,21,21,23,23,25,25,26,26,27,27,28,28,32,32,33,33,34,34,35,35,38,38,42,42,43,43,45,45,46,46,47,47,48,48,49,49,50,50,51,51,52,52,53,53],"right_children":[2,4,6,8,10,12,14,16,18,20,22,24,26,28,30,32,34,36,38,40,42,44,-1,46,-1,48,50,52,54,-1,-1,-1,56,58,60,62,-1,-1,64,-1,-1,-1,66,68,-1,70,72,74,76,78,80,82,84,86,-1,-1,-1,-1,-1,-1,-1,-1,-1,-1,-1,-1,-1,-1,-1,-1,-1,-1,-1,-1,-1,-1,-1,-1,-1,-1,-1,-1,-1,-1,-1,-1,-1],"split_conditions":[2.85E1,1.5E0,8.5E0,5E-1,5.9411764E-1,5E-1,3.5E0,1.85E1,5E-1,2.8174603E-1,5.5E0,5E-1,2.5E0,4.05E1,8.5E0,5E-1,5E-1,4.882E1,3.0424152E2,1.5E0,5E-1,5E-1,1.7404059E-1,3.5E0,-4.113008E-1,6.5E0,4.0930548E2,3.5E0,6.13355E2,3.059526E-1,-4.309862E-2,-3.056117E-1,1.55E1,1.592E1,4.1559998E1,5E-1,-3.733985E-1,-2.3539007E-1,5.5E0,1.8069607E-1,-3.0235076E-1,-4.3119994E-1,4.714E1,5E-1,9.440122E-3,5E-1,1.9E2,1.5E0,1.5E0,5.5E0,3.5E0,5E-1,4.5E0,5E-1,-3.415995E-1,1.2734988E-1,-2.4786797E-1,1.2514605E-1,-1.23558715E-1,1.9369656E-1,-2.4734128E-2,-2.7090415E-1,1.9203158E-1,7.119805E-2,3.2546502E-1,1.2702933E-1,-3.4708548E-1,-3.190363E-1,-7.853271E-2,6.1823983E-2,2.2105977E-1,-1.1732875E-1,2.4233112E-1,-2.4705163E-1,9.3151815E-2,2.4288906E-1,-1.8164423E-1,1.484151E-1,-3.9922097E-1,-1.17772736E-1,3.773693E-1,-4.732341E-1,-9.785256E-2,1.8345834E-1,-1.4367156E-1,-2.147574E-1,1.519945E-1],"split_indices":[18,63,20,29,17,86,6,18,42,17,20,30,14,18,11,66,38,16,15,77,91,62,0,3,0,11,15,51,15,0,0,0,18,16,16,38,0,0,11,0,0,0,16,38,0,91,0,9,9,8,58,77,51,4,0,0,0,0,0,0,0,0,0,0,0,0,0,0,0,0,0,0,0,0,0,0,0,0,0,0,0,0,0,0,0,0,0],"split_type":[0,0,0,0,0,0,0,0,0,0,0,0,0,0,0,0,0,0,0,0,0,0,0,0,0,0,0,0,0,0,0,0,0,0,0,0,0,0,0,0,0,0,0,0,0,0,0,0,0,0,0,0,0,0,0,0,0,0,0,0,0,0,0,0,0,0,0,0,0,0,0,0,0,0,0,0,0,0,0,0,0,0,0,0,0,0,0],"sum_hessian":[5.169685E2,2.1960492E2,2.9736356E2,1.9439223E2,2.52127E1,2.4804979E2,4.9313766E1,1.7679259E2,1.7599632E1,1.7844585E1,7.368113E0,1.76384E2,7.166579E1,4.552918E1,3.784586E0,1.250145E1,1.6429114E2,1.3603208E1,3.9964256E0,2.3938928E0,1.5450693E1,5.873119E0,1.4949942E0,1.7422266E2,2.1613417E0,5.8072216E1,1.3593573E1,2.4971363E1,2.0557817E1,2.7797978E0,1.0047882E0,8.164601E0,4.336848E0,7.238981E1,9.190133E1,4.3000793E0,9.303127E0,1.6207894E0,2.375636E0,1.2571671E0,1.1367258E0,1.1305824E1,4.1448684E0,3.6055815E0,2.2675376E0,1.4751257E2,2.6710083E1,4.4786583E1,1.3285631E1,6.1340075E0,7.4595656E0,1.8234432E1,6.73693E0,1.7364553E1,3.193265E0,1.9439152E0,2.3929324E0,1.6062243E1,5.6327568E1,4.2081425E1,4.9819904E1,3.297991E0,1.0020883E0,1.0473043E0,1.328332E0,1.9148809E0,2.2299876E0,2.5189843E0,1.0865973E0,7.06148E1,7.689777E1,2.2317026E1,4.3930573E0,3.162846E1,1.3158123E1,9.255257E0,4.0303745E0,4.9377775E0,1.1962303E0,1.3454422E0,6.1141233E0,1.1224278E1,7.0101542E0,4.3722916E0,2.364638E0,2.869173E0,1.4495379E1],"tree_param":{"num_deleted":"0","num_feature":"107","num_nodes":"87","size_leaf_vector":"0"}},{"base_weights":[-1.202453E-2,-3.97212E-1,3.8285688E-2,-5.917782E-1,-3.9166678E-2,6.4343494E-1,6.922204E-3,-1.1121927E0,-3.7402722E-1,-2.8781843E-1,5.1912594E-1,-5.5500742E-2,9.646723E-1,-2.800179E-2,6.216416E-1,5.888672E-2,-7.007418E-1,-4.3312287E-1,4.9977016E-1,7.152024E-1,-3.1414354E-1,5.923116E-1,-8.2232416E-1,1.3288367E-1,1.0188317E0,6.701248E-2,-2.743921E-1,-4.4719547E-1,9.912511E-1,3.637288E-1,-8.6088985E-1,-9.680103E-1,-1.579366E-2,-6.5306914E-1,2.9911917E-1,8.534167E-1,1.2269244E-1,7.0157506E-2,9.39634E-1,-1.0606486E0,-1.0334737E-1,1.0698582E0,2.3269787E-1,-2.6779609E-2,7.309753E-1,-5.767849E-1,6.632309E-2,-1.546311E0,2.2742067E-1,1.1138073E0,-5.476793E-2,-3.7374404E-1,6.849215E-1,1.6934453E-1,-1.108609E0,-6.956153E-1,9.382797E-1,-9.0343356E-1,-1.2955907E-1,-9.593764E-2,4.9472818E-1,1.1150211E0,2.8541008E-1,3.977393E-2,-9.5024854E-1,3.2359996E-1,1.3889035E0,-1.1776412E0,-4.0256613E-1,2.4619691E-1,-6.864422E-1,7.161276E-1,-7.445871E-1,1.2019558E0,3.621247E-2],"categories":[],"categories_nodes":[],"categories_segments":[],"categories_sizes":[],"default_left":[1,1,1,1,1,1,1,0,1,1,1,1,1,1,1,1,1,1,0,1,0,1,1,0,1,1,1,1,1,1,0,1,1,1,1,0,0,0,0,0,0,1,0,1,1,1,1,0,1,1,0,0,0,0,0,0,0,0,0,0,0,0,0,0,0,0,0,0,0,0,0,0,0,0,0],"id":7,"left_children":[1,3,5,7,9,11,13,-1,15,17,19,21,23,25,27,29,31,33,-1,35,-1,37,39,-1,41,43,45,47,49,51,-1,53,55,57,59,-1,-1,-1,-1,-1,-1,61,-1,63,65,67,69,-1,71,73,-1,-1,-1,-1,-1,-1,-1,-1,-1,-1,-1,-1,-1,-1,-1,-1,-1,-1,-1,-1,-1,-1,-1,-1,-1],"loss_changes":[9.581444E0,3.9556723E0,8.299639E0,3.7695074E0,3.0896728E0,4.891549E0,8.9693165E0,0E0,3.9373841E0,1.9670672E0,1.3492796E0,4.32735E0,5.32114E-1,9.277754E0,9.315921E0,3.8936825E0,2.872778E0,2.3615558E0,0E0,3.7659645E-1,0E0,7.9947627E-1,5.6873465E-1,0E0,3.030653E-1,1.7845581E1,1.1399474E1,5.141679E0,2.2402515E0,2.6943855E0,0E0,1.9997673E0,4.184079E0,1.2798104E0,3.405527E-1,0E0,0E0,0E0,0E0,0E0,0E0,1.2973309E-1,0E0,1.55124035E1,9.056334E0,5.6522617E0,7.311085E0,0E0,2.8489025E0,1.406313E0,0E0,0E0,0E0,0E0,0E0,0E0,0E0,0E0,0E0,0E0,0E0,0E0,0E0,0E0,0E0,0E0,0E0,0E0,0E0,0E0,0E0,0E0,0E0,0E0,0E0],"parents":[2147483647,0,0,1,1,2,2,3,3,4,4,5,5,6,6,8,8,9,9,10,10,11,11,12,12,13,13,14,14,15,15,16,16,17,17,19,19,21,21,22,22,24,24,25,25,26,26,27,27,28,28,29,29,31,31,32,32,33,33,34,34,41,41,43,43,44,44,45,45,46,46,48,48,49,49],"right_children":[2,4,6,8,10,12,14,-1,16,18,20,22,24,26,28,30,32,34,-1,36,-1,38,40,-1,42,44,46,48,50,52,-1,54,56,58,60,-1,-1,-1,-1,-1,-1,62,-1,64,66,68,70,-1,72,74,-1,-1,-1,-1,-1,-1,-1,-1,-1,-1,-1,-1,-1,-1,-1,-1,-1,-1,-1,-1,-1,-1,-1,-1,-1],"split_conditions":[1.15E2,1.5E0,1.967E1,2.53E1,2.742505E2,3.1884056E-1,3.5E0,-3.3365783E-1,3.8550003E1,2.5E0,2.5E0,2.5E0,2.5E0,7.8259995E1,5E-1,5.590278E-1,5E-1,3.6068112E-1,1.4993106E-1,5E-1,-9.4243065E-2,1.27E2,6.5E0,3.9865103E-2,4.00815E2,1.5E0,3.65E1,5E-1,5E-1,2.301835E2,-2.5826696E-1,2.631579E-2,5E-1,5E-1,5E-1,2.5602502E-1,3.6807735E-2,2.1047253E-2,2.818902E-1,-3.1819457E-1,-3.1004211E-2,5E-1,6.980936E-2,1.5E0,5E-1,5E-1,1.15E1,-4.6389332E-1,1.15E1,2.01E2,-1.643038E-2,-1.1212321E-1,2.0547646E-1,5.080336E-2,-3.325827E-1,-2.086846E-1,2.8148392E-1,-2.7103007E-1,-3.8867723E-2,-2.8781293E-2,1.4841846E-1,3.3450633E-1,8.5623026E-2,1.1932179E-2,-2.8507456E-1,9.707999E-2,4.1667107E-1,-3.5329235E-1,-1.2076984E-1,7.385907E-2,-2.0593266E-1,2.1483828E-1,-2.2337614E-1,3.6058676E-1,1.0863742E-2],"split_indices":[0,5,16,16,15,17,51,0,16,52,58,10,21,16,52,17,104,17,0,51,0,0,11,0,15,38,18,32,41,15,0,17,14,86,63,0,0,0,0,0,0,47,0,32,62,6,10,0,10,0,0,0,0,0,0,0,0,0,0,0,0,0,0,0,0,0,0,0,0,0,0,0,0,0,0],"split_type":[0,0,0,0,0,0,0,0,0,0,0,0,0,0,0,0,0,0,0,0,0,0,0,0,0,0,0,0,0,0,0,0,0,0,0,0,0,0,0,0,0,0,0,0,0,0,0,0,0,0,0,0,0,0,0,0,0,0,0,0,0,0,0,0,0,0,0,0,0,0,0,0,0,0,0],"sum_hessian":[4.9264276E2,5.6115253E1,4.365275E2,3.593495E1,2.01803E1,2.0547823E1,4.1597968E2,9.388723E0,2.654623E1,1.4297127E1,5.883172E0,6.730687E0,1.3817137E1,3.945203E2,2.1459398E1,1.1770054E1,1.47761755E1,1.2450216E1,1.8469108E0,4.8772087E0,1.0059633E0,3.7718263E0,2.958861E0,1.0557851E0,1.2761352E1,2.852491E2,1.0927117E2,5.460065E0,1.5999332E1,9.294214E0,2.47584E0,1.0331528E1,4.4446487E0,9.657485E0,2.792731E0,3.5976474E0,1.2795615E0,1.98685E0,1.784976E0,1.865328E0,1.0935332E0,1.164461E1,1.1167412E0,2.5078293E2,3.4466194E1,5.7524208E1,5.1746964E1,1.585219E0,3.874846E0,1.4263368E1,1.7359643E0,2.770169E0,6.524045E0,1.1141663E0,9.217361E0,2.75353E0,1.6911185E0,6.0421524E0,3.615333E0,1.0936043E0,1.6991266E0,1.0612227E1,1.0323833E0,2.3481682E2,1.5966098E1,2.2207577E1,1.2258617E1,1.16354885E1,4.5888718E1,4.230992E1,9.437044E0,2.7536252E0,1.121221E0,1.3078154E1,1.1852145E0],"tree_param":{"num_deleted":"0","num_feature":"107","num_nodes":"75","size_leaf_vector":"0"}},{"base_weights":[-9.828012E-3,-2.3235495E-1,6.977483E-2,-3.1720623E-1,5.0221616E-1,8.540329E-2,-1.2283503E0,-1.5838474E-1,-6.1949056E-1,8.854471E-1,-5.132259E-1,1.3929509E-1,-2.5303975E-1,-4.607542E-1,1.3552544E-1,-1.1097893E0,-2.7091613E-1,-1.6102307E-1,1.0801433E0,2.789428E-1,-9.831395E-1,1.0658847E-1,9.915343E-1,-4.7951964E-1,4.1644603E-1,-6.2005645E-1,3.5715765E-1,-2.1884005E-1,4.5583174E-1,4.2159107E-1,-1.3006276E0,-4.4843045E-1,9.422369E-1,1.3096534E0,3.639922E-3,5.1317222E-2,6.5826076E-1,2.4770088E-2,1.1154841E0,6.982698E-1,-6.068483E-1,-9.3124025E-2,8.668265E-1,-8.1338835E-1,-1.2540431E-1,6.688879E-1,-1.7385706E-1,-4.8686922E-1,3.70215E-1,5.89364E-1,-6.545609E-1,-6.931601E-1,5.5072415E-1,-2.6242957E-1,1.342577E-1,-1.1150864E0,7.9035664E-1,-8.345716E-2,1.0241716E0,-1.180703E0,-3.065989E-1,8.415376E-1,-1.2432337E0,1.3043892E-1,1.1357131E0],"categories":[],"categories_nodes":[],"categories_segments":[],"categories_sizes":[],"default_left":[1,1,1,1,1,1,0,1,1,1,1,1,1,1,1,1,1,0,1,0,0,1,1,1,1,1,1,1,1,0,0,1,0,0,0,1,1,0,0,1,1,1,1,0,0,0,0,0,0,0,0,0,0,0,0,0,0,0,0,0,0,0,0,0,0],"id":8,"left_children":[1,3,5,7,9,11,-1,13,15,17,19,21,23,25,27,29,31,-1,33,-1,-1,35,37,39,41,43,45,47,49,-1,-1,51,-1,-1,-1,53,55,-1,-1,57,59,61,63,-1,-1,-1,-1,-1,-1,-1,-1,-1,-1,-1,-1,-1,-1,-1,-1,-1,-1,-1,-1,-1,-1],"loss_changes":[8.473545E0,8.014302E0,7.2546873E0,5.3551207E0,5.6833963E0,6.403721E0,0E0,6.799388E0,6.3270693E0,2.2362623E0,1.8804001E0,8.307917E0,7.5256968E0,5.119664E0,4.550763E0,5.16325E0,5.588575E0,0E0,2.1358595E0,0E0,0E0,8.863983E0,1.2947483E0,5.9077177E0,3.0065157E0,2.9419956E0,1.2357639E0,3.226276E0,3.4878273E0,0E0,0E0,5.664481E0,0E0,0E0,0E0,6.965523E0,7.086437E0,0E0,0E0,1.112842E0,5.4161367E0,8.446519E0,1.2110248E0,0E0,0E0,0E0,0E0,0E0,0E0,0E0,0E0,0E0,0E0,0E0,0E0,0E0,0E0,0E0,0E0,0E0,0E0,0E0,0E0,0E0,0E0],"parents":[2147483647,0,0,1,1,2,2,3,3,4,4,5,5,7,7,8,8,9,9,10,10,11,11,12,12,13,13,14,14,15,15,16,16,18,18,21,21,22,22,23,23,24,24,25,25,26,26,27,27,28,28,31,31,35,35,36,36,39,39,40,40,41,41,42,42],"right_children":[2,4,6,8,10,12,-1,14,16,18,20,22,24,26,28,30,32,-1,34,-1,-1,36,38,40,42,44,46,48,50,-1,-1,52,-1,-1,-1,54,56,-1,-1,58,60,62,64,-1,-1,-1,-1,-1,-1,-1,-1,-1,-1,-1,-1,-1,-1,-1,-1,-1,-1,-1,-1,-1,-1],"split_conditions":[3.302575E2,5E-1,5E-1,4.153E1,5.4545E1,7.5E0,-3.685051E-1,1.5E0,1.5E0,1.15E2,4.5E0,3.5E0,5.5E0,1.5E0,2.862615E2,2.631579E-2,5.8359134E-1,-4.8306923E-2,5E-1,8.368284E-2,-2.9494187E-1,5E-1,5E-1,8.258501E1,3.85E1,5E-1,5E-1,5E-1,1.5E0,1.2647733E-1,-3.901883E-1,5E-1,2.826711E-1,3.9289603E-1,1.0919767E-3,2.9289216E-1,2.65E1,7.431027E-3,3.3464524E-1,5.5E0,1.5E0,3.218391E-1,5E-1,-2.4401651E-1,-3.7621297E-2,2.0066638E-1,-5.2157123E-2,-1.4606076E-1,1.110645E-1,1.768092E-1,-1.9636829E-1,-2.0794804E-1,1.6521725E-1,-7.872887E-2,4.0277313E-2,-3.3452594E-1,2.37107E-1,-2.5037149E-2,3.0725148E-1,-3.542109E-1,-9.1979675E-2,2.5246128E-1,-3.729701E-1,3.913168E-2,3.4071395E-1],"split_indices":[15,105,30,16,16,8,0,58,19,0,10,51,37,19,15,17,17,0,52,0,0,105,52,16,18,2,14,63,86,0,0,104,0,0,0,17,18,0,0,11,56,17,52,0,0,0,0,0,0,0,0,0,0,0,0,0,0,0,0,0,0,0,0,0,0],"split_type":[0,0,0,0,0,0,0,0,0,0,0,0,0,0,0,0,0,0,0,0,0,0,0,0,0,0,0,0,0,0,0,0,0,0,0,0,0,0,0,0,0,0,0,0,0,0,0,0,0,0,0,0,0,0,0,0,0,0,0,0,0,0,0,0,0],"sum_hessian":[4.7644373E2,1.2502416E2,3.5141956E2,1.1258724E2,1.2436922E1,3.4816217E2,3.2574036E0,7.480718E1,3.7780056E1,9.122196E0,3.314726E0,3.008456E2,4.731656E1,3.6593147E1,3.8214035E1,1.4791206E1,2.298885E1,1.4580891E0,7.6641073E0,1.3854927E0,1.9292334E0,2.9081018E2,1.0035433E1,3.5568024E1,1.1748534E1,3.083032E1,5.7628255E0,1.829284E1,1.9921196E1,1.5050219E0,1.3286184E1,2.0604292E1,2.3845584E0,6.1387486E0,1.5253588E0,2.6532108E2,2.5489109E1,1.276787E0,8.758646E0,3.03259E0,3.2535435E1,5.884227E0,5.8643074E0,2.1703335E1,9.126987E0,3.4675639E0,2.2952619E0,1.2691489E1,5.6013503E0,1.8201565E1,1.7196319E0,1.6796473E1,3.8078196E0,5.5021595E1,2.1029947E2,1.2511605E0,2.423795E1,1.1111767E0,1.9214133E0,1.0168458E1,2.2366978E1,3.3941748E0,2.490052E0,1.9657917E0,3.898516E0],"tree_param":{"num_deleted":"0","num_feature":"107","num_nodes":"65","size_leaf_vector":"0"}},{"base_weights":[-8.165762E-3,-8.7567545E-2,1.2740454E-1,-4.01189E-1,-5.2069463E-3,1.6419618E-1,-1.0964061E0,-5.263807E-2,-7.674652E-1,2.6369898E-2,-1.1805927E0,2.282872E-1,-2.4517797E-1,-1.2582978E0,-2.29004E-1,-5.434214E-1,2.4797209E-1,-8.4433067E-1,4.0377656E-1,-2.9558316E-2,5.5715275E-1,-2.6713896E-1,-1.4465731E0,2.456336E-3,3.8497233E-1,6.4514387E-1,-4.7360897E-1,-8.1328744E-1,7.102791E-1,4.3358994E-1,-8.588234E-1,-1.014233E0,-2.6400617E-1,2.9359935E-2,-7.8492934E-1,6.7300373E-1,-8.256868E-1,1.11591555E-1,-1.4843247E0,5.0964457E-1,-1.3261358E-1,1.0151013E0,-3.9995703E-1,-8.1450045E-1,2.3189501E-1,-8.827791E-1,-1.0075252E-1,-1.60854E-1,7.685888E-1,-1.0864079E0,1.5560094E-1,-7.9888105E-1,8.5372275E-1,1.7682366E-1,-2.7771297E-1,-9.3083704E-1,3.909104E-1,-8.375619E-1,7.938677E-1,1.8657763E-1,-1.2420174E0,-7.840017E-1,5.545762E-1,3.1585684E-1,-7.385589E-1,2.898004E-1,1.2772866E0,-1.0299261E0,-2.5313315E-1,6.694985E-1,-8.5238653E-1],"categories":[],"categories_nodes":[],"categories_segments":[],"categories_sizes":[],"default_left":[1,1,1,1,1,1,1,1,1,1,1,1,1,0,0,1,1,1,0,1,1,0,0,1,1,1,1,1,0,1,0,1,1,1,1,1,0,1,0,1,1,1,0,1,1,0,0,0,0,0,0,0,0,0,0,0,0,0,0,0,0,0,0,0,0,0,0,0,0,0,0],"id":9,"left_children":[1,3,5,7,9,11,13,15,17,19,21,23,25,-1,-1,27,29,31,-1,33,35,-1,-1,37,39,41,43,45,-1,47,-1,49,51,53,55,57,-1,59,-1,61,63,65,-1,67,69,-1,-1,-1,-1,-1,-1,-1,-1,-1,-1,-1,-1,-1,-1,-1,-1,-1,-1,-1,-1,-1,-1,-1,-1,-1,-1],"loss_changes":[4.991734E0,7.5501165E0,7.8931503E0,7.7216024E0,8.663382E0,4.442148E0,4.32209E-1,4.889361E0,3.0032501E0,6.76922E0,1.0972528E0,5.1319804E0,5.005959E0,0E0,0E0,4.8253326E0,4.6193204E0,2.5003395E0,0E0,9.224048E0,4.0376115E0,0E0,0E0,9.970431E0,5.593541E0,2.3942647E0,4.7510295E0,4.4568253E-1,0E0,3.781369E0,0E0,1.9729176E0,5.291334E0,8.777025E0,2.9364471E0,4.4268703E0,0E0,6.040097E0,0E0,4.458193E0,4.9662538E0,4.058199E-1,0E0,1.3127775E0,3.8722286E0,0E0,0E0,0E0,0E0,0E0,0E0,0E0,0E0,0E0,0E0,0E0,0E0,0E0,0E0,0E0,0E0,0E0,0E0,0E0,0E0,0E0,0E0,0E0,0E0,0E0,0E0],"parents":[2147483647,0,0,1,1,2,2,3,3,4,4,5,5,6,6,7,7,8,8,9,9,10,10,11,11,12,12,15,15,16,16,17,17,19,19,20,20,23,23,24,24,25,25,26,26,27,27,29,29,31,31,32,32,33,33,34,34,35,35,37,37,39,39,40,40,41,41,43,43,44,44],"right_children":[2,4,6,8,10,12,14,16,18,20,22,24,26,-1,-1,28,30,32,-1,34,36,-1,-1,38,40,42,44,46,-1,48,-1,50,52,54,56,58,-1,60,-1,62,64,66,-1,68,70,-1,-1,-1,-1,-1,-1,-1,-1,-1,-1,-1,-1,-1,-1,-1,-1,-1,-1,-1,-1,-1,-1,-1,-1,-1,-1],"split_conditions":[5.5E0,5E-1,3.5E0,3.3625E1,5E-1,2.5E0,9.5E0,1.5E0,5E-1,1.5E0,3.4166667E-1,3.927905E2,8.086E1,-3.7748936E-1,-6.87012E-2,5E-1,5E-1,5E-1,1.2113297E-1,5E-1,5E-1,-8.014169E-2,-4.3397197E-1,3.85785E2,2.5E0,4.2727274E-1,5E-1,5.5E0,2.1308374E-1,5E-1,-2.5764704E-1,4.78245E2,5.287267E-1,5E-1,2.5E0,2.526E1,-2.4770606E-1,1.5E0,-4.4529742E-1,2.1240601E-1,3.3908045E-1,1.62E2,-1.19987115E-1,5E-1,7.5E0,-2.6483375E-1,-3.0225756E-2,-4.82562E-2,2.3057665E-1,-3.2592237E-1,4.6680283E-2,-2.3966433E-1,2.5611684E-1,5.3047102E-2,-8.33139E-2,-2.7925113E-1,1.1727312E-1,-2.512686E-1,2.3816033E-1,5.597329E-2,-3.7260523E-1,-2.3520052E-1,1.6637287E-1,9.475706E-2,-2.2156768E-1,8.6940125E-2,3.83186E-1,-3.0897784E-1,-7.5939946E-2,2.0084956E-1,-2.5571597E-1],"split_indices":[11,9,66,16,98,9,11,58,78,2,17,15,16,0,0,51,95,52,0,29,95,0,0,15,27,17,95,21,0,11,0,15,17,86,6,16,0,13,0,17,17,0,0,52,8,0,0,0,0,0,0,0,0,0,0,0,0,0,0,0,0,0,0,0,0,0,0,0,0,0,0],"split_type":[0,0,0,0,0,0,0,0,0,0,0,0,0,0,0,0,0,0,0,0,0,0,0,0,0,0,0,0,0,0,0,0,0,0,0,0,0,0,0,0,0,0,0,0,0,0,0,0,0,0,0,0,0,0,0,0,0,0,0,0,0,0,0,0,0,0,0,0,0,0,0],"sum_hessian":[4.6168445E2,2.913806E2,1.703038E2,5.9799313E1,2.3158131E2,1.6617392E2,4.129884E0,3.12271E1,2.8572212E1,2.2647461E2,5.106696E0,1.4406212E2,2.2111809E1,3.1005476E0,1.0293363E0,1.1554773E1,1.9672327E1,2.70745E1,1.497713E0,2.0574022E2,2.073439E1,1.603651E0,3.503045E0,5.9426365E1,8.463576E1,4.1423893E0,1.796942E1,9.797169E0,1.7576048E0,1.7367857E1,2.3044713E0,2.0364624E1,6.7098746E0,1.9174539E2,1.3994834E1,1.9605228E1,1.1291611E0,5.622424E1,3.2021227E0,6.821902E1,1.641674E1,3.0805898E0,1.0617995E0,1.2011233E1,5.958185E0,8.708886E0,1.0882826E0,6.4472575E0,1.0920599E1,1.9248377E1,1.1162487E0,4.731121E0,1.9787537E0,1.2982466E2,6.192073E1,1.2635307E1,1.3595266E0,1.0131409E0,1.8592089E1,5.4089973E1,2.1342676E0,1.7377579E0,6.6481255E1,9.709393E0,6.707349E0,1.3769015E0,1.7036884E0,8.076999E0,3.9342349E0,4.517512E0,1.4406736E0],"tree_param":{"num_deleted":"0","num_feature":"107","num_nodes":"71","size_leaf_vector":"0"}},{"base_weights":[-1.3053526E-2,-3.5689946E-3,-1.0966538E0,-1.6935234E-1,5.4097608E-2,-9.238756E-2,-6.309144E-1,2.63556E-1,-2.3860501E-2,2.3254879E-2,-5.9621847E-1,-8.1323045E-1,6.184007E-1,-5.151106E-1,3.9804867E-1,-3.0187234E-1,7.7775694E-2,1.7668407E-1,-3.3128533E-1,-7.1683544E-1,6.946274E-1,-1.0063397E0,-4.742041E-2,6.300437E-1,-1.0840639E0,8.0326027E-1,1.549376E-1,7.968084E-2,-6.3889915E-1,-3.247108E-1,1.4722843E-1,-6.401508E-1,2.654495E-1,-5.697596E-1,3.6461452E-1,6.0465172E-2,-8.249952E-1,-4.0063706E-1,-1.2025735E0,7.212944E-1,-7.432041E-1,9.5980674E-2,9.555591E-1,-6.023549E-2,-1.2120157E0,3.6533648E-1,1.1146399E0,4.7994396E-1,-2.857023E-1,3.3466202E-1,-6.471877E-1,-9.877416E-1,1.3155779E-1,3.5696325E-1,-9.1549695E-1,6.357151E-1,5.4862283E-2],"categories":[],"categories_nodes":[],"categories_segments":[],"categories_sizes":[],"default_left":[1,1,0,1,1,1,1,1,1,1,1,1,0,1,1,1,1,1,1,1,0,1,1,1,1,1,1,1,1,1,1,0,0,0,0,0,0,0,0,0,0,0,0,0,0,0,0,0,0,0,0,0,0,0,0,0,0],"id":10,"left_children":[1,3,-1,5,7,9,11,13,15,17,19,21,-1,23,25,27,29,31,33,35,-1,37,39,41,43,45,47,49,51,53,55,-1,-1,-1,-1,-1,-1,-1,-1,-1,-1,-1,-1,-1,-1,-1,-1,-1,-1,-1,-1,-1,-1,-1,-1,-1,-1],"loss_changes":[4.5788918E0,4.244728E0,0E0,4.0120554E0,5.386089E0,5.803939E0,4.19367E0,9.572246E0,6.8336854E0,4.5074954E0,3.3921924E0,2.1073055E0,0E0,9.550282E0,7.4447737E0,8.374527E0,5.003719E0,4.3561754E0,4.3650885E0,1.5205278E0,0E0,8.955784E-1,2.6669788E0,8.03561E-1,1.1662474E0,3.4890614E0,7.192071E0,6.007974E0,9.397156E0,1.0959787E1,6.818199E0,0E0,0E0,0E0,0E0,0E0,0E0,0E0,0E0,0E0,0E0,0E0,0E0,0E0,0E0,0E0,0E0,0E0,0E0,0E0,0E0,0E0,0E0,0E0,0E0,0E0,0E0],"parents":[2147483647,0,0,1,1,3,3,4,4,5,5,6,6,7,7,8,8,9,9,10,10,11,11,13,13,14,14,15,15,16,16,17,17,18,18,19,19,21,21,22,22,23,23,24,24,25,25,26,26,27,27,28,28,29,29,30,30],"right_children":[2,4,-1,6,8,10,12,14,16,18,20,22,-1,24,26,28,30,32,34,36,-1,38,40,42,44,46,48,50,52,54,56,-1,-1,-1,-1,-1,-1,-1,-1,-1,-1,-1,-1,-1,-1,-1,-1,-1,-1,-1,-1,-1,-1,-1,-1,-1,-1],"split_conditions":[5E-1,3.302575E2,-3.2899615E-1,5E-1,4.853E1,1.5E0,1.5E0,2.80625E-1,5E-1,5E-1,6.583333E-1,5.7983196E-1,1.8552022E-1,3.6532E2,2.5E0,1.5E0,1.51E2,2.2869101E2,1.33E2,2.2727273E-2,2.0838822E-1,2.5E0,6.125E-1,2.5E0,2.5E0,3.732795E2,5E-1,5E-1,5E-1,5E-1,1.5E0,-1.9204524E-1,7.963485E-2,-1.7092788E-1,1.0938436E-1,1.8139552E-2,-2.4749857E-1,-1.2019112E-1,-3.6077207E-1,2.1638833E-1,-2.2296125E-1,2.8794203E-2,2.8666773E-1,-1.8070647E-2,-3.6360472E-1,1.0960095E-1,3.3439198E-1,1.439832E-1,-8.571069E-2,1.0039861E-1,-1.9415632E-1,-2.963225E-1,3.946734E-2,1.07088976E-1,-2.7464908E-1,1.9071455E-1,1.6458686E-2],"split_indices":[30,15,0,77,16,27,51,17,27,32,17,17,0,15,4,3,0,15,0,17,0,11,17,8,8,15,32,23,41,3,37,0,0,0,0,0,0,0,0,0,0,0,0,0,0,0,0,0,0,0,0,0,0,0,0,0,0],"split_type":[0,0,0,0,0,0,0,0,0,0,0,0,0,0,0,0,0,0,0,0,0,0,0,0,0,0,0,0,0,0,0,0,0,0,0,0,0,0,0,0,0,0,0,0,0,0,0,0,0,0,0,0,0,0,0,0,0],"sum_hessian":[4.4490918E2,4.4204337E2,2.8658216E0,1.1358003E2,3.2846335E2,9.837612E1,1.520391E1,8.84458E1,2.4001753E2,8.0787186E1,1.7588938E1,1.3572322E1,1.6315881E0,1.260973E1,7.583607E1,6.372806E1,1.7628947E2,5.673602E1,2.4051165E1,1.6492548E1,1.0963897E0,1.0588264E1,2.9840572E0,4.1498303E0,8.459899E0,2.7573366E1,4.8262703E1,3.0247726E1,3.348033E1,2.5402697E1,1.5088678E2,4.952308E0,5.178371E1,1.804774E1,6.003423E0,2.0684438E0,1.4424105E1,3.3352356E0,7.253029E0,1.400307E0,1.58375E0,2.0618591E0,2.0879712E0,1.1032035E0,7.3566957E0,1.2361482E1,1.5211884E1,2.772451E1,2.0538193E1,2.279201E1,7.4557176E0,2.2851679E1,1.0628654E1,1.1977887E1,1.3424809E1,2.3058306E1,1.27828476E2],"tree_param":{"num_deleted":"0","num_feature":"107","num_nodes":"57","size_leaf_vector":"0"}},{"base_weights":[-1.2404828E-2,-4.1375733E-3,-1.0750936E0,-2.3394577E-2,4.653425E-1,2.8359218E-2,-2.2271167E-1,-2.9633033E-1,8.1089777E-1,-2.0908557E-2,3.610757E-1,-5.3247905E-1,-6.5416982E-3,-1.1687418E0,2.6660758E-1,9.9754906E-1,-5.434082E-2,-6.581858E-2,4.4728854E-1,1.1074125E-1,1.1390985E0,9.105869E-2,-7.9613537E-1,1.414286E-1,-6.0905653E-1,7.1050656E-1,-3.7670138E-1,1.12111226E-1,1.0886968E0,-3.678896E-1,8.322125E-3,7.093676E-1,5.226233E-3,-7.380609E-1,3.4129032E-1,-7.219847E-1,7.250775E-1,-9.09288E-1,6.063632E-1,2.264142E-1,-8.726854E-1,3.6693087E-1,-1.0098387E0],"categories":[],"categories_nodes":[],"categories_segments":[],"categories_sizes":[],"default_left":[1,1,0,1,1,1,1,1,1,1,1,1,1,0,1,1,0,1,1,1,0,1,1,1,1,0,0,0,0,0,0,0,0,0,0,0,0,0,0,0,0,0,0],"id":11,"left_children":[1,3,-1,5,7,9,11,13,15,17,19,21,23,-1,25,27,-1,29,31,33,-1,35,37,39,41,-1,-1,-1,-1,-1,-1,-1,-1,-1,-1,-1,-1,-1,-1,-1,-1,-1,-1],"loss_changes":[3.7715764E0,3.8757017E0,0E0,4.252094E0,4.686143E0,5.3782806E0,5.6853766E0,3.2602649E0,1.97401E0,6.0499473E0,8.115023E0,5.81104E0,4.637463E0,0E0,1.5422766E0,6.712637E-1,0E0,5.873821E0,2.9145894E0,6.7332654E0,0E0,6.3333936E0,4.4608946E0,3.7997966E0,4.3813915E0,0E0,0E0,0E0,0E0,0E0,0E0,0E0,0E0,0E0,0E0,0E0,0E0,0E0,0E0,0E0,0E0,0E0,0E0],"parents":[2147483647,0,0,1,1,3,3,4,4,5,5,6,6,7,7,8,8,9,9,10,10,11,11,12,12,14,14,15,15,17,17,18,18,19,19,21,21,22,22,23,23,24,24],"right_children":[2,4,-1,6,8,10,12,14,16,18,20,22,24,-1,26,28,-1,30,32,34,-1,36,38,40,42,-1,-1,-1,-1,-1,-1,-1,-1,-1,-1,-1,-1,-1,-1,-1,-1,-1,-1],"split_conditions":[1.5E0,3.5E0,-3.225281E-1,8.138E1,5E-1,1.5E0,3.55E1,5E-1,2.5E0,5E-1,5E-1,6.5E0,5E-1,-3.5062256E-1,2.5E0,2.6679844E-1,-1.6302247E-2,5E-1,1.5E0,2.5E0,3.4172958E-1,5E-1,1.5E0,5E-1,3.6515152E-1,2.1315198E-1,-1.1301042E-1,3.363337E-2,3.2660908E-1,-1.1036689E-1,2.4966376E-3,2.1281028E-1,1.56787E-3,-2.2141828E-1,1.023871E-1,-2.1659541E-1,2.1752326E-1,-2.727864E-1,1.8190897E-1,6.792426E-2,-2.6180562E-1,1.10079266E-1,-3.0295163E-1],"split_indices":[41,51,0,16,52,38,18,32,38,105,62,20,23,0,38,17,0,58,105,11,0,14,86,78,17,0,0,0,0,0,0,0,0,0,0,0,0,0,0,0,0,0,0],"split_type":[0,0,0,0,0,0,0,0,0,0,0,0,0,0,0,0,0,0,0,0,0,0,0,0,0,0,0,0,0,0,0,0,0,0,0,0,0,0,0,0,0,0,0],"sum_hessian":[4.2880093E2,4.2648697E2,2.313989E0,4.1059543E2,1.58915205E1,3.266394E2,8.395603E1,5.004049E0,1.0887472E1,2.853262E2,4.131319E1,3.390606E1,5.004997E1,1.5405062E0,3.4635425E0,8.829774E0,2.057698E0,2.6113705E2,2.4189156E1,3.2120518E1,9.192673E0,1.0270746E1,2.3635313E1,4.0796192E1,9.2537775E0,1.987596E0,1.4759464E0,1.0322421E0,7.797532E0,5.0681927E1,2.1045512E2,1.4806415E1,9.382741E0,6.390732E0,2.5729788E1,4.4392567E0,5.8314896E0,2.2196205E1,1.4391094E0,3.8358387E1,2.4378035E0,2.7183926E0,6.535385E0],"tree_param":{"num_deleted":"0","num_feature":"107","num_nodes":"43","size_leaf_vector":"0"}},{"base_weights":[-8.913789E-3,-1.1859536E-3,-9.478374E-1,5.71625E-3,-9.775078E-1,-3.604706E-2,2.0327629E-1,-9.423635E-2,1.5161382E-1,9.224362E-2,1.0059915E0,-1.760598E-2,-3.851257E-1,2.2991318E-1,-5.631306E-1,-8.501755E-2,5.141394E-1,1.9978914E-1,1.1207902E0,-1.4289841E-1,1.8718897E-1,6.1367875E-1,-6.6477627E-1,-4.0446854E-1,3.1452867E-1,-9.893709E-1,5.372444E-1,-1.600286E-1,9.114135E-1,-2.853739E-1,7.6164234E-1],"categories":[],"categories_nodes":[],"categories_segments":[],"categories_sizes":[],"default_left":[1,1,0,1,0,1,1,1,1,1,1,1,1,1,1,1,1,0,0,0,0,0,0,0,0,0,0,0,0,0,0],"id":12,"left_children":[1,3,-1,5,-1,7,9,11,13,15,17,19,21,23,25,27,29,-1,-1,-1,-1,-1,-1,-1,-1,-1,-1,-1,-1,-1,-1],"loss_changes":[3.053325E0,2.8259566E0,0E0,3.4444687E0,0E0,3.7787719E0,6.399888E0,5.872678E0,4.7172847E0,4.911971E0,5.8598804E-1,5.410368E0,1.5755775E1,4.131316E0,4.463744E0,3.6360276E0,4.0563893E0,0E0,0E0,0E0,0E0,0E0,0E0,0E0,0E0,0E0,0E0,0E0,0E0,0E0,0E0],"parents":[2147483647,0,0,1,1,3,3,5,5,6,6,7,7,8,8,9,9,10,10,11,11,12,12,13,13,14,14,15,15,16,16],"right_children":[2,4,-1,6,-1,8,10,12,14,16,18,20,22,24,26,28,30,-1,-1,-1,-1,-1,-1,-1,-1,-1,-1,-1,-1,-1,-1],"split_conditions":[5E-1,1.5E0,-2.8435123E-1,5E-1,-2.9325235E-1,5.1564026E-1,2.5E0,5E-1,9.5E0,5E-1,2.5E0,4.203315E2,5E-1,1.15E2,9.5E0,5E-1,1.45E2,5.9936743E-2,3.3623707E-1,-4.2869523E-2,5.615669E-2,1.8410364E-1,-1.994329E-1,-1.21340565E-1,9.435861E-2,-2.9681128E-1,1.6117331E-1,-4.8008583E-2,2.7342406E-1,-8.561217E-2,2.284927E-1],"split_indices":[30,41,0,41,0,17,5,2,10,52,8,15,3,0,8,64,0,0,0,0,0,0,0,0,0,0,0,0,0,0,0],"split_type":[0,0,0,0,0,0,0,0,0,0,0,0,0,0,0,0,0,0,0,0,0,0,0,0,0,0,0,0,0,0,0],"sum_hessian":[4.1996378E2,4.1752856E2,2.435217E0,4.155847E2,1.9438717E0,3.4373764E2,7.184706E1,2.6275977E2,8.097788E1,6.4096115E1,7.750948E0,2.0881195E2,5.3947807E1,7.359407E1,7.383812E0,4.569547E1,1.8400644E1,1.307693E0,6.443255E0,1.2973997E2,7.907197E1,1.1539325E1,4.240848E1,8.216091E0,6.537798E1,5.3949194E0,1.9888927E0,4.3276985E1,2.4184816E0,4.3135366E0,1.4087108E1],"tree_param":{"num_deleted":"0","num_feature":"107","num_nodes":"31","size_leaf_vector":"0"}},{"base_weights":[-5.978163E-3,1.18581176E-1,-6.016558E-2,-2.0453393E-1,2.280985E-1,-3.9294806E-1,-1.2727024E-2,-3.6614966E-1,2.9108018E-1,3.6047393E-1,-1.14563465E-1,-5.111923E-1,3.6342317E-1,1.1201459E0,-3.1457506E-2,-1.779434E-1,-1.1710998E0,-2.6487356E-1,8.0214554E-1,-1.0638368E-1,5.6405014E-1,1.6289787E-1,-4.7572103E-1,-6.861383E-1,-9.153853E-3,9.155533E-1,-7.887608E-1,1.0418876E-1,-1.3600682E-1,-4.866338E-1,1.1115291E-1,-1.0130162E0,5.9127617E-1,9.2613894E-1,2.3891625E-1,8.219008E-2,-7.410159E-1,2.2741227E-1,7.8032416E-1,-5.6314416E-2,6.785133E-1,1.5553257E-1,-9.469032E-1,-1.1233641E0,-3.3235094E-1,-3.6524025E-1,7.132927E-1,1.2689962E0,1.1152825E-1,1.3575472E-1,-1.0132304E0,-5.079476E-1,-1.0104136E-2,-6.4914954E-1,5.2298343E-1,6.943771E-1,-3.542991E-1,-7.980048E-1,2.1805117E-1,-1.120714E0,3.3344626E-1,3.953501E-2,1.077841E0,8.6342937E-1,-2.7181333E-1,-4.265445E-1,4.4938108E-1,1.0055555E0,9.179477E-2,7.229813E-1,-8.301279E-1,3.8179004E-1,-7.07879E-1,-6.186227E-1,4.6895993E-1,1.089258E0,-3.9910756E-2,3.1692153E-1,-4.5465283E-2,-1.0144124E0,-1.5327771E-1,2.8798593E-2,-9.724576E-1],"categories":[],"categories_nodes":[],"categories_segments":[],"categories_sizes":[],"default_left":[1,1,1,1,1,1,1,1,1,1,1,1,1,0,1,1,0,1,1,1,1,1,1,1,1,1,0,1,1,1,1,0,0,0,0,1,1,1,1,1,1,1,0,0,1,1,1,0,0,1,0,1,1,0,0,0,0,0,0,0,0,0,0,0,0,0,0,0,0,0,0,0,0,0,0,0,0,0,0,0,0,0,0],"id":13,"left_children":[1,3,5,7,9,11,13,15,17,19,21,23,25,-1,27,29,-1,31,33,35,37,39,41,43,45,47,-1,49,51,53,55,-1,-1,-1,-1,57,59,61,63,65,67,69,-1,-1,71,73,75,-1,-1,77,-1,79,81,-1,-1,-1,-1,-1,-1,-1,-1,-1,-1,-1,-1,-1,-1,-1,-1,-1,-1,-1,-1,-1,-1,-1,-1,-1,-1,-1,-1,-1,-1],"loss_changes":[2.791902E0,4.484597E0,4.544305E0,2.6917298E0,4.311414E0,3.398398E0,5.4090633E0,3.5458329E0,2.6257248E0,6.5367327E0,2.7822595E0,2.758583E0,4.183343E0,0E0,3.5611038E0,1.9517177E0,0E0,3.6862078E0,1.0512352E-1,2.6379774E0,3.2890348E0,1.8477538E0,3.7112029E0,3.235652E0,2.614013E0,1.0352466E0,0E0,3.9973826E0,6.629354E0,2.0573082E0,3.4478016E0,0E0,0E0,0E0,0E0,2.2668812E0,2.4268825E0,3.158537E0,2.733448E0,2.4677513E0,8.3881354E-1,3.9449186E0,0E0,0E0,4.1096196E0,1.725201E0,9.9469924E-1,0E0,0E0,3.5373354E0,0E0,6.276842E0,4.0289316E0,0E0,0E0,0E0,0E0,0E0,0E0,0E0,0E0,0E0,0E0,0E0,0E0,0E0,0E0,0E0,0E0,0E0,0E0,0E0,0E0,0E0,0E0,0E0,0E0,0E0,0E0,0E0,0E0,0E0,0E0],"parents":[2147483647,0,0,1,1,2,2,3,3,4,4,5,5,6,6,7,7,8,8,9,9,10,10,11,11,12,12,14,14,15,15,17,17,18,18,19,19,20,20,21,21,22,22,23,23,24,24,25,25,27,27,28,28,29,29,30,30,35,35,36,36,37,37,38,38,39,39,40,40,41,41,44,44,45,45,46,46,49,49,51,51,52,52],"right_children":[2,4,6,8,10,12,14,16,18,20,22,24,26,-1,28,30,-1,32,34,36,38,40,42,44,46,48,-1,50,52,54,56,-1,-1,-1,-1,58,60,62,64,66,68,70,-1,-1,72,74,76,-1,-1,78,-1,80,82,-1,-1,-1,-1,-1,-1,-1,-1,-1,-1,-1,-1,-1,-1,-1,-1,-1,-1,-1,-1,-1,-1,-1,-1,-1,-1,-1,-1,-1,-1],"split_conditions":[4.1595E1,5E-1,3.33405E2,7.5E0,5E-1,8.5E0,3.3626703E2,5E-1,2.5E0,3.114224E-1,5E-1,1.5E0,1.5E0,3.3604378E-1,1.5E0,5E-1,-3.5132995E-1,6.485294E-1,5E-1,3.5E0,3.0323297E2,5.5E0,5E-1,1.5E0,5E-1,5.4545E1,-2.3662825E-1,1.75E1,5E-1,6.5E0,3.1811E2,-3.039049E-1,1.7738286E-1,2.778417E-1,7.1674876E-2,1.5E0,3.7935E1,2.5E0,1.5E0,5E-1,4.5E0,5E-1,-2.8407097E-1,-3.3700925E-1,5.1765E1,5E-1,3.137255E-1,3.806989E-1,3.3458475E-2,6.5E0,-3.0396914E-1,5E-1,2.5E0,-1.9474487E-1,1.5689504E-1,2.0831315E-1,-1.0628974E-1,-2.3940144E-1,6.541535E-2,-3.3621418E-1,1.0003389E-1,1.1860503E-2,3.2335234E-1,2.5902882E-1,-8.1544004E-2,-1.2796335E-1,1.3481434E-1,3.0166668E-1,2.7538432E-2,2.1689439E-1,-2.4903838E-1,1.14537016E-1,-2.123637E-1,-1.8558683E-1,1.4068799E-1,3.267774E-1,-1.1973227E-2,9.5076464E-2,-1.3639585E-2,-3.0432373E-1,-4.5983315E-2,8.639579E-3,-2.917373E-1],"split_indices":[16,58,15,11,32,11,15,27,7,17,12,51,63,0,4,66,0,17,48,11,15,21,63,9,14,16,0,11,91,11,15,0,0,0,0,5,16,7,38,9,58,11,0,0,16,62,17,0,0,20,0,51,66,0,0,0,0,0,0,0,0,0,0,0,0,0,0,0,0,0,0,0,0,0,0,0,0,0,0,0,0,0,0],"split_type":[0,0,0,0,0,0,0,0,0,0,0,0,0,0,0,0,0,0,0,0,0,0,0,0,0,0,0,0,0,0,0,0,0,0,0,0,0,0,0,0,0,0,0,0,0,0,0,0,0,0,0,0,0,0,0,0,0,0,0,0,0,0,0,0,0,0,0,0,0,0,0,0,0,0,0,0,0,0,0,0,0,0,0],"sum_hessian":[4.1158572E2,1.2441274E2,2.8717297E2,3.1274433E1,9.313831E1,3.4920643E1,2.5225235E2,2.3780897E1,7.493536E0,6.71466E1,2.5991713E1,3.0479849E1,4.4407935E0,3.146389E0,2.4910596E2,2.0264008E1,3.5168884E0,3.8198738E0,3.6736622E0,2.0533934E1,4.6612663E1,1.50095215E1,1.0982192E1,2.233132E1,8.148528E0,3.1409948E0,1.2997986E0,1.0842921E2,1.4067674E2,9.469451E0,1.0794557E1,1.940742E0,1.8791318E0,2.4827533E0,1.1909088E0,1.6501263E1,4.032671E0,1.9035208E1,2.7577456E1,1.1156958E1,3.8525636E0,4.98012E0,6.002072E0,9.014973E0,1.3316348E1,5.789422E0,2.3591058E0,1.7801507E0,1.3608443E0,1.0630472E2,2.12449E0,3.4809204E1,1.05867546E2,8.464047E0,1.005404E0,4.5728345E0,6.221722E0,1.5547724E0,1.494649E1,2.9478874E0,1.0847836E0,1.6447994E1,2.5872133E0,2.572488E1,1.852575E0,6.5315757E0,4.625382E0,2.0153344E0,1.8372293E0,3.3296995E0,1.6504208E0,4.5834107E0,8.732938E0,4.6388326E0,1.150589E0,1.2760115E0,1.0830945E0,5.2785694E1,5.351902E1,1.3570506E1,2.1238697E1,1.0268656E2,3.1809857E0],"tree_param":{"num_deleted":"0","num_feature":"107","num_nodes":"83","size_leaf_vector":"0"}},{"base_weights":[-6.53112E-3,-8.146115E-4,-1.131702E0,6.269315E-3,-8.5946596E-1,2.5311971E-2,-2.9798263E-1,-8.2041726E-2,9.063737E-2,-5.9895784E-1,2.2631562E-1,-1.334835E-1,8.0442214E-1,-1.3864551E-1,1.8334427E-1,-7.751016E-1,2.8572187E-1,-1.6766958E-1,1.1748749E0,9.0318814E-2,-2.4598013E-1,1.2462021E0,-1.7113571E-1,1.2699836E-1,-3.5252485E-1,2.6303227E-3,4.029226E-1,-4.4984072E-3,-1.0211138E0,-6.1594598E-2,4.9603882E-1,-5.1458657E-1,6.1038804E-1],"categories":[],"categories_nodes":[],"categories_segments":[],"categories_sizes":[],"default_left":[1,1,0,1,0,1,1,1,1,1,1,1,1,1,1,1,1,1,0,0,0,0,0,0,0,0,0,0,0,0,0,0,0],"id":14,"left_children":[1,3,-1,5,-1,7,9,11,13,15,17,19,21,23,25,27,29,31,-1,-1,-1,-1,-1,-1,-1,-1,-1,-1,-1,-1,-1,-1,-1],"loss_changes":[2.5649357E0,2.4256756E0,0E0,2.2997808E0,0E0,2.6250563E0,3.825276E0,6.5704374E0,4.968035E0,2.5790243E0,3.655075E0,3.416429E0,3.6248555E0,3.880869E0,6.586305E0,2.4383497E0,2.6742432E-1,2.314982E0,0E0,0E0,0E0,0E0,0E0,0E0,0E0,0E0,0E0,0E0,0E0,0E0,0E0,0E0,0E0],"parents":[2147483647,0,0,1,1,3,3,5,5,6,6,7,7,8,8,9,9,10,10,11,11,12,12,13,13,14,14,15,15,16,16,17,17],"right_children":[2,4,-1,6,-1,8,10,12,14,16,18,20,22,24,26,28,30,32,-1,-1,-1,-1,-1,-1,-1,-1,-1,-1,-1,-1,-1,-1,-1],"split_conditions":[5E-1,5.5E0,-3.395106E-1,1.5E0,-2.578398E-1,5E-1,1.69E2,5.0078052E2,5E-1,5E-1,5E-1,5E-1,5E-1,5.054E1,5E-1,3.0295752E2,5.102E1,3.4578806E-1,3.5246247E-1,2.7095646E-2,-7.3794045E-2,3.7386066E-1,-5.1340714E-2,3.8099512E-2,-1.0575746E-1,7.8909687E-4,1.2087678E-1,-1.3495223E-3,-3.0633414E-1,-1.847838E-2,1.4881165E-1,-1.5437597E-1,1.8311642E-1],"split_indices":[45,19,0,86,0,38,0,15,6,105,69,63,42,16,91,15,16,17,0,0,0,0,0,0,0,0,0,0,0,0,0,0,0],"split_type":[0,0,0,0,0,0,0,0,0,0,0,0,0,0,0,0,0,0,0,0,0,0,0,0,0,0,0,0,0,0,0,0,0],"sum_hessian":[3.979177E2,3.9690192E2,1.0157638E0,3.9463882E2,2.2630959E0,3.7225665E2,2.238216E1,1.4072983E2,2.3152684E2,1.4128975E1,8.253184E0,1.3381398E2,6.9158463E0,6.651825E1,1.6500859E2,1.1886233E1,2.2427416E0,6.4128413E0,1.8403435E0,4.4828568E1,8.898541E1,4.5692453E0,2.3466012E0,2.9849983E1,3.666827E1,9.1069756E1,7.3938835E1,3.1227825E0,8.763451E0,1.1125748E0,1.1301668E0,4.6694665E0,1.7433748E0],"tree_param":{"num_deleted":"0","num_feature":"107","num_nodes":"33","size_leaf_vector":"0"}},{"base_weights":[-4.3919547E-3,8.158681E-3,-4.63575E-1,-5.203877E-1,1.9223807E-2,-6.8885624E-1,3.3676523E-1,6.158217E-2,-8.5740393E-1,5.122121E-3,4.0931576E-1,-9.613978E-1,4.5825815E-1,-6.2561923E-1,6.672849E-1,3.4763623E-2,-2.5565028E-1,-1.8288572E-1,9.9372226E-1,-1.1146464E0,-2.572349E-1,-1.2343332E-2,2.436222E-1,5.118373E-1,-3.622793E-1,-5.469096E-1,8.696734E-1,2.0709085E-1,1.1639165E0,-3.746492E-2,4.8657507E-1,4.0484387E-1,-2.4123399E-1,-4.8738E-2,8.903089E-1,-5.937073E-1,3.2913487E-2,1.6079333E-1,-8.847571E-1],"categories":[],"categories_nodes":[],"categories_segments":[],"categories_sizes":[],"default_left":[1,1,1,1,1,1,0,1,0,1,1,1,0,0,0,1,1,1,1,0,0,1,1,1,1,1,0,0,0,0,0,0,0,0,0,0,0,0,0],"id":15,"left_children":[1,3,5,7,9,11,-1,13,-1,15,17,19,-1,-1,-1,21,23,25,27,-1,-1,29,31,33,35,37,-1,-1,-1,-1,-1,-1,-1,-1,-1,-1,-1,-1,-1],"loss_changes":[2.27067E0,2.255023E0,2.1219926E0,1.6036451E0,2.0715418E0,3.1005812E0,0E0,2.0127995E0,0E0,2.8288376E0,4.72892E0,4.8999405E-1,0E0,0E0,0E0,3.234675E0,3.2424822E0,3.2996788E0,6.651168E-1,0E0,0E0,3.3893661E0,4.8267307E0,1.0981072E0,3.072833E0,1.5984476E0,0E0,0E0,0E0,0E0,0E0,0E0,0E0,0E0,0E0,0E0,0E0,0E0,0E0],"parents":[2147483647,0,0,1,1,2,2,3,3,4,4,5,5,7,7,9,9,10,10,11,11,15,15,16,16,17,17,18,18,21,21,22,22,23,23,24,24,25,25],"right_children":[2,4,6,8,10,12,-1,14,-1,16,18,20,-1,-1,-1,22,24,26,28,-1,-1,30,32,34,36,38,-1,-1,-1,-1,-1,-1,-1,-1,-1,-1,-1,-1,-1],"split_conditions":[1.15E1,1.85E1,5E-1,1.55E1,5E-1,1.15E1,1.01029575E-1,2.918E1,-2.572212E-1,2.5E0,3.25E1,5.5E0,1.3747746E-1,-1.8768577E-1,2.0018548E-1,1.5E0,5.511E1,1.5E0,1.5E0,-3.3439395E-1,-7.717048E-2,5E-1,1.5E0,5.5E0,5E-1,3.5E0,2.6090202E-1,6.212726E-2,3.4917495E-1,-1.12394765E-2,1.4597252E-1,1.21453166E-1,-7.23702E-2,-1.46214E-2,2.6709267E-1,-1.7811221E-1,9.874047E-3,4.8238E-2,-2.6542714E-1],"split_indices":[10,18,2,18,25,8,0,16,0,27,18,37,0,0,0,38,16,3,5,0,0,64,14,11,92,11,0,0,0,0,0,0,0,0,0,0,0,0,0],"split_type":[0,0,0,0,0,0,0,0,0,0,0,0,0,0,0,0,0,0,0,0,0,0,0,0,0,0,0,0,0,0,0,0,0,0,0,0,0,0,0],"sum_hessian":[3.9234933E2,3.8286682E2,9.482488E0,6.9070935E0,3.7595975E2,7.5083265E0,1.9741616E0,2.832727E0,4.0743666E0,3.6382086E2,1.21388645E1,6.1977167E0,1.3106096E0,1.311678E0,1.5210489E0,3.274652E2,3.635566E1,6.3704753E0,5.768389E0,4.6112266E0,1.5864902E0,2.6796747E2,5.9497753E1,3.9712775E0,3.238438E1,5.090384E0,1.280091E0,1.4203546E0,4.348035E0,2.5600214E2,1.1965337E1,4.4774582E1,1.4723171E1,1.9517124E0,2.0195653E0,2.010715E1,1.2277231E1,1.8141907E0,3.2761934E0],"tree_param":{"num_deleted":"0","num_feature":"107","num_nodes":"39","size_leaf_vector":"0"}},{"base_weights":[-2.694452E-3,2.1073513E-2,-2.8046548E-1,-1.3310568E-1,6.092058E-2,-4.2244816E-1,2.300183E-1,-2.0291646E-1,3.9375857E-1,-1.1019639E-2,2.0557548E-1,-2.8332525E-1,-1.0242528E0,-2.1723662E-1,1.1033212E0,-1.0263298E-1,-6.041105E-1,-4.2791298E-1,8.5679895E-1,-7.8777194E-2,5.172655E-1,2.6926965E-1,-4.856106E-1,-4.1175562E-1,6.2486875E-1,5.373098E-1,-6.334611E-1,-1.9553742E-1,8.115201E-1,-1.2363378E-1,-1.2102557E0,-6.0174998E-2,-7.110485E-1,1.042878E0,1.05946235E-1,-1.2517749E-1,7.422389E-1,6.309462E-1,-6.651453E-1,2.1727948E-1,1.0377543E0,4.6824184E-1,-8.182517E-1,-6.6774935E-1,-1.1129738E-2,-9.8201096E-1,1.6328382E-1,-1.0405477E-1,-9.986472E-1,1.1030939E0,-1.1615691E-1,-8.279318E-1,3.368032E-1,3.1374773E-1,1.2211378E0,-2.9885876E-1,1.2672018E-2,-6.297541E-2,8.8697726E-1,1.9789909E-1,9.6000624E-1,2.65453E-1,-6.78512E-1,-1.210178E0,-2.1272658E-1,-8.523774E-1,3.4280512E-1,4.4057545E-1,-5.4992235E-1],"categories":[],"categories_nodes":[],"categories_segments":[],"categories_sizes":[],"default_left":[1,1,1,1,1,1,1,1,1,1,1,1,0,1,0,1,1,1,1,1,1,1,1,1,0,0,1,1,1,1,0,0,0,1,0,1,1,1,0,1,0,0,1,1,1,0,0,0,0,0,0,0,0,0,0,0,0,0,0,0,0,0,0,0,0,0,0,0,0],"id":16,"left_children":[1,3,5,7,9,11,13,15,17,19,21,23,-1,25,-1,27,29,31,33,35,37,39,41,43,-1,-1,45,47,49,51,-1,-1,-1,53,-1,55,57,59,-1,61,-1,-1,63,65,67,-1,-1,-1,-1,-1,-1,-1,-1,-1,-1,-1,-1,-1,-1,-1,-1,-1,-1,-1,-1,-1,-1,-1,-1],"loss_changes":[2.5760894E0,2.2170033E0,2.3263152E0,2.807324E0,2.9825964E0,1.7539649E0,3.106649E0,2.5989156E0,3.7969303E0,6.921248E0,4.320717E0,2.7315972E0,0E0,2.127249E0,0E0,4.7547116E0,3.6426616E0,3.6499745E-1,7.417221E-1,6.6161594E0,3.374608E0,3.2818928E0,3.0442848E0,1.9604304E0,0E0,0E0,1.3061082E0,3.564447E0,1.5310278E0,2.9955006E0,0E0,0E0,0E0,2.3750353E-1,0E0,3.9046493E0,1.1402063E0,2.7409735E0,0E0,3.7829204E0,0E0,0E0,1.3047204E0,2.4733195E0,2.3103998E0,0E0,0E0,0E0,0E0,0E0,0E0,0E0,0E0,0E0,0E0,0E0,0E0,0E0,0E0,0E0,0E0,0E0,0E0,0E0,0E0,0E0,0E0,0E0,0E0],"parents":[2147483647,0,0,1,1,2,2,3,3,4,4,5,5,6,6,7,7,8,8,9,9,10,10,11,11,13,13,15,15,16,16,17,17,18,18,19,19,20,20,21,21,22,22,23,23,26,26,27,27,28,28,29,29,33,33,35,35,36,36,37,37,39,39,42,42,43,43,44,44],"right_children":[2,4,6,8,10,12,14,16,18,20,22,24,-1,26,-1,28,30,32,34,36,38,40,42,44,-1,-1,46,48,50,52,-1,-1,-1,54,-1,56,58,60,-1,62,-1,-1,64,66,68,-1,-1,-1,-1,-1,-1,-1,-1,-1,-1,-1,-1,-1,-1,-1,-1,-1,-1,-1,-1,-1,-1,-1,-1],"split_conditions":[2.5E0,2.9057017E-1,2.5E0,2.5E0,5E-1,1.5E0,1.5E0,8.0235E1,1.5E0,5E-1,8.5E0,1.5E0,-3.0727583E-1,8.926E1,3.3099636E-1,7.5155E1,5E-1,5E-1,5E-1,2.5E0,5E-1,8.461E1,3.2738096E-1,1.5E0,1.8746063E-1,1.6119295E-1,2.5E0,5E-1,1.49E2,5E-1,-3.6307675E-1,-1.80525E-2,-2.1331455E-1,3.422785E2,3.178387E-2,1.53E2,1.41E2,5E-1,-1.995436E-1,1.5E0,3.113263E-1,1.4047256E-1,5.385775E2,5E-1,4.2857143E-1,-2.946033E-1,4.898515E-2,-3.1216433E-2,-2.9959416E-1,3.3092818E-1,-3.4847077E-2,-2.4837956E-1,1.0104097E-1,9.4124325E-2,3.6634135E-1,-8.9657634E-2,3.8016057E-3,-1.8892623E-2,2.660932E-1,5.9369728E-2,2.880019E-1,7.96359E-2,-2.035536E-1,-3.630534E-1,-6.381798E-2,-2.5571322E-1,1.0284154E-1,1.3217264E-1,-1.6497672E-1],"split_indices":[9,17,5,19,66,63,63,16,6,105,20,52,0,16,0,16,95,27,66,51,39,16,17,33,0,0,51,62,0,13,0,0,0,15,0,0,0,32,0,52,0,0,15,69,17,0,0,0,0,0,0,0,0,0,0,0,0,0,0,0,0,0,0,0,0,0,0,0,0],"split_type":[0,0,0,0,0,0,0,0,0,0,0,0,0,0,0,0,0,0,0,0,0,0,0,0,0,0,0,0,0,0,0,0,0,0,0,0,0,0,0,0,0,0,0,0,0,0,0,0,0,0,0,0,0,0,0,0,0,0,0,0,0,0,0,0,0,0,0,0,0],"sum_hessian":[3.883E2,3.5854462E2,2.9755365E1,7.315346E1,2.8539114E2,2.3415253E1,6.3401127E0,6.513745E1,8.016008E0,1.9121791E2,9.4173256E1,2.0213228E1,3.2020247E0,4.689613E0,1.6504998E0,5.3116207E1,1.2021245E1,2.9165006E0,5.0995083E0,1.7023459E2,2.098331E1,8.678616E1,7.3870916E0,1.8187853E1,2.0253754E0,1.5637956E0,3.1258173E0,4.8929638E1,4.186569E0,7.377358E0,4.6438866E0,1.7961636E0,1.120337E0,3.775039E0,1.3244693E0,1.6193051E2,8.304082E0,1.9568338E1,1.4149721E0,8.2488335E1,4.2978306E0,1.804634E0,5.582458E0,1.0690209E1,7.497643E0,2.0127683E0,1.113049E0,4.494006E1,3.9895802E0,3.0415134E0,1.1450561E0,2.6008608E0,4.7764974E0,1.2838411E0,2.4911978E0,7.113593E1,9.079458E1,1.3513122E0,6.9527698E0,9.1406E0,1.0427738E1,7.894645E1,3.5418842E0,2.782758E0,2.7996998E0,9.1711645E0,1.5190448E0,4.1775885E0,3.3200548E0],"tree_param":{"num_deleted":"0","num_feature":"107","num_nodes":"69","size_leaf_vector":"0"}},{"base_weights":[-2.051287E-3,1.704286E-1,-3.329581E-2,2.4863754E-1,-5.8397275E-1,-2.3705563E-1,1.2801055E-2,5.855935E-2,6.417423E-1,1.647404E-1,-9.844096E-1,-7.1027166E-1,-1.3798222E-1,1.0986647E-3,9.717725E-1,-7.3274267E-1,1.6083933E-1,-7.1909584E-2,8.9929515E-1,-9.0575975E-1,5.139529E-1,3.4153202E-1,-2.8666443E-1,1.4409874E-1,-6.912639E-2,-8.7014353E-1,-1.3398819E-1,4.474957E-1,-4.0478665E-2,-7.838353E-1,4.7457913E-1,-1.687576E-1,1.0287946E0,2.3309861E-1,-1.0787901E0,-1.6454802E-1,6.249117E-1,-4.1204596E-1,1.3181554E-1,3.1671932E-1,-1.0522757E-1,-8.6931133E-1,-3.162203E-2,5.4609394E-1,-2.287373E-1,-2.6386428E-1,5.975891E-1,9.7204584E-1,-1.4854975E-1,5.5528265E-1,1.1812508E0,-1.2739561E0,-1.9546721E-2,-1.022617E0,8.409542E-1,1.711587E-1,1.1470677E0,-4.8096344E-1,2.7451342E-1,-8.465652E-1,4.6796378E-1,-2.4634235E-1,4.4324914E-1,-3.1648973E-1,3.3690032E-1,-1.0576918E0,6.911078E-2,-1.4118732E-2,-1.2188743E0],"categories":[],"categories_nodes":[],"categories_segments":[],"categories_sizes":[],"default_left":[1,1,1,1,1,1,1,1,1,0,0,1,1,1,0,1,1,1,1,1,0,1,1,1,1,0,0,1,1,0,1,0,1,0,1,1,1,1,1,1,1,1,1,0,0,0,0,0,0,0,0,0,0,0,0,0,0,0,0,0,0,0,0,0,0,0,0,0,0],"id":17,"left_children":[1,3,5,7,9,11,13,15,17,-1,-1,19,21,23,-1,25,27,29,31,33,-1,35,37,39,41,-1,-1,43,45,-1,47,-1,49,-1,51,53,55,57,59,61,63,65,67,-1,-1,-1,-1,-1,-1,-1,-1,-1,-1,-1,-1,-1,-1,-1,-1,-1,-1,-1,-1,-1,-1,-1,-1,-1,-1],"loss_changes":[2.0518067E0,3.590507E0,3.0301948E0,3.9682262E0,1.8962018E0,2.6920743E0,2.959113E0,3.1316452E0,3.2578716E0,0E0,0E0,2.873417E0,3.6947503E0,2.6369839E0,0E0,2.4886942E-1,1.9684074E0,2.5246875E0,1.9495306E0,2.0324607E0,0E0,1.8807011E0,2.1034179E0,3.755367E0,5.2578783E0,0E0,0E0,1.0600662E0,3.1181064E0,0E0,1.3078103E0,0E0,1.809206E-1,0E0,1.6338034E0,5.382273E0,1.7359288E0,1.5653348E0,3.606341E0,3.7676134E0,3.4813807E0,1.4603386E0,3.5003726E0,0E0,0E0,0E0,0E0,0E0,0E0,0E0,0E0,0E0,0E0,0E0,0E0,0E0,0E0,0E0,0E0,0E0,0E0,0E0,0E0,0E0,0E0,0E0,0E0,0E0,0E0],"parents":[2147483647,0,0,1,1,2,2,3,3,4,4,5,5,6,6,7,7,8,8,11,11,12,12,13,13,15,15,16,16,17,17,18,18,19,19,21,21,22,22,23,23,24,24,27,27,28,28,30,30,32,32,34,34,35,35,36,36,37,37,38,38,39,39,40,40,41,41,42,42],"right_children":[2,4,6,8,10,12,14,16,18,-1,-1,20,22,24,-1,26,28,30,32,34,-1,36,38,40,42,-1,-1,44,46,-1,48,-1,50,-1,52,54,56,58,60,62,64,66,68,-1,-1,-1,-1,-1,-1,-1,-1,-1,-1,-1,-1,-1,-1,-1,-1,-1,-1,-1,-1,-1,-1,-1,-1,-1,-1],"split_conditions":[3.039E1,2.5E0,3.5E0,4.4602275E-1,4.6052632E-1,4.035E1,1.5E0,1.5E0,5E-1,4.9422123E-2,-2.953229E-1,2.5E0,4.959E1,1.5E0,2.9153177E-1,3.5E0,1.592E1,1.25E2,1.3870001E1,2.11169E2,1.5418588E-1,1.5E0,1.5E0,3.5E0,5E-1,-2.6104307E-1,-4.0196456E-2,5E-1,5.5E0,-2.3515059E-1,1.3E2,-5.0627284E-2,2.5E0,6.9929585E-2,5E-1,3.511895E2,4.4885002E1,2.5E0,5.5E0,3.5E0,3.65E1,1.5E0,1.5E0,1.638282E-1,-6.862119E-2,-7.915929E-2,1.7927673E-1,2.9161376E-1,-4.4564925E-2,1.665848E-1,3.5437524E-1,-3.8218683E-1,-5.8640167E-3,-3.067851E-1,2.5228626E-1,5.1347613E-2,3.4412032E-1,-1.4428903E-1,8.235403E-2,-2.5396958E-1,1.4038914E-1,-7.3902704E-2,1.3297474E-1,-9.494692E-2,1.010701E-1,-3.1730756E-1,2.0733235E-2,-4.2356197E-3,-3.656623E-1],"split_indices":[16,14,21,17,17,16,48,5,58,0,0,105,16,4,0,10,16,0,16,15,0,9,51,37,13,0,0,47,21,0,0,0,10,0,41,15,16,77,20,11,18,2,95,0,0,0,0,0,0,0,0,0,0,0,0,0,0,0,0,0,0,0,0,0,0,0,0,0,0],"split_type":[0,0,0,0,0,0,0,0,0,0,0,0,0,0,0,0,0,0,0,0,0,0,0,0,0,0,0,0,0,0,0,0,0,0,0,0,0,0,0,0,0,0,0,0,0,0,0,0,0,0,0,0,0,0,0,0,0,0,0,0,0,0,0,0,0,0,0,0,0],"sum_hessian":[3.7868317E2,5.7394157E1,3.21289E2,5.261044E1,4.783717E0,5.851137E1,2.6277762E2,3.6237476E1,1.6372963E1,1.8720561E0,2.9116611E0,9.061364E0,4.945001E1,2.6059866E2,2.1789567E0,3.44222E0,3.2795258E1,4.5330777E0,1.1839886E1,8.0379715E0,1.0233932E0,1.1396892E1,3.8053116E1,8.548093E1,1.7511774E2,2.4310844E0,1.0111357E0,1.30254755E1,1.9769781E1,1.7799615E0,2.7531161E0,1.2475458E0,1.05923395E1,1.0143732E0,7.023598E0,4.2414823E0,7.1554093E0,2.9292202E1,8.760914E0,5.0350533E1,3.513039E1,6.8472543E0,1.682705E2,1.1535925E1,1.4895504E0,1.5077616E1,4.6921654E0,1.2195561E0,1.53356E0,3.710422E0,6.8819175E0,5.7596726E0,1.2639257E0,2.279336E0,1.9621462E0,4.538901E0,2.6165085E0,2.6892197E1,2.4000058E0,1.8520315E0,6.9088826E0,9.064833E0,4.1285698E1,2.3963884E1,1.1166506E1,5.5966725E0,1.2505819E0,1.6682297E2,1.4475276E0],"tree_param":{"num_deleted":"0","num_feature":"107","num_nodes":"69","size_leaf_vector":"0"}},{"base_weights":[-2.5918882E-3,4.0456364E-3,-8.327247E-1,2.91219E-2,-2.1439055E-1,1.8296674E-2,6.7305297E-1,-2.111465E-2,-6.0905683E-1,3.8766224E-2,-2.9940435E-1,-3.0771274E-2,8.4690475E-1,-6.940711E-1,1.6694535E-1,-8.0999273E-1,7.0348144E-1,-8.2981447E-4,2.2887503E-1,-4.8497945E-1,3.4787765E-1,-9.93196E-1,3.4113552E-2,2.8705332E-1,-7.157939E-1,-1.0422426E0,7.34759E-1,-4.5618724E-2,2.2708976E-1,-3.827536E-2,5.824059E-1,7.029463E-2,-6.242187E-1,-2.606264E-1,7.4697334E-1,4.480283E-1,-2.680827E-1,-1.221969E0,-2.986726E-1],"categories":[],"categories_nodes":[],"categories_segments":[],"categories_sizes":[],"default_left":[1,1,0,1,1,1,1,1,1,1,1,0,0,1,1,1,0,1,1,1,1,0,0,1,0,1,0,0,0,0,0,0,0,0,0,0,0,0,0],"id":18,"left_children":[1,3,-1,5,7,9,11,13,15,17,19,-1,-1,21,23,25,-1,27,29,31,33,-1,-1,35,-1,37,-1,-1,-1,-1,-1,-1,-1,-1,-1,-1,-1,-1,-1],"loss_changes":[2.0486417E0,2.028789E0,0E0,2.3026457E0,2.8966787E0,2.1422882E0,6.9448423E-1,3.4873478E0,3.8673038E0,2.3238668E0,2.5646782E0,0E0,0E0,1.3435204E0,2.498517E0,4.822695E0,0E0,2.6285217E0,5.048218E0,1.2747319E0,1.4154317E0,0E0,0E0,1.8851268E0,0E0,1.003953E0,0E0,0E0,0E0,0E0,0E0,0E0,0E0,0E0,0E0,0E0,0E0,0E0,0E0],"parents":[2147483647,0,0,1,1,3,3,4,4,5,5,6,6,7,7,8,8,9,9,10,10,13,13,14,14,15,15,17,17,18,18,19,19,20,20,23,23,25,25],"right_children":[2,4,-1,6,8,10,12,14,16,18,20,-1,-1,22,24,26,-1,28,30,32,34,-1,-1,36,-1,38,-1,-1,-1,-1,-1,-1,-1,-1,-1,-1,-1,-1,-1],"split_conditions":[5E-1,7.5E0,-2.4981742E-1,3.5E0,5E-1,1.5E0,5E-1,5E-1,5E-1,5E-1,1.87E2,-9.231383E-3,2.5407144E-1,2.5E0,2.5E0,3.5E0,2.1104445E-1,4.5E0,4.0679352E2,3.0295752E2,5E-1,-2.9795882E-1,1.0234066E-2,5E-1,-2.1473818E-1,5.3686096E2,2.204277E-1,-1.3685618E-2,6.812693E-2,-1.14826085E-2,1.7472178E-1,2.1088392E-2,-1.8726562E-1,-7.818793E-2,2.24092E-1,1.3440849E-1,-8.0424815E-2,-3.665907E-1,-8.960178E-2],"split_indices":[30,8,0,51,95,86,52,13,80,41,0,0,0,19,38,6,0,58,15,15,32,0,0,105,0,15,0,0,0,0,0,0,0,0,0,0,0,0,0],"split_type":[0,0,0,0,0,0,0,0,0,0,0,0,0,0,0,0,0,0,0,0,0,0,0,0,0,0,0,0,0,0,0,0,0,0,0,0,0,0,0],"sum_hessian":[3.701911E2,3.6824185E2,1.9492389E0,3.3109872E2,3.7143135E1,3.2663602E2,4.4627147E0,2.5640148E1,1.1502988E1,3.0768948E2,1.8946524E1,1.0470054E0,3.4157095E0,5.0125346E0,2.0627613E1,1.0307845E1,1.1951426E0,2.5547462E2,5.221486E1,1.4919782E1,4.026741E0,3.2950532E0,1.7174814E0,1.8751102E1,1.8765117E0,9.243419E0,1.064426E0,2.1418465E2,4.1289986E1,3.0248732E1,2.1966127E1,3.0904572E0,1.1829325E1,1.7323587E0,2.2943823E0,1.4685599E1,4.065502E0,6.925977E0,2.3174417E0],"tree_param":{"num_deleted":"0","num_feature":"107","num_nodes":"39","size_leaf_vector":"0"}},{"base_weights":[-2.484396E-3,5.116938E-2,-9.098335E-2,2.8128648E-2,8.8389844E-1,-3.548561E-1,8.445174E-3,-6.1458692E-2,2.0086452E-1,8.610353E-2,1.1259421E0,-7.543979E-1,1.318094E-1,9.903157E-2,-3.669298E-1,1.4339397E-3,-8.0748373E-1,3.2498854E-1,-2.8113943E-1,-1.1760502E0,-9.869505E-2,-2.405111E-1,5.9549934E-1,-1.812048E-1,2.162085E-1,-5.901883E-1,5.504867E-1,4.7787033E-2,-8.380182E-1,-1.0701767E0,6.095851E-2,-7.511942E-2,4.7335777E-1,2.9123837E-1,-6.0033435E-1,-1.1571485E-1,-1.2830156E0,3.5802436E-1,-1.0244794E0,-4.5120323E-1,7.9667205E-1,-1.2633091E-1,8.477857E-1,-3.208403E-1,7.070817E-1,4.9296945E-1,-1.0544488E-3,4.3288013E-1,-8.3273727E-1,9.3372744E-1,-1.2047782E-1,-3.215908E-1,1.3096493E-1,-1.1402794E0,5.1671165E-1,3.173276E-2,-1.2148021E0,5.752894E-1,-5.7390386E-1,9.115302E-2,-1.0390381E0,5.202464E-1,-7.299594E-1,-3.8267893E-1,5.710335E-1,-8.0848116E-1,6.559792E-1,-1.3483087E0,-3.6788934E-1,-3.7071195E-1,6.429198E-1,-1.2023968E-1,-1.070508E0,9.8174465E-1,1.03218645E-1,-4.3711418E-1,5.128676E-1,6.774209E-1,1.9900162E-2,-8.3925277E-1,1.15538314E-1,8.6921835E-1,-1.748476E-1,-9.4832605E-1,3.9665595E-2],"categories":[],"categories_nodes":[],"categories_segments":[],"categories_sizes":[],"default_left":[1,1,1,1,1,1,1,1,1,0,0,1,1,1,1,1,1,1,1,1,1,1,1,1,1,1,1,1,1,1,1,1,1,1,1,0,1,1,0,1,0,0,1,1,0,1,1,1,1,0,0,0,0,0,0,0,0,0,0,0,0,0,0,0,0,0,0,0,0,0,0,0,0,0,0,0,0,0,0,0,0,0,0,0,0],"id":19,"left_children":[1,3,5,7,9,11,13,15,17,-1,-1,19,21,23,25,27,29,31,33,35,37,39,41,43,45,47,49,51,53,55,57,59,61,63,65,-1,67,69,-1,71,-1,-1,73,75,-1,77,79,81,83,-1,-1,-1,-1,-1,-1,-1,-1,-1,-1,-1,-1,-1,-1,-1,-1,-1,-1,-1,-1,-1,-1,-1,-1,-1,-1,-1,-1,-1,-1,-1,-1,-1,-1,-1,-1],"loss_changes":[1.744094E0,4.363178E0,3.6400561E0,3.4721975E0,1.085741E0,7.4809904E0,3.4932907E0,6.9446883E0,4.67358E0,0E0,0E0,5.6888866E0,3.244977E0,2.7543857E0,4.4165363E0,5.3895774E0,2.690536E0,3.678658E0,3.1382895E0,1.2904949E0,4.302847E0,2.6927407E0,1.616616E0,3.3183641E0,3.5339134E0,4.467101E0,1.2509434E0,4.0741105E0,3.557177E0,1.4551506E0,1.5117542E0,2.8937333E0,2.9133863E0,1.4404635E0,3.3387983E0,0E0,1.8665314E-1,1.6863871E0,0E0,1.8211348E0,0E0,0E0,5.2424574E-1,2.3787642E0,0E0,2.2417035E0,3.4116755E0,1.1674849E0,1.4211168E0,0E0,0E0,0E0,0E0,0E0,0E0,0E0,0E0,0E0,0E0,0E0,0E0,0E0,0E0,0E0,0E0,0E0,0E0,0E0,0E0,0E0,0E0,0E0,0E0,0E0,0E0,0E0,0E0,0E0,0E0,0E0,0E0,0E0,0E0,0E0,0E0],"parents":[2147483647,0,0,1,1,2,2,3,3,4,4,5,5,6,6,7,7,8,8,11,11,12,12,13,13,14,14,15,15,16,16,17,17,18,18,19,19,20,20,21,21,22,22,23,23,24,24,25,25,26,26,27,27,28,28,29,29,30,30,31,31,32,32,33,33,34,34,36,36,37,37,39,39,42,42,43,43,45,45,46,46,47,47,48,48],"right_children":[2,4,6,8,10,12,14,16,18,-1,-1,20,22,24,26,28,30,32,34,36,38,40,42,44,46,48,50,52,54,56,58,60,62,64,66,-1,68,70,-1,72,-1,-1,74,76,-1,78,80,82,84,-1,-1,-1,-1,-1,-1,-1,-1,-1,-1,-1,-1,-1,-1,-1,-1,-1,-1,-1,-1,-1,-1,-1,-1,-1,-1,-1,-1,-1,-1,-1,-1,-1,-1,-1,-1],"split_conditions":[6.9215E1,6.8175E1,2.5E0,4.6862745E-1,5E-1,5E-1,5E-1,5E-1,3.5E0,2.583106E-2,3.3778265E-1,5.4692084E-1,5E-1,2.909946E-1,4.9324325E-1,5E-1,1.97E2,2.9823798E2,5E-1,3.397436E-1,6.3666666E-1,3.5E0,1.5E0,5E-1,1.5E0,1.871872E-1,6.5E0,1.5E0,5E-1,1.35E2,4.0285206E-1,5E-1,1.5E0,5.199693E-1,5E-1,-3.4714457E-2,3.5E0,5.5E0,-3.0734384E-1,4.513889E-1,2.3900162E-1,-3.7899274E-2,9.7535E1,5E-1,2.1212451E-1,7.5E0,4.1630902E2,8.1455E1,1.5E0,2.8011826E-1,-3.6143348E-2,-9.647725E-2,3.9289482E-2,-3.4208384E-1,1.550135E-1,9.5198285E-3,-3.6444065E-1,1.7258683E-1,-1.7217116E-1,2.7345907E-2,-3.1171143E-1,1.5607393E-1,-2.1898784E-1,-1.1480368E-1,1.7131005E-1,-2.4254435E-1,1.9679378E-1,-4.0449262E-1,-1.1036681E-1,-1.1121359E-1,1.9287594E-1,-3.6071908E-2,-3.2115242E-1,2.9452342E-1,3.0965595E-2,-1.3113426E-1,1.538603E-1,2.0322628E-1,5.9700487E-3,-2.5177583E-1,3.4661494E-2,2.6076552E-1,-5.245428E-2,-2.8449783E-1,1.1899679E-2],"split_indices":[16,16,7,17,9,51,28,12,3,0,0,17,91,17,17,62,0,15,63,17,17,4,32,62,63,17,8,5,73,0,17,51,49,17,52,0,58,11,0,17,0,0,16,12,0,8,15,16,66,0,0,0,0,0,0,0,0,0,0,0,0,0,0,0,0,0,0,0,0,0,0,0,0,0,0,0,0,0,0,0,0,0,0,0,0],"split_type":[0,0,0,0,0,0,0,0,0,0,0,0,0,0,0,0,0,0,0,0,0,0,0,0,0,0,0,0,0,0,0,0,0,0,0,0,0,0,0,0,0,0,0,0,0,0,0,0,0,0,0,0,0,0,0,0,0,0,0,0,0,0,0,0,0,0,0,0,0,0,0,0,0,0,0,0,0,0,0,0,0,0,0,0,0],"sum_hessian":[3.653284E2,2.2770236E2,1.3762605E2,2.2257765E2,5.124709E0,3.6962513E1,1.00663536E2,1.4698822E2,7.558943E1,1.5084559E0,3.6162531E0,1.999605E1,1.6966461E1,8.1686844E1,1.8976686E1,1.364805E2,1.0507726E1,6.0369133E1,1.5220297E1,1.1687067E1,8.308984E0,9.677339E0,7.289123E0,2.3924177E1,5.776267E1,1.5549349E1,3.4273381E0,1.3023236E2,6.2481327E0,7.889082E0,2.6186438E0,1.6464077E1,4.3905056E1,5.4804254E0,9.739872E0,1.2617075E0,1.0425359E1,5.9747305E0,2.3342538E0,8.512992E0,1.1643465E0,2.0171115E0,5.2720118E0,2.122629E1,2.6978881E0,2.4844915E1,3.2917755E1,2.829565E0,1.2719783E1,1.9321276E0,1.4952104E0,2.3409363E1,1.06823E2,5.237797E0,1.010336E0,1.0058722E0,6.8832097E0,1.4984871E0,1.1201568E0,1.481413E1,1.6499481E0,4.2804775E1,1.1002802E0,1.4999412E0,3.9804842E0,8.661324E0,1.078548E0,9.2892275E0,1.136132E0,1.5946194E0,4.380111E0,6.3262987E0,2.1866937E0,4.198155E0,1.0738565E0,1.9045753E1,2.1805353E0,1.7564486E1,7.280429E0,3.2628205E0,2.9654934E1,1.3965733E0,1.4329919E0,1.1154803E1,1.56498E0],"tree_param":{"num_deleted":"0","num_feature":"107","num_nodes":"85","size_leaf_vector":"0"}},{"base_weights":[-4.940324E-3,6.7942054E-4,-7.543871E-1,6.8113445E-3,-6.0032165E-1,1.4033318E-2,-5.0853103E-1,-7.6396316E-1,-1.20084554E-1,5.455851E-2,-1.06416956E-1,4.9050832E-1,-9.614075E-1,1.9435154E-1,-2.288127E-2,-3.2552752E-1,8.407005E-2,4.8871018E-2,5.743141E-1,1.0917624E-1,-1.2108965E-1,-9.265923E-3,-6.2276137E-1,-7.7471575E-3,1.0238086E0],"categories":[],"categories_nodes":[],"categories_segments":[],"categories_sizes":[],"default_left":[1,1,0,1,1,1,1,0,0,1,1,0,0,1,1,1,1,0,0,0,0,0,0,0,0],"id":20,"left_children":[1,3,-1,5,7,9,11,-1,-1,13,15,-1,-1,17,19,21,23,-1,-1,-1,-1,-1,-1,-1,-1],"loss_changes":[1.4884553E0,1.3000504E0,0E0,1.3063934E0,1.8825603E-1,1.6910323E0,2.6665673E0,0E0,0E0,2.8081565E0,3.6691127E0,0E0,0E0,5.0812497E0,2.1863225E0,3.82799E0,4.103843E0,0E0,0E0,0E0,0E0,0E0,0E0,0E0,0E0],"parents":[2147483647,0,0,1,1,3,3,4,4,5,5,6,6,9,9,10,10,13,13,14,14,15,15,16,16],"right_children":[2,4,-1,6,8,10,12,-1,-1,14,16,-1,-1,18,20,22,24,-1,-1,-1,-1,-1,-1,-1,-1],"split_conditions":[5E-1,1.5E0,-2.2631614E-1,3.5E0,2.5E0,5E-1,4.686E1,-2.2918896E-1,-3.6025368E-2,1.5E0,3.5E0,1.471525E-1,-2.8842226E-1,5.5E0,5E-1,5E-1,1.5E0,1.4661306E-2,1.7229424E-1,3.2752875E-2,-3.6326896E-2,-2.779777E-3,-1.8682842E-1,-2.3241474E-3,3.071426E-1],"split_indices":[30,29,0,66,7,86,16,0,0,37,11,0,0,21,32,32,66,0,0,0,0,0,0,0,0],"split_type":[0,0,0,0,0,0,0,0,0,0,0,0,0,0,0,0,0,0,0,0,0,0,0,0,0],"sum_hessian":[3.52288E2,3.5065765E2,1.6303214E0,3.480948E2,2.5628922E0,3.4424335E2,3.8514333E0,1.4708828E0,1.0920095E0,2.579902E2,8.625312E1,1.1754066E0,2.6760268E0,9.1430916E1,1.665593E2,3.9783096E1,4.6470028E1,6.693239E1,2.449853E1,7.098989E1,9.5569405E1,1.9774202E1,2.0008892E1,4.3237286E1,3.2327452E0],"tree_param":{"num_deleted":"0","num_feature":"107","num_nodes":"25","size_leaf_vector":"0"}},{"base_weights":[-4.2759017E-3,-1.225344E-2,4.6800417E-1,-3.1006422E-3,-8.20484E-1,-2.9315937E-1,7.6841325E-1,2.016454E-2,-1.6318233E-1,8.81062E-1,2.4918987E-1,4.3189332E-2,-2.7944496E-1,-2.93471E-1,5.691999E-1,2.1191087E-2,5.9279704E-1,-1.0943767E-2,-8.965004E-1,-1.4571106E-1,-9.4536734E-1,8.808292E-1,-1.8258059E-1,2.9863216E-2,-8.225795E-1,7.4288744E-1,-1.5736334E-1,-9.567315E-1,3.624172E-1,-4.2837963E-1,-1.1061883E0,-3.1758845E-1,3.27309E-1,-1.179503E0,-8.690765E-2],"categories":[],"categories_nodes":[],"categories_segments":[],"categories_sizes":[],"default_left":[1,1,1,1,0,0,1,1,1,0,0,1,1,1,1,1,1,1,1,1,1,0,0,0,0,0,0,0,0,0,0,0,0,0,0],"id":21,"left_children":[1,3,5,7,-1,-1,9,11,13,-1,-1,15,17,19,21,23,25,27,29,31,33,-1,-1,-1,-1,-1,-1,-1,-1,-1,-1,-1,-1,-1,-1],"loss_changes":[1.3243082E0,2.5506175E0,1.560397E0,1.2780324E0,0E0,0E0,4.1473627E-2,2.0797575E0,4.3218427E0,0E0,0E0,3.363178E0,3.5563326E0,3.4864893E0,1.7811434E0,1.9965737E0,1.3225656E0,6.0003533E0,1.6552258E-1,2.6938279E0,1.2582722E0,0E0,0E0,0E0,0E0,0E0,0E0,0E0,0E0,0E0,0E0,0E0,0E0,0E0,0E0],"parents":[2147483647,0,0,1,1,2,2,3,3,6,6,7,7,8,8,11,11,12,12,13,13,14,14,15,15,16,16,17,17,18,18,19,19,20,20],"right_children":[2,4,6,8,-1,-1,10,12,14,-1,-1,16,18,20,22,24,26,28,30,32,34,-1,-1,-1,-1,-1,-1,-1,-1,-1,-1,-1,-1,-1,-1],"split_conditions":[5.5E0,8.5E0,4.2396313E-1,9.236E1,-2.461452E-1,-8.7947816E-2,2.12E2,1.5E0,2.31E2,2.6431862E-1,7.4756965E-2,8.872E1,8.0990005E1,1.5E0,1.22369995E2,5E-1,2.5E0,1.53E2,8.2E1,4.068287E-1,5E-1,2.642488E-1,-5.477418E-2,8.958966E-3,-2.4677385E-1,2.2286624E-1,-4.7209006E-2,-2.8701946E-1,1.0872516E-1,-1.2851389E-1,-3.318565E-1,-9.527654E-2,9.819271E-2,-3.538509E-1,-2.6072295E-2],"split_indices":[3,21,17,16,0,0,0,77,0,0,0,16,16,13,16,93,9,0,16,17,52,0,0,0,0,0,0,0,0,0,0,0,0,0,0],"split_type":[0,0,0,0,0,0,0,0,0,0,0,0,0,0,0,0,0,0,0,0,0,0,0,0,0,0,0,0,0,0,0,0,0,0,0],"sum_hessian":[3.4897406E2,3.4413513E2,4.8389177E0,3.412742E2,2.8609197E0,1.37617E0,3.4627478E0,2.987325E2,4.254171E1,2.2727714E0,1.1899762E0,2.7820822E2,2.0524271E1,3.6625443E1,5.9162674E0,2.6849997E2,9.708251E0,1.501046E1,5.513811E0,3.0855255E1,5.7701864E0,4.061168E0,1.8550994E0,2.6672327E2,1.7767283E0,8.097763E0,1.6104873E0,3.806204E0,1.1204255E1,2.6471283E0,2.8666825E0,2.2872765E1,7.9824924E0,4.23984E0,1.5303465E0],"tree_param":{"num_deleted":"0","num_feature":"107","num_nodes":"35","size_leaf_vector":"0"}},{"base_weights":[-5.949301E-3,-1.10895615E-2,7.6077324E-1,-4.480699E-1,-1.2279609E-3,-8.314127E-1,2.780294E-1,1.458219E-1,-3.2600153E-2,2.5307792E-1,-1.153565E0,-5.0420517E-1,9.039957E-1,2.1214521E-1,-7.913896E-1,-3.9196175E-1,-7.566262E-3,-2.1815227E-2,4.0149072E-1,-9.3859506E-1,-2.580643E-1,-1.7230317E-1,-8.0465317E-1,5.1395416E-1,-3.010426E-2,-1.7811897E-1,6.5150535E-1,2.2443324E-1,7.5030607E-1,-6.3513964E-1,4.9029723E-1,-5.985427E-2,-9.66148E-1,8.076346E-1,-5.8993693E-3,-4.5392373E-1,2.4722246E-3],"categories":[],"categories_nodes":[],"categories_segments":[],"categories_sizes":[],"default_left":[1,1,0,1,1,1,1,1,1,0,0,0,0,1,1,1,1,1,1,0,0,1,1,1,1,0,0,0,0,0,0,0,0,0,0,0,0],"id":22,"left_children":[1,3,-1,5,7,9,11,13,15,-1,-1,-1,-1,17,19,21,23,25,27,-1,-1,29,31,33,35,-1,-1,-1,-1,-1,-1,-1,-1,-1,-1,-1,-1],"loss_changes":[1.3701848E0,1.4827403E0,0E0,2.3448243E0,1.5622473E0,2.115823E0,2.1075091E0,3.8691652E0,2.507571E0,0E0,0E0,0E0,0E0,2.5071805E0,8.333516E-2,1.5070896E0,3.093984E0,2.870838E0,1.7599463E0,0E0,0E0,4.3352137E0,6.6793036E-1,1.669668E0,3.4804556E0,0E0,0E0,0E0,0E0,0E0,0E0,0E0,0E0,0E0,0E0,0E0,0E0],"parents":[2147483647,0,0,1,1,3,3,4,4,5,5,6,6,7,7,8,8,13,13,14,14,15,15,16,16,17,17,18,18,21,21,22,22,23,23,24,24],"right_children":[2,4,-1,6,8,10,12,14,16,-1,-1,-1,-1,18,20,22,24,26,28,-1,-1,30,32,34,36,-1,-1,-1,-1,-1,-1,-1,-1,-1,-1,-1,-1],"split_conditions":[1.5E0,9.232955E-2,2.2823198E-1,1.29E2,5E-1,2.792385E2,2.5E0,9.5E0,2.789335E2,7.592338E-2,-3.460695E-1,-1.5126155E-1,2.7119872E-1,5E-1,1.5E0,3.0015E1,1.967E1,7.5E0,3.693957E-1,-2.8157854E-1,-7.7419296E-2,2.7724998E1,1.01E2,5E-1,5E-1,-5.3435694E-2,1.9545162E-1,6.732997E-2,2.2509183E-1,-1.9054191E-1,1.4708917E-1,-1.7956281E-2,-2.8984442E-1,2.4229039E-1,-1.7698108E-3,-1.3617712E-1,7.416674E-4],"split_indices":[64,17,0,0,3,15,6,10,15,0,0,0,0,58,32,16,16,10,17,0,0,16,0,66,13,0,0,0,0,0,0,0,0,0,0,0,0],"split_type":[0,0,0,0,0,0,0,0,0,0,0,0,0,0,0,0,0,0,0,0,0,0,0,0,0,0,0,0,0,0,0,0,0,0,0,0,0],"sum_hessian":[3.4452017E2,3.432048E2,1.315377E0,6.593697E0,3.366111E2,4.2204685E0,2.3732285E0,5.854533E1,2.7806577E2,1.0156865E0,3.2047822E0,1.1414012E0,1.2318274E0,5.53986E1,3.1467302E0,1.7154572E1,2.609112E2,2.5175661E1,3.0222939E1,1.8705415E0,1.2761887E0,1.2120724E1,5.033849E0,9.905187E0,2.5100601E2,2.1029388E1,4.1462727E0,2.113719E1,9.08575E0,7.16047E0,4.9602532E0,1.1412299E0,3.8926187E0,5.9757376E0,3.929449E0,1.6993023E1,2.34013E2],"tree_param":{"num_deleted":"0","num_feature":"107","num_nodes":"37","size_leaf_vector":"0"}},{"base_weights":[-4.898091E-3,-5.016481E-1,2.0037435E-3,-7.443144E-1,1.0033966E-1,-1.5845194E-2,1.9532247E-1,-8.112245E-3,-6.511001E-1,7.640997E-1,5.4035265E-2,-4.1492447E-2,1.5259539E-1,-8.5022414E-1,-1.7734554E-1,9.949706E-1,9.0380155E-2,-5.7406604E-1,2.4821082E-1,-1.784875E-2,-2.9747716E-1,3.2760033E-1,-1.6864261E-1,1.1539711E0,2.8290123E-1,4.7560576E-1,-8.903343E-1,-5.087344E-1,3.532529E-1,-3.2889597E-2,8.5098034E-1,2.2745454E-1,-5.954217E-1,-7.899582E-2,7.124765E-1,-5.852034E-1,2.0430997E-1,4.8068407E-1,-2.317922E-1],"categories":[],"categories_nodes":[],"categories_segments":[],"categories_sizes":[],"default_left":[1,1,1,0,0,1,1,1,1,1,1,1,1,0,0,1,0,1,1,1,1,1,1,0,0,0,0,0,1,0,0,0,0,0,0,0,0,0,0],"id":23,"left_children":[1,3,5,-1,-1,7,9,11,13,15,17,19,21,-1,-1,23,-1,25,27,29,31,33,35,-1,-1,-1,-1,-1,37,-1,-1,-1,-1,-1,-1,-1,-1,-1,-1],"loss_changes":[1.1703682E0,7.58041E-1,1.167287E0,0E0,0E0,1.516585E0,2.2564979E0,1.6536919E0,1.9950831E-1,7.831857E-1,3.067133E0,1.538421E0,3.0364075E0,0E0,0E0,1.3556385E-1,0E0,2.4035568E0,1.6916467E0,3.0931659E0,3.4984334E0,5.4813275E0,3.127458E0,0E0,0E0,0E0,0E0,0E0,1.4003174E0,0E0,0E0,0E0,0E0,0E0,0E0,0E0,0E0,0E0,0E0],"parents":[2147483647,0,0,1,1,2,2,5,5,6,6,7,7,8,8,9,9,10,10,11,11,12,12,15,15,17,17,18,18,19,19,20,20,21,21,22,22,28,28],"right_children":[2,4,6,-1,-1,8,10,12,14,16,18,20,22,-1,-1,24,-1,26,28,30,32,34,36,-1,-1,-1,-1,-1,38,-1,-1,-1,-1,-1,-1,-1,-1,-1,-1],"split_conditions":[2.291855E2,5E-1,5E-1,-2.2329432E-1,3.0101899E-2,5E-1,2.967075E2,5E-1,5E-1,4.5E0,3.608375E2,5.08362E2,6.9104996E1,-2.5506726E-1,-5.3203665E-2,1.5E0,2.7114047E-2,1.5E0,3.5E0,5.02811E2,5E-1,3.59999E2,3.65E1,3.4619135E-1,8.487037E-2,1.4268173E-1,-2.671003E-1,-1.5262033E-1,5E-1,-9.866879E-3,2.552941E-1,6.8236366E-2,-1.7862651E-1,-2.3698745E-2,2.1374296E-1,-1.7556103E-1,6.1292995E-2,1.4420523E-1,-6.953766E-2],"split_indices":[15,66,39,0,0,81,15,41,63,11,15,15,16,0,0,9,0,11,11,15,51,15,18,0,0,0,0,0,105,0,0,0,0,0,0,0,0,0,0],"split_type":[0,0,0,0,0,0,0,0,0,0,0,0,0,0,0,0,0,0,0,0,0,0,0,0,0,0,0,0,0,0,0,0,0,0,0,0,0,0,0],"sum_hessian":[3.4007263E2,3.6778948E0,3.3639474E2,2.4527454E0,1.2251494E0,3.0880142E2,2.7593313E1,3.060882E2,2.7132378E0,4.613341E0,2.2979973E1,2.5405983E2,5.2028355E1,1.350822E0,1.3624158E0,3.0807831E0,1.5325578E0,4.964579E0,1.8015392E1,2.3355734E2,2.0502497E1,3.3667225E1,1.836113E1,2.0111246E0,1.0696586E0,1.032843E0,3.931736E0,1.7270346E0,1.6288359E1,2.3052866E2,3.0286815E0,7.5091443E0,1.2993352E1,1.6758125E1,1.69091E1,8.404645E0,9.956484E0,1.3521553E1,2.766806E0],"tree_param":{"num_deleted":"0","num_feature":"107","num_nodes":"39","size_leaf_vector":"0"}},{"base_weights":[-3.3206134E-3,6.2298685E-2,-5.5972572E-2,1.0308075E-1,-2.310553E-1,-4.2723875E-2,-1.062183E0,4.590048E-3,3.620087E-1,-4.5556447E-1,5.017198E-1,-6.4282835E-2,3.8952106E-1,-4.1622058E-2,4.8979345E-1,2.2317062E-3,5.726634E-1,-6.8092024E-1,5.794406E-1,7.955411E-1,-1.7582576E-1,1.1278737E-2,-2.7374867E-1,8.189996E-1,-6.396719E-1,1.957525E-2,-3.9703384E-1,-2.4993876E-1,7.784723E-1,-4.7313684E-1,4.7955173E-1,-6.0416237E-3,6.883651E-1,-1.0602679E0,-1.1034594E-1,1.4598146E-1,7.324992E-1,1.9077297E-1,1.035884E0,-1.7529622E-1,1.5551116E-1,-9.5764536E-1,-1.40251E-1,9.701692E-1,2.6791283E-1,-1.1044191E0,1.6015187E-1,-7.2688505E-2,2.942495E-1,1.9226985E-1,-7.803728E-1,4.207873E-1,-7.798763E-1,8.736968E-1,1.8000504E-1,1.950234E-1,-8.531764E-1,-1.0159365E-1,8.834104E-1,7.088156E-1,-6.8194443E-1,8.20157E-1,8.121507E-2,-1.2426252E0,-2.502713E-2,-4.1987944E-1,2.8766006E-1,-8.797906E-2,-8.1957114E-1,8.192726E-2,8.789469E-1,1.8669137E-1,-1.4846909E0,-3.7278637E-2,-8.68941E-1],"categories":[],"categories_nodes":[],"categories_segments":[],"categories_sizes":[],"default_left":[1,1,1,1,1,1,0,1,1,1,1,1,1,1,1,1,1,1,1,1,0,1,1,1,1,1,1,1,1,1,1,1,1,1,1,0,0,0,0,1,1,1,1,0,0,0,0,0,0,0,0,0,0,0,0,0,0,0,0,0,0,0,0,0,0,0,0,0,0,0,0,0,0,0,0],"id":24,"left_children":[1,3,5,7,9,11,-1,13,15,17,19,21,23,25,27,29,31,33,35,37,-1,39,41,43,45,47,49,51,53,55,57,59,61,63,65,-1,-1,-1,-1,67,69,71,73,-1,-1,-1,-1,-1,-1,-1,-1,-1,-1,-1,-1,-1,-1,-1,-1,-1,-1,-1,-1,-1,-1,-1,-1,-1,-1,-1,-1,-1,-1,-1,-1],"loss_changes":[1.1681064E0,1.8247683E0,2.454814E0,3.3863888E0,3.3019924E0,1.7597462E0,0E0,2.2011247E0,2.7723365E0,3.852284E0,1.10685E0,2.8230383E0,4.4955077E0,1.959243E0,2.0173674E0,3.5212276E0,1.5493932E0,2.6174922E0,1.0476887E-1,3.2114816E-1,0E0,3.5765727E0,4.1815715E0,3.0475712E-1,1.3689681E0,1.9853097E0,3.1379635E0,1.4488816E0,2.0648217E-1,2.1413307E0,1.9065918E0,2.8202622E0,1.4730406E0,1.3795395E0,8.798355E-1,0E0,0E0,0E0,0E0,3.1894317E0,3.916141E0,4.8300858E0,3.0232697E0,0E0,0E0,0E0,0E0,0E0,0E0,0E0,0E0,0E0,0E0,0E0,0E0,0E0,0E0,0E0,0E0,0E0,0E0,0E0,0E0,0E0,0E0,0E0,0E0,0E0,0E0,0E0,0E0,0E0,0E0,0E0,0E0],"parents":[2147483647,0,0,1,1,2,2,3,3,4,4,5,5,7,7,8,8,9,9,10,10,11,11,12,12,13,13,14,14,15,15,16,16,17,17,18,18,19,19,21,21,22,22,23,23,24,24,25,25,26,26,27,27,28,28,29,29,30,30,31,31,32,32,33,33,34,34,39,39,40,40,41,41,42,42],"right_children":[2,4,6,8,10,12,-1,14,16,18,20,22,24,26,28,30,32,34,36,38,-1,40,42,44,46,48,50,52,54,56,58,60,62,64,66,-1,-1,-1,-1,68,70,72,74,-1,-1,-1,-1,-1,-1,-1,-1,-1,-1,-1,-1,-1,-1,-1,-1,-1,-1,-1,-1,-1,-1,-1,-1,-1,-1,-1,-1,-1,-1,-1,-1],"split_conditions":[1.5E0,5E-1,1.5E0,5E-1,4.5E0,5E-1,-3.1865492E-1,5E-1,3.67794E2,5E-1,5E-1,5E-1,1.5E0,3.5E0,2.84651E2,3.2456142E-1,5E-1,1.5E0,5E-1,5E-1,-5.274773E-2,1.5E0,3.73298E2,5.5E0,2.11E2,